-8.392827212810516357e-02
-3.575277701020240784e-02
-4.182770103216171265e-02
-6.955509632825851440e-02
3.200089558959007263e-02
-3.480480611324310303e-02
2.067897282540798187e-02
7.723602931946516037e-03
1.708976179361343384e-02
-7.827268540859222412e-02
5.562133155763149261e-04
-2.012751996517181396e-02
-5.167021229863166809e-02
-3.240540251135826111e-02
-9.598609060049057007e-02
-1.514468900859355927e-02
6.305685732513666153e-03
-4.028562828898429871e-02
-9.742842614650726318e-02
-2.441203966736793518e-02
-4.191806167364120483e-02
-1.313572525978088379e-01
-8.858204632997512817e-02
-1.654678769409656525e-02
-7.127933949232101440e-02
-3.731684759259223938e-02
-4.294700629543513060e-04
-6.935923546552658081e-02
-3.857131302356719971e-02
-9.347490221261978149e-02
-6.194709241390228271e-02
5.033998936414718628e-02
8.105637133121490479e-02
-3.178966417908668518e-02
-2.011882327497005463e-02
-7.229647040367126465e-02
-6.232402753084897995e-03
-3.551210463047027588e-02
1.652514003217220306e-02
-1.759113930165767670e-02
-9.408326447010040283e-02
-3.701131045818328857e-02
-1.385270245373249054e-02
-8.637511730194091797e-02
-2.493695821613073349e-03
4.920732602477073669e-02
-7.159423828125000000e-02
3.075337409973144531e-02
-2.091055922210216522e-02
-5.928358808159828186e-02
