6.811171025037765503e-02
1.598749458789825439e-01
-1.642181128263473511e-01
1.406026631593704224e-01
1.296728402376174927e-01
1.438336670398712158e-01
2.156917005777359009e-02
-9.611074626445770264e-02
1.427279263734817505e-01
-1.684986054897308350e-01
1.006772592663764954e-01
7.683145254850387573e-02
-1.048524528741836548e-01
1.403090208768844604e-01
8.910559117794036865e-02
-2.509795501828193665e-02
-1.639545708894729614e-01
5.295145139098167419e-02
-8.739917725324630737e-02
9.147205948829650879e-02
3.607962280511856079e-02
-4.226362332701683044e-02
2.877182513475418091e-02
1.239164546132087708e-01
6.359312217682600021e-03
-1.816134527325630188e-02
-1.498847007751464844e-01
1.368083804845809937e-01
-1.332210153341293335e-01
-2.186744846403598785e-02
9.387151896953582764e-02
1.526900231838226318e-01
-1.010625585913658142e-01
7.274763286113739014e-02
2.465750463306903839e-02
1.638841331005096436e-01
-3.210822865366935730e-02
3.675830736756324768e-02
1.609285771846771240e-01
-1.727511137723922729e-01
8.535090088844299316e-02
-1.146936696022748947e-02
8.286256343126296997e-02
5.997998267412185669e-02
2.455067122355103493e-03
2.081003785133361816e-01
9.379595518112182617e-02
1.188919991254806519e-01
-9.029606729745864868e-02
7.395593076944351196e-02
-1.424878835678100586e-01
-9.063840843737125397e-03
-9.212132543325424194e-02
-1.223897486925125122e-01
-5.457841604948043823e-02
-2.398321405053138733e-02
-6.992216408252716064e-02
-1.214852705597877502e-01
-1.563768833875656128e-01
-1.941948384046554565e-01
-2.855929546058177948e-02
9.598489105701446533e-02
7.427449524402618408e-02
-1.436702162027359009e-01
5.096722021698951721e-02
-1.675720363855361938e-01
-4.806276038289070129e-02
1.476030945777893066e-01
-2.705077640712261200e-02
1.369908154010772705e-01
2.099405974149703979e-02
3.978601470589637756e-02
1.816514283418655396e-01
1.760076731443405151e-02
-1.480286121368408203e-01
1.540269553661346436e-01
-1.701528429985046387e-01
-8.503812551498413086e-02
-1.622510105371475220e-01
-3.221525996923446655e-02
1.111672446131706238e-01
1.697545796632766724e-01
7.410255074501037598e-02
8.484601974487304688e-02
6.852407753467559814e-02
1.388219594955444336e-01
-1.635686308145523071e-01
-1.232135072350502014e-01
6.648398935794830322e-02
1.266106516122817993e-01
3.372045233845710754e-02
7.223330438137054443e-02
-8.887160220183432102e-04
2.526632510125637054e-02
-4.621114954352378845e-02
-1.329129487276077271e-01
-3.527259454131126404e-02
-5.453242734074592590e-02
-1.674686670303344727e-01
2.448765793815255165e-03
-1.713466197252273560e-01
2.356743440032005310e-03
-1.429253369569778442e-01
1.099070981144905090e-01
6.125121936202049255e-02
1.198579519987106323e-01
-1.223773583769798279e-01
1.708574146032333374e-01
-8.512155711650848389e-02
-8.770567178726196289e-02
-4.580481722950935364e-02
6.823552399873733521e-02
1.905341297388076782e-01
2.411653250455856323e-01
1.660779267549514771e-01
2.013988345861434937e-01
-6.115763634443283081e-02
2.302707731723785400e-01
2.679687142372131348e-01
2.021582424640655518e-01
1.569481939077377319e-01
2.400781959295272827e-01
1.899928748607635498e-01
1.528774499893188477e-01
6.280143558979034424e-02
-1.162534952163696289e-01
-4.020044952630996704e-02
5.297142267227172852e-02
-1.538190525025129318e-02
-8.308275602757930756e-03
4.235330596566200256e-02
1.405130922794342041e-01
-2.018624730408191681e-02
-4.364404082298278809e-02
5.555371195077896118e-02
-3.881788253784179688e-02
1.289958953857421875e-01
-8.657342195510864258e-02
9.492786973714828491e-02
-7.076865434646606445e-02
-1.647501736879348755e-01
-5.040170624852180481e-02
1.017647087574005127e-01
9.203913621604442596e-03
5.367221776396036148e-03
-7.164718210697174072e-02
1.493810862302780151e-01
-1.495735198259353638e-01
4.864265397191047668e-02
-9.009345620870590210e-02
1.680191606283187866e-01
2.023704051971435547e-01
-7.674234360456466675e-02
-2.185193449258804321e-02
-9.830869734287261963e-02
-1.438322514295578003e-01
8.976296335458755493e-02
9.235505759716033936e-02
9.199915826320648193e-02
-3.761820122599601746e-02
1.330886483192443848e-01
-6.554587930440902710e-02
-3.644880652427673340e-02
2.358906418085098267e-01
-4.711304791271686554e-03
1.945730894804000854e-01
-6.372011452913284302e-02
-1.186567619442939758e-01
2.138946764171123505e-02
-7.857456803321838379e-02
1.937944144010543823e-01
3.251529484987258911e-02
-4.966595396399497986e-02
4.794877395033836365e-02
6.083201989531517029e-02
5.554128810763359070e-02
6.864171475172042847e-03
-1.261556744575500488e-01
-7.126045227050781250e-02
1.372281182557344437e-02
-2.234980165958404541e-01
-4.760614596307277679e-03
2.436382509768009186e-02
-9.071458131074905396e-02
7.688188552856445312e-02
-1.739694923162460327e-01
-1.903209388256072998e-01
-1.930990815162658691e-01
1.824648529291152954e-01
-9.551533311605453491e-02
-1.175293028354644775e-01
-1.745527982711791992e-02
-2.185118384659290314e-02
5.134642869234085083e-02
9.938513860106468201e-03
6.973789632320404053e-02
-1.724800765514373779e-01
-4.295603185892105103e-02
-7.880997657775878906e-02
1.661745831370353699e-02
-1.813098341226577759e-01
-1.468767076730728149e-01
1.755903512239456177e-01
-1.344294250011444092e-01
2.062641531229019165e-01
1.374113559722900391e-02
1.670417040586471558e-01
1.191937997937202454e-01
-1.142941564321517944e-01
-1.001255512237548828e-01
9.777022898197174072e-02
3.511425480246543884e-02
-1.730550676584243774e-01
1.817746460437774658e-01
1.937947236001491547e-02
1.770312190055847168e-01
-7.995659857988357544e-02
2.345702797174453735e-02
3.326715668663382530e-03
8.248452842235565186e-02
-6.724775582551956177e-02
7.090797275304794312e-02
-4.969741031527519226e-02
-1.346090734004974365e-01
1.794100701808929443e-01
-2.072497829794883728e-02
-1.663953065872192383e-01
-4.777614772319793701e-02
-4.397987574338912964e-02
-7.422198355197906494e-02
-9.194480627775192261e-02
-6.172050163149833679e-02
-1.505467593669891357e-01
-8.744392544031143188e-02
-1.102936118841171265e-01
1.127078756690025330e-01
-1.957746297121047974e-01
-1.307258605957031250e-01
5.581748485565185547e-02
-1.595010161399841309e-01
1.066010445356369019e-01
-1.369052827358245850e-01
-2.838776214048266411e-03
4.812487587332725525e-02
-1.139242108911275864e-02
-1.716453582048416138e-01
-2.119809091091156006e-01
-1.534508615732192993e-01
-9.586514905095100403e-03
-1.010057628154754639e-01
9.776917845010757446e-02
-1.171837225556373596e-01
-1.324725300073623657e-01
6.525681167840957642e-02
2.203913927078247070e-01
1.422876715660095215e-01
-9.517353773117065430e-02
-1.752136647701263428e-01
1.579859703779220581e-01
9.598989039659500122e-02
-1.204389706254005432e-01
-1.472676843404769897e-01
9.612618386745452881e-02
-1.130994930863380432e-01
9.555838257074356079e-02
6.016580015420913696e-02
-1.644886434078216553e-01
8.266939222812652588e-02
-2.800484746694564819e-02
2.530577592551708221e-02
1.105647310614585876e-01
-1.989853829145431519e-01
-1.564964056015014648e-01
1.360561102628707886e-01
3.783404827117919922e-02
3.094745986163616180e-02
5.801955237984657288e-02
-1.891243755817413330e-01
-2.193851582705974579e-02
9.827639907598495483e-02
2.075116932392120361e-01
-1.820304803550243378e-02
-1.164331287145614624e-01
6.276801228523254395e-02
9.776168316602706909e-02
8.794267475605010986e-02
1.034070551395416260e-01
-1.665395945310592651e-01
-1.273415684700012207e-01
5.760611966252326965e-02
-1.868984289467334747e-02
-1.913131177425384521e-01
-1.772705465555191040e-01
-1.641166023910045624e-02
-7.672192156314849854e-02
7.745902985334396362e-02
-5.478137638419866562e-03
3.999293968081474304e-02
-2.157385051250457764e-01
-1.011389400810003281e-02
2.828468382358551025e-02
7.584420591592788696e-02
1.574995815753936768e-01
-1.205795481801033020e-01
-1.037530004978179932e-01
3.455947339534759521e-02
3.988089784979820251e-02
1.345445029437541962e-02
-1.007458120584487915e-01
8.130556344985961914e-02
-3.915556147694587708e-02
8.896362036466598511e-02
2.434976585209369659e-02
-9.259856492280960083e-02
-1.853922195732593536e-02
8.360610902309417725e-02
7.189192622900009155e-02
-7.907591760158538818e-03
-1.261431574821472168e-01
-1.271282229572534561e-02
7.484433054924011230e-02
9.736442565917968750e-02
-1.041369279846549034e-03
8.996930718421936035e-02
-2.020720839500427246e-01
9.442076832056045532e-02
9.308074414730072021e-02
-1.155774965882301331e-01
-1.054269913583993912e-02
-1.798631995916366577e-01
2.051976919174194336e-01
1.701285541057586670e-01
-6.378909200429916382e-02
-5.767987295985221863e-02
-8.638667315244674683e-02
2.173000127077102661e-01
2.300000935792922974e-01
-6.388040632009506226e-02
7.835046201944351196e-02
-7.926983758807182312e-03
-1.589717157185077667e-02
2.289890795946121216e-01
-4.549080878496170044e-02
-2.131604850292205811e-01
-2.226212322711944580e-01
1.901813969016075134e-02
1.587962061166763306e-01
2.206528931856155396e-02
7.789266109466552734e-02
-4.247111454606056213e-02
6.881202757358551025e-02
-1.172377392649650574e-01
8.058991283178329468e-02
8.102166652679443359e-02
-1.115381568670272827e-01
1.200979575514793396e-01
1.567280590534210205e-01
1.088208109140396118e-01
1.207559406757354736e-01
-5.998322740197181702e-02
8.223271369934082031e-02
1.132871136069297791e-01
4.629212990403175354e-02
8.307035267353057861e-02
-1.258254051208496094e-01
9.289232641458511353e-02
2.045467346906661987e-01
-4.006018489599227905e-02
-1.468292474746704102e-01
1.573189496994018555e-01
2.235764451324939728e-02
1.728943437337875366e-01
3.155882295686751604e-04
-4.117626324295997620e-02
4.453742504119873047e-02
-1.515214294195175171e-01
8.488995581865310669e-02
-1.585953533649444580e-01
-1.085846200585365295e-01
-5.930551793426275253e-03
-1.884201765060424805e-01
-4.157671704888343811e-02
-1.017318218946456909e-01
1.414299309253692627e-01
1.836262643337249756e-01
-1.212096363306045532e-01
1.091578528285026550e-01
6.092765554785728455e-02
-1.624769270420074463e-01
1.511957198381423950e-01
-1.026014089584350586e-01
-1.523315161466598511e-01
-2.767346054315567017e-02
6.443260703235864639e-03
-4.534694552421569824e-02
-1.639448702335357666e-01
-1.060786377638578415e-02
-5.301152542233467102e-02
1.076719015836715698e-01
-1.520951837301254272e-01
1.491321921348571777e-01
1.335207819938659668e-01
1.573739200830459595e-01
7.788119465112686157e-02
-1.730841994285583496e-01
-3.036827407777309418e-02
-1.520025134086608887e-01
-1.584876328706741333e-01
4.526122286915779114e-02
1.650575250387191772e-01
-1.462815701961517334e-01
-9.023894369602203369e-02
-1.180465742945671082e-01
9.898944199085235596e-02
1.636974960565567017e-01
-5.998717620968818665e-02
-1.282268017530441284e-01
-4.016461968421936035e-02
-2.346805110573768616e-02
1.250472813844680786e-01
-2.322822064161300659e-02
-6.042180955410003662e-02
3.035983303561806679e-03
-1.679459065198898315e-01
1.003300994634628296e-01
1.039292663335800171e-01
1.526195555925369263e-01
1.192378923296928406e-01
-9.055291861295700073e-02
-1.936871372163295746e-02
1.181650236248970032e-01
-1.374375224113464355e-01
1.882132329046726227e-02
-1.772237569093704224e-01
1.876086182892322540e-02
-4.007099941372871399e-02
9.081969037652015686e-03
1.147447004914283752e-01
5.368999764323234558e-02
-1.698174476623535156e-01
8.594606816768646240e-02
-6.689143180847167969e-02
1.318028196692466736e-02
-1.978105753660202026e-01
-1.133757382631301880e-01
-2.607072703540325165e-02
-2.226412668824195862e-02
-1.717400252819061279e-01
-7.942706346511840820e-02
-2.088214606046676636e-01
-1.056055203080177307e-01
-1.051854118704795837e-01
9.604573994874954224e-02
-2.134078554809093475e-02
-3.404048830270767212e-02
-1.732407957315444946e-01
-1.043557971715927124e-01
-1.086456626653671265e-01
-2.892740815877914429e-02
-6.078327074646949768e-02
7.483516819775104523e-03
8.224846795201301575e-03
-2.550313249230384827e-02
1.514973342418670654e-01
1.273286044597625732e-01
-5.022140219807624817e-02
6.306700408458709717e-02
8.640958368778228760e-02
-1.256270855665206909e-01
4.471867904067039490e-02
7.711361348628997803e-02
-7.468311488628387451e-02
-9.692727029323577881e-02
-1.209357827901840210e-01
-8.413458615541458130e-02
-1.778154969215393066e-01
-1.405087858438491821e-01
1.977757066488265991e-01
8.729667961597442627e-02
2.091667801141738892e-02
-1.894618198275566101e-02
-3.892056643962860107e-02
1.874498277902603149e-01
5.401322245597839355e-02
3.763014450669288635e-02
-1.659847348928451538e-01
1.725684851408004761e-01
-1.188366208225488663e-03
1.764881759881973267e-01
8.796532452106475830e-02
-6.793755292892456055e-02
-9.867361932992935181e-02
-2.487016841769218445e-02
7.667613029479980469e-02
-7.732249051332473755e-02
1.303479261696338654e-02
1.708410680294036865e-01
-2.031959034502506256e-02
1.541139930486679077e-01
1.471246033906936646e-01
-9.557657875120639801e-03
-1.312406659126281738e-01
1.113434657454490662e-01
-7.661408931016921997e-02
-2.611782588064670563e-02
1.445996463298797607e-01
-6.922542303800582886e-02
-1.679563969373703003e-01
-1.364129632711410522e-01
-9.758024662733078003e-02
-1.174124851822853088e-01
-1.265734583139419556e-01
-1.313256770372390747e-01
-6.030899658799171448e-02
5.386390723288059235e-03
-2.013412863016128540e-01
-1.186499819159507751e-01
4.817291349172592163e-02
1.690787076950073242e-01
2.011850923299789429e-01
6.434542685747146606e-02
-1.419443171471357346e-02
8.710301667451858521e-02
9.045477956533432007e-02
-1.414970755577087402e-01
1.338278502225875854e-01
-1.291994303464889526e-01
-1.808441430330276489e-01
3.681224212050437927e-02
1.158238723874092102e-01
-7.462371885776519775e-02
4.852583631873130798e-02
-9.004823118448257446e-02
-1.389864236116409302e-01
6.765314191579818726e-02
4.303012788295745850e-02
-2.204872481524944305e-02
1.075168997049331665e-01
-1.275890916585922241e-01
-1.509335786104202271e-01
-3.261979669332504272e-02
-4.669162631034851074e-02
-3.072065860033035278e-02
1.460044458508491516e-02
-1.298122555017471313e-01
4.159639403223991394e-02
1.121914163231849670e-01
4.842193797230720520e-02
-8.777277916669845581e-02
-1.412634849548339844e-01
-8.797066658735275269e-02
6.699120253324508667e-02
-2.924922853708267212e-02
-5.699923634529113770e-02
-1.744410544633865356e-01
-5.779016762971878052e-02
-1.773591786623001099e-01
1.984657160937786102e-02
-1.628672927618026733e-01
7.188388612121343613e-03
-1.403714865446090698e-01
8.846754580736160278e-02
-5.384017154574394226e-02
-1.168554052710533142e-01
-1.101630628108978271e-01
-1.467563956975936890e-01
-1.040246803313493729e-03
5.611423775553703308e-02
-6.194524839520454407e-02
-5.013519525527954102e-02
-1.154386699199676514e-01
-2.273642420768737793e-01
-5.374266207218170166e-02
6.448780000209808350e-02
-1.064544692635536194e-01
-1.800796687602996826e-01
1.029802560806274414e-01
2.404249459505081177e-01
2.547588646411895752e-01
1.168082058429718018e-01
3.087435662746429443e-02
9.482600539922714233e-02
8.696090430021286011e-02
2.782314121723175049e-01
1.951093822717666626e-01
4.002626612782478333e-02
-8.388023823499679565e-02
1.512991040945053101e-01
1.147355064749717712e-01
2.513844966888427734e-01
-1.381342709064483643e-01
-5.330530181527137756e-02
5.832044780254364014e-02
2.512693703174591064e-01
1.630814075469970703e-01
-1.054949611425399780e-01
1.507094688713550568e-02
9.939511865377426147e-02
5.870602652430534363e-02
2.181168049573898315e-01
2.071163989603519440e-02
2.921571023762226105e-02
6.152249500155448914e-02
1.374654769897460938e-01
-1.429321616888046265e-01
-1.942387223243713379e-01
9.454904496669769287e-02
-5.846431851387023926e-02
-1.461283415555953979e-01
1.280197650194168091e-01
1.088036894798278809e-01
-1.920788884162902832e-01
5.680232495069503784e-02
-9.687379747629165649e-02
1.263922601938247681e-01
1.120561175048351288e-02
1.368066072463989258e-01
-2.035863697528839111e-01
6.730724126100540161e-02
-3.140052407979965210e-02
-1.694961339235305786e-01
-7.381191849708557129e-02
1.063828766345977783e-01
1.123463809490203857e-01
-8.686944097280502319e-02
2.767700329422950745e-02
1.674994826316833496e-01
1.836881190538406372e-01
-1.928141713142395020e-02
1.011391282081604004e-01
3.935569152235984802e-02
3.585409373044967651e-02
-6.720390636473894119e-03
1.124646216630935669e-01
5.614608898758888245e-02
7.137098163366317749e-02
2.670310437679290771e-02
1.244737207889556885e-01
-1.550617963075637817e-01
1.641986072063446045e-01
2.360714040696620941e-02
3.931132331490516663e-02
-1.168428435921669006e-01
1.682849675416946411e-01
3.923986107110977173e-02
-1.422660984098911285e-02
1.501708328723907471e-01
5.422796308994293213e-02
-1.884954571723937988e-01
-1.726999133825302124e-01
1.529546976089477539e-01
-1.310864686965942383e-01
2.441618591547012329e-01
5.612024292349815369e-02
5.970851331949234009e-02
2.074471302330493927e-02
1.295340806245803833e-01
-1.419779006391763687e-02
1.893907338380813599e-01
1.314343661069869995e-01
1.776213645935058594e-01
-5.841110367327928543e-03
-1.067476198077201843e-01
-4.461481049656867981e-02
5.926270410418510437e-02
9.863195568323135376e-02
1.881553530693054199e-01
-2.181644737720489502e-01
9.796332567930221558e-03
-7.306317239999771118e-02
3.267170116305351257e-02
-8.154160529375076294e-02
-3.521826490759849548e-02
-1.350334137678146362e-01
-2.392498105764389038e-01
-9.798730909824371338e-02
-1.345956474542617798e-01
6.317292898893356323e-02
1.209034994244575500e-01
1.315726488828659058e-01
-9.095405042171478271e-02
-1.238817945122718811e-01
-2.271062135696411133e-02
-1.524647027254104614e-01
-5.076687410473823547e-02
5.492543429136276245e-02
4.274981468915939331e-02
1.256011426448822021e-01
-1.539318710565567017e-01
-3.140825778245925903e-02
1.350517272949218750e-01
-1.210869029164314270e-01
1.333511173725128174e-01
5.708342790603637695e-02
1.113795954734086990e-02
-1.572282910346984863e-01
-1.628871709108352661e-01
4.666468873620033264e-02
7.642441987991333008e-02
-1.280204802751541138e-01
1.998851820826530457e-02
6.549058109521865845e-02
-9.201931953430175781e-02
2.796145901083946228e-02
-7.432116568088531494e-02
-1.994656324386596680e-01
-2.083681970834732056e-01
-1.582604348659515381e-01
-9.418776631355285645e-02
-1.125836819410324097e-01
-3.777674958109855652e-02
-8.581598103046417236e-02
-8.958422392606735229e-02
3.819048032164573669e-02
1.764957606792449951e-01
-2.259229570627212524e-01
-1.901767104864120483e-01
-5.287325754761695862e-02
6.771702319383621216e-02
-1.163356378674507141e-01
-6.278434395790100098e-02
-1.528475433588027954e-01
7.017349451780319214e-02
9.334564208984375000e-02
1.473011523485183716e-01
-2.742693126201629639e-01
-2.089737802743911743e-01
3.403162956237792969e-02
2.366778999567031860e-01
2.103473097085952759e-01
6.911102682352066040e-02
-1.303091794252395630e-01
2.261622250080108643e-01
2.178742587566375732e-01
1.327126752585172653e-02
-2.226681858301162720e-01
-6.568048149347305298e-02
1.291474103927612305e-01
2.808332741260528564e-01
3.279904276132583618e-02
-1.916114687919616699e-01
-4.639232531189918518e-02
2.014975249767303467e-01
2.386741042137145996e-01
2.336607426404953003e-01
6.073436513543128967e-02
1.336997896432876587e-01
2.469845116138458252e-01
2.662026556208729744e-03
2.338693439960479736e-01
7.166919857263565063e-02
-3.023481555283069611e-02
1.771452426910400391e-01
4.238354414701461792e-02
-1.333184391260147095e-01
1.332944631576538086e-01
1.729868352413177490e-01
1.950980164110660553e-02
-1.389371603727340698e-01
-9.197112917900085449e-02
-6.017894670367240906e-02
-5.256692320108413696e-02
3.361153602600097656e-02
1.282939165830612183e-01
-7.805390655994415283e-02
7.727842777967453003e-02
9.536128491163253784e-02
1.129157990217208862e-01
1.155517995357513428e-02
-3.370296210050582886e-02
-1.034187078475952148e-01
8.489531278610229492e-02
-8.003856241703033447e-02
-8.601181209087371826e-02
-4.168296232819557190e-02
1.615323424339294434e-01
1.192247644066810608e-01
-1.312525123357772827e-01
3.656560182571411133e-02
-1.075847521424293518e-01
8.293033391237258911e-02
-2.283491194248199463e-02
-9.265936911106109619e-03
-2.107276022434234619e-01
-3.625662624835968018e-02
2.214286327362060547e-01
1.493124514818191528e-01
-5.166811496019363403e-02
-4.094042815268039703e-03
8.067657239735126495e-03
3.069083392620086670e-02
4.410094581544399261e-03
-5.703150480985641479e-02
-1.246300991624593735e-02
9.536535292863845825e-02
-2.251266874372959137e-02
-1.111755371093750000e-01
-1.235314533114433289e-01
-1.316920965909957886e-01
8.885085582733154297e-02
-6.287018954753875732e-02
-2.190115675330162048e-02
-1.452869474887847900e-01
-9.793163090944290161e-02
-1.816339641809463501e-01
2.057130038738250732e-01
-2.735139057040214539e-02
-1.280252914875745773e-02
4.679329693317413330e-02
-4.774133861064910889e-02
2.206856906414031982e-01
4.427614063024520874e-02
-9.917241334915161133e-02
-3.650073334574699402e-02
-1.598127186298370361e-01
-9.357874281704425812e-03
1.848904043436050415e-01
-1.868154853582382202e-01
1.135367080569267273e-01
-1.187239587306976318e-01
-1.033097729086875916e-01
-1.856821775436401367e-02
-6.005756929516792297e-02
-2.108471691608428955e-01
6.624136120080947876e-03
-1.294060498476028442e-01
1.241859346628189087e-01
-6.532445549964904785e-02
4.823920130729675293e-02
-1.130459308624267578e-01
-7.139260321855545044e-02
1.254916340112686157e-01
-1.631337851285934448e-01
8.396528661251068115e-02
-1.181473135948181152e-01
-1.853239536285400391e-01
6.530170887708663940e-02
-1.849543303251266479e-01
8.812862634658813477e-02
-7.036260515451431274e-02
-1.681065857410430908e-01
-1.948440223932266235e-01
-1.304512191563844681e-02
-1.286022216081619263e-01
-6.771622598171234131e-02
-6.149041652679443359e-02
-1.052117049694061279e-01
-9.232856333255767822e-02
1.131082773208618164e-01
6.758294254541397095e-02
-9.742991067469120026e-03
-7.738863676786422729e-02
-7.794546335935592651e-02
1.316854953765869141e-01
-1.132172271609306335e-01
1.541963517665863037e-01
1.823586523532867432e-01
9.503103792667388916e-02
1.755473017692565918e-01
5.801148712635040283e-02
5.718119442462921143e-02
3.245376423001289368e-02
-8.160626888275146484e-02
-1.306241843849420547e-02
6.529292464256286621e-02
-4.092138260602951050e-02
1.376676261425018311e-01
1.348299980163574219e-01
2.114738374948501587e-01
1.317193061113357544e-01
-4.764230549335479736e-02
-8.976542949676513672e-02
4.092919081449508667e-02
1.602424085140228271e-01
7.026500254869461060e-02
1.658325344324111938e-01
-1.211398541927337646e-01
2.877136692404747009e-02
1.718370616436004639e-01
1.323276460170745850e-01
1.589865684509277344e-01
1.973860561847686768e-01
8.809135109186172485e-02
2.074478566646575928e-02
-2.961517777293920517e-03
-7.436839397996664047e-03
7.277094572782516479e-02
-8.593257516622543335e-02
2.418325543403625488e-01
-1.530088484287261963e-01
-9.860556572675704956e-02
-7.384170591831207275e-02
2.195060551166534424e-01
1.172049716114997864e-01
7.250913977622985840e-02
-1.568065136671066284e-01
1.436085104942321777e-01
1.726652234792709351e-01
7.321419566869735718e-02
1.085389181971549988e-01
1.427613943815231323e-01
-4.868201166391372681e-02
-1.277475357055664062e-01
-6.800542585551738739e-03
-5.149680748581886292e-02
6.597494706511497498e-03
-7.151013612747192383e-02
-1.800405532121658325e-01
1.167101860046386719e-01
-1.845236867666244507e-01
-7.219758629798889160e-02
-6.617742031812667847e-02
-2.030218690633773804e-01
6.426058709621429443e-02
-1.601912826299667358e-01
2.122092805802822113e-02
-1.137562245130538940e-01
-1.151068061590194702e-01
-6.963275372982025146e-02
-2.092808485031127930e-02
-8.054400235414505005e-02
6.745877861976623535e-02
-5.444286391139030457e-02
-8.995025604963302612e-02
-1.793567687273025513e-01
-6.880746036767959595e-02
-5.535802920348942280e-04
1.437797211110591888e-02
-1.609737426042556763e-01
-1.520563364028930664e-01
-7.781849242746829987e-03
1.937669701874256134e-02
5.161700770258903503e-02
5.638480558991432190e-02
-1.378201097249984741e-01
-1.116054803133010864e-01
1.493043918162584305e-02
7.663960754871368408e-02
1.619063913822174072e-01
-3.176832199096679688e-02
-4.800610616803169250e-02
1.248146295547485352e-01
-6.456625461578369141e-02
1.000907048583030701e-01
1.626438051462173462e-01
-1.345332413911819458e-01
9.434805065393447876e-02
6.212509050965309143e-02
2.145367413759231567e-01
1.810696572065353394e-01
-1.419384181499481201e-01
-1.278512328863143921e-01
1.297488808631896973e-01
1.122618988156318665e-01
-5.554033815860748291e-02
2.205585874617099762e-02
-9.947940707206726074e-03
1.619873493909835815e-01
2.833825768902897835e-03
-1.697205752134323120e-02
-9.452845901250839233e-02
-8.386068046092987061e-02
9.999647736549377441e-02
1.246853768825531006e-01
-2.019773237407207489e-02
4.508560895919799805e-02
-1.997330226004123688e-02
-1.435304135084152222e-01
-3.822523728013038635e-02
2.028355002403259277e-01
8.752986043691635132e-02
-8.778413385152816772e-02
5.222336575388908386e-02
1.977193951606750488e-01
1.674410104751586914e-01
3.627597168087959290e-02
-6.226844340562820435e-02
-1.644897311925888062e-01
7.039301097393035889e-02
-1.301978826522827148e-01
-1.002885494381189346e-02
-1.751448214054107666e-01
1.069861873984336853e-01
1.341091543436050415e-01
1.464463472366333008e-01
-1.027583703398704529e-01
-9.513856470584869385e-02
-8.441732078790664673e-02
-1.287100464105606079e-01
1.518748104572296143e-01
1.229427009820938110e-02
5.417734384536743164e-02
2.010616101324558258e-02
-8.217725902795791626e-02
-3.232302144169807434e-02
-2.906877547502517700e-02
7.448031008243560791e-02
1.095235645771026611e-01
1.227418705821037292e-02
-5.258934572339057922e-02
-1.385472863912582397e-01
4.403162747621536255e-04
1.549258083105087280e-02
-1.764326542615890503e-01
-1.346450299024581909e-01
-1.133996993303298950e-01
-1.069997400045394897e-01
1.252131611108779907e-01
8.080260828137397766e-03
1.166341826319694519e-01
-3.316584974527359009e-02
9.313793480396270752e-02
-1.287949979305267334e-01
-1.153317317366600037e-01
-1.011771615594625473e-02
-1.856066435575485229e-01
8.545542508363723755e-02
-2.041234821081161499e-01
1.509678214788436890e-01
8.817854523658752441e-02
-2.022310793399810791e-01
-1.484821666963398457e-03
-4.861959069967269897e-02
1.798212826251983643e-01
-9.202402085065841675e-02
3.682637214660644531e-02
-6.696008890867233276e-02
2.426103502511978149e-02
-1.801765859127044678e-01
-3.615953028202056885e-02
-5.879742279648780823e-02
7.092142943292856216e-03
1.619352102279663086e-01
-1.606520265340805054e-01
-1.423965841531753540e-01
1.133545264601707458e-01
-1.520917415618896484e-01
-1.323205977678298950e-01
5.005476251244544983e-02
1.686500310897827148e-01
-5.663122609257698059e-02
4.320270195603370667e-02
-1.908327639102935791e-01
1.773077845573425293e-01
-5.975221469998359680e-02
-1.870286464691162109e-01
2.552374638617038727e-02
1.990212202072143555e-01
-3.016087459400296211e-03
6.275136768817901611e-02
1.289028581231832504e-02
1.651976257562637329e-01
6.082768365740776062e-02
-4.426759481430053711e-02
-1.328365206718444824e-01
-5.498127266764640808e-02
-3.510850667953491211e-02
1.817961633205413818e-01
1.714625805616378784e-01
-9.648873656988143921e-02
8.996875956654548645e-03
9.217776358127593994e-02
-9.420225769281387329e-02
-4.354261979460716248e-02
5.959709361195564270e-02
1.315865367650985718e-01
1.302113533020019531e-01
-6.659882515668869019e-02
1.690504103899002075e-01
-1.361244916915893555e-01
-1.556551642715930939e-02
1.155421696603298187e-02
-1.532530337572097778e-01
-1.696773171424865723e-01
-3.593114763498306274e-02
-1.355654299259185791e-01
9.793347865343093872e-02
7.154275476932525635e-02
1.840158402919769287e-01
-1.529825031757354736e-01
-9.324763715267181396e-02
1.172804534435272217e-01
1.268416643142700195e-01
1.730257868766784668e-01
-5.830191075801849365e-02
3.517551720142364502e-02
-9.583043307065963745e-02
3.130228444933891296e-02
6.084696575999259949e-02
-1.173005625605583191e-01
1.439021974802017212e-01
1.094807088375091553e-01
1.945251673460006714e-01
1.171605312265455723e-03
-5.983809009194374084e-02
-6.275317817926406860e-02
1.165892332792282104e-01
1.773193329572677612e-01
-4.360954090952873230e-02
1.761641502380371094e-01
-1.109625678509473801e-03
7.997717708349227905e-02
-8.195573091506958008e-02
-1.659162789583206177e-01
1.422746479511260986e-01
1.064098477363586426e-01
-1.788495928049087524e-01
3.128650039434432983e-02
-1.073097437620162964e-01
1.224400177597999573e-01
-1.107529923319816589e-01
-1.950048506259918213e-01
1.526454538106918335e-01
-4.756541177630424500e-02
-5.588703975081443787e-02
-1.046203915029764175e-02
-3.061135672032833099e-02
3.378217108547687531e-03
-1.279829144477844238e-01
5.023021996021270752e-02
3.554846718907356262e-02
8.905778080224990845e-02
-1.120766177773475647e-01
-1.173915341496467590e-01
1.018997654318809509e-01
9.310754016041755676e-03
-1.268226057291030884e-01
-1.091038584709167480e-01
1.745691448450088501e-01
2.026939690113067627e-01
1.605993062257766724e-01
-9.596922993659973145e-02
7.981982082128524780e-02
-1.712332130409777164e-03
2.804723009467124939e-02
-1.029820218682289124e-01
1.024300605058670044e-01
-6.728433817625045776e-02
3.403220325708389282e-02
1.040811240673065186e-01
1.739550977945327759e-01
1.225826218724250793e-01
1.520077735185623169e-01
1.021048054099082947e-01
7.322757691144943237e-02
1.424429863691329956e-01
5.283298343420028687e-02
-7.550583034753799438e-02
9.920606762170791626e-02
3.179880976676940918e-02
1.498934626579284668e-01
-1.438773721456527710e-01
1.055487617850303650e-01
-1.014346256852149963e-02
1.795198470354080200e-01
-8.134079724550247192e-02
-1.155249625444412231e-01
-1.618645489215850830e-01
-1.536687929183244705e-02
3.715191781520843506e-02
1.310888230800628662e-01
9.950893372297286987e-02
2.420340292155742645e-02
-1.638882011175155640e-01
1.693485975265502930e-01
3.649283945560455322e-02
-1.127222254872322083e-01
-4.041834548115730286e-02
-1.621823310852050781e-01
1.649025231599807739e-01
-1.086346432566642761e-01
2.760603278875350952e-02
5.775953084230422974e-02
-3.628732636570930481e-02
-4.743625968694686890e-02
-1.670833379030227661e-01
-1.172538921236991882e-01
-5.649531632661819458e-02
2.403673902153968811e-02
-6.302052736282348633e-02
-1.640149056911468506e-01
-8.671253174543380737e-02
-1.060674116015434265e-01
-1.842671036720275879e-01
1.745011210441589355e-01
-1.454955488443374634e-01
-2.205621004104614258e-01
-1.122488528490066528e-01
2.966848574578762054e-02
3.009470179677009583e-02
-1.481608152389526367e-01
-2.721789181232452393e-01
-5.702891200780868530e-02
-1.919896602630615234e-01
1.347693204879760742e-01
-2.416701167821884155e-01
-2.562228739261627197e-01
-4.049463197588920593e-02
-1.430509090423583984e-01
1.527791321277618408e-01
1.757341921329498291e-01
-8.796027302742004395e-02
1.481981426477432251e-01
9.339636564254760742e-02
7.321790605783462524e-02
5.350420251488685608e-02
3.116628527641296387e-02
1.379577517509460449e-01
2.713877893984317780e-02
2.875178866088390350e-02
-9.617364406585693359e-02
-1.475156191736459732e-02
9.350044280290603638e-02
-1.226692944765090942e-01
1.384795159101486206e-01
-1.767622828483581543e-01
-6.536421179771423340e-02
1.106139495968818665e-01
-1.023314893245697021e-01
8.329890668392181396e-02
-8.023398369550704956e-02
-3.013814054429531097e-02
-4.227263852953910828e-02
-1.248068958520889282e-01
6.959718465805053711e-02
-1.632874906063079834e-01
4.773849248886108398e-02
1.396298557519912720e-01
1.086518839001655579e-01
1.647404730319976807e-01
-1.347893774509429932e-01
-2.464820630848407745e-02
9.422002732753753662e-02
-1.030740514397621155e-02
6.259974837303161621e-02
1.235800608992576599e-01
-3.300585225224494934e-02
7.599473930895328522e-03
-6.685107946395874023e-02
1.092315390706062317e-01
-1.256895512342453003e-01
-9.239663369953632355e-03
-2.931214123964309692e-02
-1.856041401624679565e-01
-1.146165654063224792e-01
1.898183487355709076e-02
-2.016423046588897705e-01
-1.802163571119308472e-01
-2.225218564271926880e-01
-1.340247094631195068e-01
-1.532952487468719482e-01
-7.120762765407562256e-02
1.651293188333511353e-01
-1.323149353265762329e-01
5.315396562218666077e-02
1.164207905530929565e-01
1.112848296761512756e-01
1.771483421325683594e-01
-1.841066032648086548e-02
9.034960716962814331e-02
-3.458532318472862244e-02
1.807722151279449463e-01
-7.378428429365158081e-02
5.082080885767936707e-02
-7.911688834428787231e-02
-1.283777356147766113e-01
-1.000624373555183411e-01
1.830413341522216797e-01
7.800219953060150146e-02
-1.736981570720672607e-01
5.962327867746353149e-02
-5.912435427308082581e-02
6.013820320367813110e-02
3.957738727331161499e-02
-1.394126862287521362e-01
-1.535967439413070679e-01
9.559500031173229218e-03
1.290062218904495239e-01
7.900440692901611328e-02
-1.976031810045242310e-01
1.549128890037536621e-01
-8.996675163507461548e-02
1.647486388683319092e-01
-7.306399196386337280e-02
-1.070498004555702209e-01
1.485194861888885498e-01
-5.022159591317176819e-02
-1.292293816804885864e-01
-1.158662736415863037e-01
9.061378240585327148e-02
1.490795463323593140e-01
-1.152611300349235535e-01
3.715343028306961060e-02
-1.241628676652908325e-01
8.096744865179061890e-02
1.810012161731719971e-01
9.132513403892517090e-02
-6.235608831048011780e-02
1.168165802955627441e-01
6.081428378820419312e-03
1.067938506603240967e-01
1.147521063685417175e-01
-1.135739609599113464e-01
-7.656879723072052002e-02
1.711937040090560913e-01
-1.498371362686157227e-01
1.325232684612274170e-01
-2.218722179532051086e-02
3.612776100635528564e-02
1.269347667694091797e-01
-1.012081280350685120e-01
1.180797815322875977e-01
-1.560250371694564819e-01
-9.283357858657836914e-02
-2.525766566395759583e-02
-1.382772475481033325e-01
-1.357660591602325439e-01
-1.046966239809989929e-01
-9.144500643014907837e-02
1.360367238521575928e-01
9.393273293972015381e-02
7.870299369096755981e-02
-2.319950982928276062e-02
4.564611613750457764e-02
5.929379910230636597e-02
1.161122173070907593e-01
-3.909709863364696503e-03
1.458988711237907410e-02
9.464731067419052124e-02
-4.767693951725959778e-02
-1.838489808142185211e-02
-1.047242954373359680e-01
1.772145330905914307e-01
2.047494351863861084e-01
2.480861358344554901e-02
-1.579396426677703857e-01
1.123083531856536865e-01
-1.091771498322486877e-01
4.783855378627777100e-02
1.909656077623367310e-01
-1.629736125469207764e-01
-1.875519007444381714e-01
1.316656321287155151e-01
-5.898214504122734070e-02
-1.121115218847990036e-02
1.017820015549659729e-01
-1.330429613590240479e-01
8.076550811529159546e-02
-9.237123280763626099e-02
-3.552590031176805496e-03
-2.621271461248397827e-02
1.874118745326995850e-01
-3.136425465345382690e-02
1.913617402315139771e-01
-4.861788079142570496e-02
-6.574612855911254883e-02
9.283494204282760620e-02
8.341594785451889038e-02
-1.936426199972629547e-02
-8.137829601764678955e-02
6.378858536481857300e-02
1.484979391098022461e-01
-1.151154842227697372e-02
1.409072875976562500e-01
-1.223366856575012207e-01
1.223957911133766174e-01
2.405291795730590820e-02
1.032415702939033508e-01
1.378939151763916016e-01
-1.238423660397529602e-01
1.436273157596588135e-01
-4.551676660776138306e-02
-1.379675120115280151e-01
6.830392777919769287e-02
1.343365460634231567e-01
6.621521711349487305e-02
7.947358489036560059e-02
-4.548592492938041687e-02
-2.057351320981979370e-01
-1.967058777809143066e-01
1.240837350487709045e-01
-1.261971890926361084e-02
-1.805928945541381836e-01
-6.429695338010787964e-02
3.632576763629913330e-02
-4.881696775555610657e-02
-1.492523401975631714e-01
-8.262739330530166626e-02
-1.588861346244812012e-01
-1.235792264342308044e-01
5.760027840733528137e-02
4.402622953057289124e-02
-1.783848851919174194e-01
8.252503722906112671e-02
8.488560467958450317e-02
2.184702754020690918e-01
-8.763858675956726074e-02
1.270834505558013916e-01
-2.161714583635330200e-01
9.449631907045841217e-03
-8.678078651428222656e-02
1.489744931459426880e-01
-6.941934674978256226e-02
-1.288872808218002319e-01
3.572750603780150414e-03
-8.029495924711227417e-02
-5.305895209312438965e-02
-3.401488065719604492e-02
-5.955002829432487488e-02
5.141754634678363800e-03
2.194243669509887695e-02
1.685147881507873535e-01
1.309554576873779297e-01
-1.970628499984741211e-01
-6.916290521621704102e-02
-9.987374395132064819e-02
4.888470098376274109e-02
-1.160520538687705994e-01
-1.288768351078033447e-01
-2.157879024744033813e-01
1.262219250202178955e-01
-2.340940199792385101e-02
-1.591407805681228638e-01
8.950462192296981812e-02
-7.485229521989822388e-02
1.766359061002731323e-01
-1.196011751890182495e-01
4.581333324313163757e-02
-1.831956356763839722e-01
-8.508434891700744629e-02
2.920516207814216614e-02
1.107249185442924500e-01
-6.153879314661026001e-02
5.359555408358573914e-02
-1.643596738576889038e-01
-1.401648372411727905e-01
-1.313845664262771606e-01
4.511402547359466553e-02
-1.312830448150634766e-01
2.689846791326999664e-02
1.329869125038385391e-02
-2.420447953045368195e-02
-1.879285871982574463e-01
-4.306715354323387146e-02
6.018623337149620056e-02
4.545854777097702026e-02
1.544009428471326828e-02
1.032170057296752930e-01
1.120788417756557465e-02
7.019849121570587158e-02
-2.505391091108322144e-02
-1.975930780172348022e-01
3.638555854558944702e-02
-1.827866286039352417e-01
-1.187354624271392822e-01
-1.279385238885879517e-01
-5.470170080661773682e-02
-1.505350768566131592e-01
2.748722396790981293e-02
-1.079520657658576965e-01
-2.476056292653083801e-02
-5.980544909834861755e-02
1.315776109695434570e-01
-1.008697133511304855e-02
9.028713218867778778e-03
-6.545654684305191040e-02
1.518163532018661499e-01
-1.755251288414001465e-01
-6.080641224980354309e-02
1.117141991853713989e-01
-5.601891130208969116e-02
9.878514707088470459e-02
1.654653227888047695e-03
-6.707367300987243652e-02
8.837848156690597534e-02
4.004496335983276367e-02
-1.837528795003890991e-01
-1.329252421855926514e-01
-1.700733304023742676e-01
1.510491818189620972e-01
-3.743789345026016235e-02
-7.209661602973937988e-02
9.856410324573516846e-02
-7.292477041482925415e-02
-8.143492043018341064e-02
-1.667368561029434204e-01
-8.889795839786529541e-02
1.818366795778274536e-01
1.000111103057861328e-01
1.095837727189064026e-01
-3.457981348037719727e-02
3.910652548074722290e-02
9.285739623010158539e-03
1.266489326953887939e-01
2.043141871690750122e-01
-1.785340905189514160e-01
1.514359116554260254e-01
1.782959997653961182e-01
3.559727594256401062e-02
2.422406226396560669e-01
