-3.250392898917198181e-02
-1.340199168771505356e-02
3.004623576998710632e-02
8.423951454460620880e-03
2.526354975998401642e-02
1.097273360937833786e-02
2.792876958847045898e-02
6.042442098259925842e-02
-5.296355858445167542e-02
1.552759762853384018e-02
-2.331853285431861877e-02
3.734354628250002861e-03
5.069904774427413940e-02
5.838291719555854797e-02
6.299524754285812378e-02
4.026822000741958618e-02
1.955894008278846741e-02
-3.058527037501335144e-02
-6.733651272952556610e-03
-1.243430934846401215e-02
-6.672021746635437012e-02
4.264672845602035522e-02
4.348572343587875366e-02
-3.990152478218078613e-02
9.451299905776977539e-03
-2.081369981169700623e-02
-5.876993015408515930e-02
4.333363100886344910e-02
6.843038648366928101e-02
6.624017655849456787e-02
-4.975681006908416748e-02
-6.336496025323867798e-02
-3.284408524632453918e-02
4.180084541440010071e-02
-3.318475559353828430e-02
-4.096811264753341675e-02
-3.402880206704139709e-02
6.314059346914291382e-02
6.306903064250946045e-02
-5.846487358212471008e-02
-5.211937427520751953e-02
-2.634494751691818237e-02
-9.183940477669239044e-03
6.418326403945684433e-03
-4.977764189243316650e-02
4.552228376269340515e-02
-2.228928543627262115e-02
5.454598739743232727e-02
5.555230379104614258e-02
-9.227547794580459595e-03
7.207723800092935562e-03
4.044934641569852829e-03
9.982514195144176483e-03
2.969446592032909393e-02
-5.172578617930412292e-02
3.217802196741104126e-02
-3.419724851846694946e-02
2.286032773554325104e-03
-5.753581598401069641e-02
-3.122871741652488708e-02
-5.256703123450279236e-02
1.463122759014368057e-02
6.765330582857131958e-02
1.575900986790657043e-02
-3.587583452463150024e-02
-6.676819920539855957e-02
-5.377218127250671387e-02
1.018563099205493927e-02
-5.750556290149688721e-02
-7.533037662506103516e-02
-1.364564895629882812e-02
-7.400826434604823589e-04
2.254530601203441620e-02
-6.962548196315765381e-02
-6.948531419038772583e-02
7.337581831961870193e-03
1.855667494237422943e-02
1.480722334235906601e-02
4.040508996695280075e-03
2.552751079201698303e-02
-2.837744727730751038e-02
-4.364489018917083740e-02
1.974989287555217743e-02
7.830936461687088013e-03
3.747666254639625549e-02
5.480022728443145752e-02
-4.328950494527816772e-02
-1.562216551974415779e-03
6.722541153430938721e-02
3.032580018043518066e-02
-3.158843889832496643e-02
-4.842069000005722046e-02
-2.206508070230484009e-02
7.834021747112274170e-02
1.831212826073169708e-02
-2.055736444890499115e-02
6.536270678043365479e-02
6.142674013972282410e-02
5.193601176142692566e-02
3.721816465258598328e-02
-6.337998062372207642e-02
3.468327224254608154e-02
-3.708890452980995178e-02
3.353736177086830139e-02
4.129949957132339478e-02
-4.860454797744750977e-02
1.433091703802347183e-02
-4.821892082691192627e-02
1.340205129235982895e-02
-6.280978024005889893e-02
3.830790519714355469e-02
4.362099245190620422e-02
3.268288075923919678e-02
1.458504330366849899e-02
-4.446008801460266113e-02
-2.594927884638309479e-02
3.764129430055618286e-02
3.213615715503692627e-02
-4.853552952408790588e-02
-6.181234028190374374e-03
-4.893560707569122314e-02
-1.561487186700105667e-02
-6.606005877256393433e-02
4.905770719051361084e-02
4.212743043899536133e-02
-6.996573507785797119e-02
-6.604632828384637833e-03
1.160791143774986267e-02
5.720664188265800476e-02
3.603231906890869141e-02
-5.851516127586364746e-02
2.021587267518043518e-02
4.618918895721435547e-02
4.957923665642738342e-02
1.376115065068006516e-02
4.568115994334220886e-02
5.697458609938621521e-02
4.040462523698806763e-02
-1.805041730403900146e-02
6.338991224765777588e-02
1.634494401514530182e-02
-3.701044619083404541e-02
1.814924366772174835e-02
-4.171669110655784607e-02
6.197574362158775330e-02
3.907164931297302246e-02
2.415891550481319427e-02
6.264456361532211304e-02
4.912098497152328491e-02
2.183344587683677673e-02
-1.161707215942442417e-03
-2.474218141287565231e-03
2.930754050612449646e-02
5.192683264613151550e-02
7.713194005191326141e-03
3.924925625324249268e-02
1.137769431807100773e-03
7.508911937475204468e-02
7.644508965313434601e-03
3.017919138073921204e-02
4.952641949057579041e-02
-6.513328105211257935e-02
-2.749935537576675415e-02
3.552630171179771423e-02
4.956594482064247131e-02
-4.800353571772575378e-02
-1.034441031515598297e-02
-3.507853671908378601e-02
4.169297870248556137e-03
-2.810860611498355865e-02
2.285904437303543091e-02
-3.995188698172569275e-02
6.744404882192611694e-02
2.883351221680641174e-02
-2.674360573291778564e-02
4.427378624677658081e-02
5.545441526919603348e-03
5.012481287121772766e-02
1.987422816455364227e-02
-5.804258957505226135e-02
-4.928145185112953186e-02
4.619909822940826416e-02
-1.954188756644725800e-02
-5.784137547016143799e-02
3.725600661709904671e-03
-1.031010691076517105e-02
6.729216873645782471e-02
6.552752107381820679e-02
-4.004126042127609253e-02
-6.525364518165588379e-02
3.193508833646774292e-02
5.122091248631477356e-02
-3.783661127090454102e-02
2.519135922193527222e-02
-6.474393606185913086e-02
-2.135900221765041351e-02
-3.641843423247337341e-02
4.134336113929748535e-02
7.955639809370040894e-02
-1.429851818829774857e-02
3.671615943312644958e-02
-9.352828375995159149e-03
3.451339900493621826e-02
8.019973337650299072e-02
5.901186913251876831e-02
-1.870862394571304321e-02
-3.825829597190022469e-03
3.053496405482292175e-02
-1.331259030848741531e-02
-7.614266127347946167e-03
1.755017973482608795e-02
-5.770382285118103027e-02
1.521895546466112137e-02
2.987853065133094788e-02
-3.314059600234031677e-02
5.524629354476928711e-02
4.499752819538116455e-02
-6.507926434278488159e-02
2.146729640662670135e-02
1.745243743062019348e-02
-5.956286191940307617e-02
-6.236550211906433105e-02
-3.143831342458724976e-02
-2.266258001327514648e-02
5.284518748521804810e-02
3.695009276270866394e-02
7.236896455287933350e-02
3.758872300386428833e-02
-7.837653905153274536e-02
1.290194131433963776e-02
-1.969548501074314117e-02
-4.303602501749992371e-02
3.864616900682449341e-02
-3.573580831289291382e-02
-5.345050618052482605e-02
-5.538566783070564270e-02
4.667947441339492798e-02
5.342714115977287292e-02
6.485443562269210815e-03
-1.058068126440048218e-02
6.585403345525264740e-03
1.164930500090122223e-02
3.462742641568183899e-02
-2.548325248062610626e-02
-3.800375387072563171e-02
-2.794525027275085449e-02
-4.874255135655403137e-02
-5.527912825345993042e-02
3.691197186708450317e-02
3.700669854879379272e-02
2.574730291962623596e-02
-6.143410876393318176e-02
3.435022011399269104e-02
-4.829747229814529419e-02
7.518424093723297119e-02
-2.629609592258930206e-02
1.082702912390232086e-02
-4.391114413738250732e-02
3.713736776262521744e-03
5.209279805421829224e-02
-7.755967788398265839e-03
-2.609672397375106812e-02
-6.533221900463104248e-02
-2.698466554284095764e-02
7.410623133182525635e-02
-7.569498848170042038e-03
5.722223594784736633e-02
-3.923036158084869385e-02
-3.638637810945510864e-02
5.194032099097967148e-03
-3.120189718902111053e-02
1.724002882838249207e-02
2.052419446408748627e-02
-1.606307365000247955e-02
-1.312919054180383682e-02
2.601026929914951324e-02
3.669313341379165649e-02
3.109451755881309509e-02
4.364988952875137329e-02
-2.009609527885913849e-02
-4.200584813952445984e-02
-3.608780726790428162e-02
5.060977116227149963e-02
5.629857257008552551e-02
2.418404817581176758e-02
-7.839583791792392731e-03
-3.777369111776351929e-02
3.606533631682395935e-02
2.248564921319484711e-02
-4.891623556613922119e-02
-6.884643435478210449e-02
-6.632807850837707520e-02
5.280036479234695435e-02
2.970743738114833832e-02
-4.090237244963645935e-02
-9.089310467243194580e-02
-6.882748007774353027e-02
7.852555252611637115e-03
7.370276004076004028e-02
2.436578087508678436e-02
-7.397420704364776611e-02
-2.986625395715236664e-02
6.173049658536911011e-02
9.391553699970245361e-03
-2.071776799857616425e-02
-5.702824518084526062e-02
2.155731245875358582e-02
1.301666349172592163e-02
5.916767567396163940e-02
1.423732563853263855e-02
7.864213548600673676e-03
-1.913896761834621429e-02
5.428750067949295044e-03
4.231035243719816208e-03
-3.076315624639391899e-03
1.913908869028091431e-02
6.524950265884399414e-02
7.602605223655700684e-02
7.987763732671737671e-02
-5.897194519639015198e-02
-6.086328998208045959e-03
-5.699567124247550964e-02
-5.372775346040725708e-02
5.278197303414344788e-02
-5.572938174009323120e-02
1.210729684680700302e-02
-2.540756389498710632e-02
4.972613230347633362e-02
4.079300537705421448e-02
5.667087435722351074e-02
4.116222262382507324e-02
1.733138691633939743e-03
-9.660487994551658630e-03
2.905847132205963135e-02
3.188929520547389984e-03
-7.164745032787322998e-02
-1.213106140494346619e-02
-1.483489945530891418e-02
-5.814838688820600510e-03
8.190715685486793518e-03
-6.564985960721969604e-02
4.353243112564086914e-02
1.631030999124050140e-02
-1.911124400794506073e-02
2.396995574235916138e-02
4.386825487017631531e-02
4.969541355967521667e-02
1.314445585012435913e-02
4.838250577449798584e-02
6.296042352914810181e-02
6.757898628711700439e-02
2.716789022088050842e-02
-5.279813334345817566e-02
6.837265938520431519e-02
1.404719147831201553e-02
5.673949420452117920e-02
-3.085135854780673981e-02
-1.161912456154823303e-02
-2.364168874919414520e-02
3.597104921936988831e-02
-1.410364266484975815e-02
4.889841005206108093e-02
1.095276093110442162e-03
5.995750054717063904e-02
-3.034093882888555527e-03
-2.776663983240723610e-03
6.403955817222595215e-02
-2.149020880460739136e-02
5.022352561354637146e-02
5.430374294519424438e-02
1.204967312514781952e-02
8.001451496966183186e-04
1.795884035527706146e-02
7.080245763063430786e-02
-2.042155899107456207e-02
3.542493656277656555e-02
5.290040746331214905e-02
2.778251189738512039e-03
1.688467711210250854e-02
6.424708664417266846e-02
7.747381925582885742e-02
-1.996510848402976990e-02
5.149550735950469971e-02
-6.265401095151901245e-02
4.814950376749038696e-02
-2.623328566551208496e-02
-1.468281634151935577e-02
-5.223285406827926636e-02
2.216939069330692291e-02
-2.160401642322540283e-02
4.445464164018630981e-02
6.835010647773742676e-02
-2.563877962529659271e-02
-1.501769293099641800e-02
-4.823320358991622925e-02
-2.860096981748938560e-03
6.067372858524322510e-02
6.340441852807998657e-02
-5.300246924161911011e-02
-5.437035486102104187e-02
4.840631410479545593e-02
-5.895632877945899963e-02
2.570458874106407166e-02
-4.517641663551330566e-02
4.702896624803543091e-02
-4.433951899409294128e-02
3.729822859168052673e-02
-3.941108658909797668e-02
2.505383081734180450e-02
5.235333740711212158e-02
-5.109421908855438232e-02
-6.732326745986938477e-02
5.485276505351066589e-02
-1.599569432437419891e-02
-3.065946511924266815e-02
-5.849096179008483887e-02
-5.596179142594337463e-02
3.434788435697555542e-02
5.968223512172698975e-02
4.360792040824890137e-02
-6.990949809551239014e-02
-2.808102034032344818e-02
2.112247049808502197e-02
-2.137367427349090576e-02
-1.603415608406066895e-02
-2.090990776196122169e-03
-4.551717638969421387e-02
-2.166086062788963318e-02
-6.222864240407943726e-02
1.446301210671663284e-02
-6.962237507104873657e-02
6.696033477783203125e-02
4.617984965443611145e-02
1.688250689767301083e-03
-5.156980827450752258e-02
-5.898163840174674988e-02
1.630145311355590820e-02
-1.854927279055118561e-02
-2.874369919300079346e-02
-6.479728966951370239e-02
5.944140627980232239e-02
-2.526721218600869179e-03
6.790819019079208374e-02
5.959376692771911621e-02
-2.079131454229354858e-02
6.161626428365707397e-02
3.100774064660072327e-02
-2.386952377855777740e-02
3.926622495055198669e-02
1.537211425602436066e-02
7.435198128223419189e-02
6.932711601257324219e-02
-3.579482436180114746e-02
6.724869459867477417e-02
-3.518014401197433472e-02
3.838893771171569824e-02
2.035656012594699860e-02
-2.293457463383674622e-02
-2.191000059247016907e-02
8.346296846866607666e-02
1.991076208651065826e-02
-3.705398365855216980e-02
5.451067537069320679e-02
-4.092850536108016968e-02
-3.229087963700294495e-02
-3.830324858427047729e-02
1.397607289254665375e-02
4.756875336170196533e-02
-7.202144712209701538e-02
6.413871794939041138e-02
2.434935607016086578e-02
5.560019239783287048e-02
-5.279181152582168579e-02
-1.042360905557870865e-02
-3.651005774736404419e-02
-4.086984321475028992e-02
1.879848912358283997e-02
-1.372942887246608734e-02
-3.809156641364097595e-02
-1.379666663706302643e-02
5.436834692955017090e-02
-4.838539287447929382e-02
3.961119055747985840e-02
-3.061439655721187592e-02
-1.117634680122137070e-02
-6.770744919776916504e-02
-6.561961024999618530e-03
-6.151413545012474060e-02
5.371738970279693604e-02
-6.528334319591522217e-02
-6.344611942768096924e-02
7.166069000959396362e-02
-3.702145442366600037e-02
-2.752068825066089630e-02
-1.753226667642593384e-02
-6.407498568296432495e-02
-5.903191119432449341e-02
-5.389914289116859436e-02
-2.035721903666853905e-03
2.389349788427352905e-02
4.549640580080449581e-04
1.772127114236354828e-02
-4.318467527627944946e-02
2.037555444985628128e-03
-3.646872565150260925e-02
1.019398123025894165e-02
-5.447239056229591370e-02
-1.800585596356540918e-04
2.646965906023979187e-02
2.694328315556049347e-02
-1.608712784945964813e-02
-2.900130674242973328e-02
3.628855198621749878e-02
5.936715751886367798e-02
-7.005132734775543213e-02
5.854191258549690247e-02
2.929373085498809814e-02
1.341726630926132202e-03
7.278046105057001114e-03
-6.748232990503311157e-02
-6.111863628029823303e-02
-1.113159023225307465e-02
4.839450120925903320e-02
-6.234940886497497559e-02
3.987383097410202026e-02
-3.148181736469268799e-02
3.686645627021789551e-02
-2.597541920840740204e-02
4.281292855739593506e-02
-4.540417715907096863e-02
8.105861954391002655e-03
2.699303906410932541e-03
9.523697197437286377e-03
3.704284504055976868e-02
-2.681932784616947174e-02
1.180225238204002380e-02
5.247777327895164490e-02
-3.581503778696060181e-02
1.221027225255966187e-02
-6.977564841508865356e-02
8.660479448735713959e-03
6.438992172479629517e-02
3.077552095055580139e-02
3.196269646286964417e-02
4.246523976325988770e-02
-2.709050662815570831e-02
-6.642193347215652466e-02
1.063345093280076981e-02
-5.787300877273082733e-03
5.112375319004058838e-02
-2.782178297638893127e-02
3.517510369420051575e-03
4.867554828524589539e-02
1.473375223577022552e-02
-4.222420603036880493e-02
-1.144420728087425232e-02
3.048854880034923553e-02
3.744288161396980286e-02
4.211522638797760010e-02
-3.403954207897186279e-02
4.707042872905731201e-02
2.456454792991280556e-03
-6.200535967946052551e-02
1.304095843806862831e-03
-4.017123207449913025e-02
-1.657104492187500000e-02
4.835489671677350998e-03
-2.851496078073978424e-02
2.411431632936000824e-03
1.984433457255363464e-02
-5.193023756146430969e-02
4.783511906862258911e-02
5.747241526842117310e-02
4.836214706301689148e-02
-2.875561453402042389e-02
-1.518143620342016220e-02
-3.153685852885246277e-02
6.279423367232084274e-03
-2.003061212599277496e-02
-4.267668351531028748e-02
-2.310603298246860504e-02
-5.239425227046012878e-02
-7.560383062809705734e-03
5.257487669587135315e-02
2.782930154353380203e-03
-5.416629090905189514e-02
2.056531840935349464e-03
-4.498282447457313538e-02
6.472235079854726791e-03
4.646124318242073059e-02
3.574959561228752136e-02
-1.053885556757450104e-03
1.738638244569301605e-02
-4.103649780154228210e-02
3.559069940820336342e-03
-2.422880195081233978e-02
3.119968622922897339e-02
-1.987737976014614105e-02
-1.468719262629747391e-02
5.901471152901649475e-02
-5.644812062382698059e-02
4.088414832949638367e-03
-4.529687389731407166e-02
-1.640130579471588135e-02
-1.965648494660854340e-02
2.047142013907432556e-02
-1.065816264599561691e-02
-5.070812255144119263e-02
2.880059555172920227e-02
-7.399772107601165771e-02
5.856147781014442444e-02
3.041387163102626801e-02
6.158944964408874512e-02
3.200060222297906876e-03
3.371339663863182068e-02
-3.452067496255040169e-03
7.561095803976058960e-02
-4.461748898029327393e-02
4.484291002154350281e-02
3.347874805331230164e-02
-5.568441003561019897e-02
-4.260121658444404602e-02
-2.558257617056369781e-02
-6.083371490240097046e-02
-5.563857406377792358e-02
2.483558142557740211e-03
1.633351109921932220e-02
1.018694415688514709e-02
2.710846997797489166e-02
-6.511062383651733398e-02
6.765343248844146729e-03
-6.997758150100708008e-02
-9.285554289817810059e-03
-3.875325992703437805e-02
-1.628694240935146809e-03
-4.175959154963493347e-02
-9.672612883150577545e-03
-5.880361795425415039e-02
4.250778257846832275e-02
5.171218886971473694e-03
1.906767673790454865e-02
-6.502591073513031006e-02
4.682862013578414917e-02
7.052697986364364624e-02
2.498521469533443451e-02
-5.128687992691993713e-02
-1.062687300145626068e-02
1.770713925361633301e-02
-3.940028324723243713e-02
3.226348757743835449e-02
1.902914047241210938e-02
5.077835172414779663e-02
-7.013878785073757172e-03
-2.442273683845996857e-02
1.358007919043302536e-02
-3.690902516245841980e-02
3.032094566151499748e-03
-5.364027991890907288e-02
7.356972433626651764e-03
3.653315454721450806e-02
-2.575288340449333191e-02
2.556527219712734222e-02
-2.613481879234313965e-02
-5.537028610706329346e-02
5.035551637411117554e-02
-2.329293265938758850e-02
5.909283086657524109e-02
-2.326687984168529510e-02
-2.261972054839134216e-02
3.834743052721023560e-02
4.217550158500671387e-04
-2.790364623069763184e-02
2.691222913563251495e-02
-4.857953265309333801e-02
6.560227274894714355e-02
-1.210006698966026306e-02
5.775836762040853500e-03
-5.477089434862136841e-02
1.369474269449710846e-02
3.691641241312026978e-02
6.073540076613426208e-02
6.932885944843292236e-02
4.245943948626518250e-02
-5.899379402399063110e-02
-8.644887246191501617e-03
5.378595739603042603e-02
2.694934047758579254e-02
4.916810989379882812e-02
-3.520996496081352234e-02
5.789849907159805298e-02
6.308139860630035400e-02
3.506271168589591980e-02
6.037056818604469299e-02
-3.554143384099006653e-02
7.367984857410192490e-03
-1.971790939569473267e-02
-4.459692910313606262e-02
5.820494517683982849e-02
6.272967159748077393e-02
-2.620379067957401276e-02
-4.431315138936042786e-02
4.482432454824447632e-02
-5.632302537560462952e-02
-5.549772456288337708e-02
-2.272532135248184204e-02
4.617605358362197876e-02
6.615059450268745422e-03
9.586051106452941895e-03
5.765873193740844727e-02
-5.035084113478660583e-02
1.025283563649281859e-04
-3.268868476152420044e-02
2.393086627125740051e-02
-4.147062450647354126e-02
1.071359682828187943e-02
-4.634622111916542053e-02
-5.671039596199989319e-02
-4.025590792298316956e-02
-4.804543033242225647e-02
8.961567655205726624e-03
2.805087901651859283e-02
5.644089356064796448e-02
-6.560405343770980835e-02
6.871299352496862411e-03
-5.105198174715042114e-02
3.690692409873008728e-02
2.112370356917381287e-02
-1.279128529131412506e-02
-2.931957505643367767e-02
-4.878135025501251221e-02
-2.032505348324775696e-02
-3.583049774169921875e-02
-1.732048578560352325e-02
-5.789972841739654541e-03
2.417324483394622803e-02
2.827205322682857513e-02
6.748797371983528137e-03
5.482555925846099854e-02
-7.149498164653778076e-02
-1.602147147059440613e-02
5.187691003084182739e-02
-5.701068043708801270e-02
5.836734548211097717e-02
1.849462278187274933e-02
2.860567718744277954e-02
-2.431967295706272125e-02
7.144351955503225327e-03
6.745239347219467163e-02
4.126570001244544983e-02
6.428427249193191528e-02
-2.131084166467189789e-02
1.551675889641046524e-02
-3.878771513700485229e-02
2.701455168426036835e-02
-1.403017528355121613e-02
6.873542070388793945e-02
-4.551235586404800415e-02
-9.008963592350482941e-03
5.536805465817451477e-02
6.475151330232620239e-02
2.098377980291843414e-02
4.867749661207199097e-02
-3.501263260841369629e-02
-2.625661715865135193e-02
-6.077173165977001190e-03
-4.269278794527053833e-02
-3.097190894186496735e-02
1.445822883397340775e-02
2.014554291963577271e-02
6.933990120887756348e-02
2.785973995923995972e-02
-2.923171781003475189e-02
-2.167484350502490997e-02
-3.756717219948768616e-02
3.295704349875450134e-02
5.480894073843955994e-02
-5.049278959631919861e-02
1.115890685468912125e-02
-4.204830527305603027e-02
-4.771932959556579590e-02
-2.581751346588134766e-02
-4.304124787449836731e-02
4.483893141150474548e-02
-1.241456437855958939e-02
-3.907385841012001038e-02
4.768017679452896118e-02
4.200141131877899170e-02
-3.536922112107276917e-02
4.529585130512714386e-03
6.047319993376731873e-02
-6.018093973398208618e-02
-3.117976896464824677e-02
6.421270221471786499e-02
-5.191517528146505356e-03
5.893457308411598206e-02
2.098620496690273285e-02
3.574496880173683167e-02
-3.775292262434959412e-02
-1.845095679163932800e-02
-2.117264829576015472e-02
9.988087229430675507e-03
2.806984633207321167e-02
-5.494989920407533646e-03
-4.639966413378715515e-02
4.490064084529876709e-02
-1.850037276744842529e-02
2.154566906392574310e-02
9.928866289556026459e-03
-2.237743325531482697e-02
5.072280392050743103e-02
3.916094824671745300e-02
1.860667765140533447e-02
5.186398047953844070e-03
-3.530640527606010437e-02
5.798899754881858826e-02
-3.890413790941238403e-03
-4.411274567246437073e-02
-4.732993990182876587e-02
5.652740597724914551e-02
6.911683827638626099e-02
-3.897204622626304626e-02
2.516431733965873718e-02
8.445102721452713013e-03
3.125357627868652344e-02
3.003593161702156067e-02
-4.993824660778045654e-02
-5.150679498910903931e-02
-4.775300994515419006e-02
4.809222742915153503e-02
-2.033281326293945312e-02
3.272636607289314270e-02
-3.288327902555465698e-02
7.344874087721109390e-03
6.257063150405883789e-02
-4.550445824861526489e-02
1.145632285624742508e-02
9.585311636328697205e-03
-2.159875817596912384e-02
3.468780219554901123e-02
6.149693578481674194e-02
-4.465677589178085327e-02
-3.497572243213653564e-02
-1.730513200163841248e-02
-6.416316330432891846e-02
5.069117620587348938e-02
9.424027986824512482e-03
-2.069307491183280945e-02
4.347331449389457703e-02
-1.629236899316310883e-02
-2.253643795847892761e-02
6.324916332960128784e-02
-8.703601546585559845e-03
2.903377264738082886e-02
2.079492434859275818e-02
-4.709035530686378479e-02
-2.362213097512722015e-02
-6.741899996995925903e-04
-6.987182050943374634e-02
-2.854724787175655365e-02
-6.077330932021141052e-02
6.723318714648485184e-03
6.489384919404983521e-02
-6.402020156383514404e-02
4.036093875765800476e-02
-8.499155519530177116e-04
1.748158410191535950e-02
2.559455810114741325e-03
3.434757888317108154e-02
2.377285622060298920e-02
3.472028532996773720e-03
6.431100517511367798e-02
6.067499145865440369e-02
-6.026145443320274353e-02
-4.938789084553718567e-02
-3.350437805056571960e-02
2.040295861661434174e-02
1.563093625009059906e-02
-1.655461825430393219e-02
1.296058576554059982e-02
1.335888635367155075e-03
-5.259942263364791870e-03
1.168591901659965515e-02
1.033454481512308121e-02
1.408578269183635712e-02
-3.974846005439758301e-02
-6.333665549755096436e-02
-4.015939682722091675e-02
5.142861232161521912e-02
1.502487156540155411e-02
1.059714984148740768e-02
4.507920891046524048e-02
3.522100672125816345e-02
6.605576723814010620e-02
4.824655130505561829e-03
5.206343531608581543e-02
3.438112512230873108e-02
-5.547578260302543640e-02
-1.462883222848176956e-02
2.721071010455489159e-03
4.755684733390808105e-02
-4.078124836087226868e-02
6.026536971330642700e-02
3.872948139905929565e-02
-3.533624857664108276e-02
-1.405739970505237579e-02
-3.355128690600395203e-02
9.737532585859298706e-03
4.008048772811889648e-02
-4.759290441870689392e-02
-5.744791403412818909e-02
-1.051046419888734818e-02
1.998154819011688232e-02
-8.047653362154960632e-03
5.563163012266159058e-02
5.741561204195022583e-02
-1.843643747270107269e-02
7.785018067806959152e-03
4.018304124474525452e-02
5.284318700432777405e-02
-5.942492932081222534e-02
-5.720369890332221985e-02
-3.119922985206358135e-05
2.955645322799682617e-02
-1.553556043654680252e-02
5.909956246614456177e-02
8.368541486561298370e-03
-6.078539788722991943e-02
-3.499312326312065125e-02
1.710204407572746277e-02
-3.093982674181461334e-02
2.792280167341232300e-02
4.893390834331512451e-02
6.681334972381591797e-02
1.537962700240314007e-03
4.292922839522361755e-02
-6.297393701970577240e-03
6.110411137342453003e-02
1.084076333791017532e-02
5.743495374917984009e-02
-3.238978981971740723e-02
2.183803822845220566e-03
-1.259575970470905304e-02
-4.700816050171852112e-02
7.968815974891185760e-03
6.969986110925674438e-02
-2.351466007530689240e-02
-1.378015335649251938e-02
2.940001897513866425e-02
-2.248424850404262543e-02
3.595208004117012024e-02
-1.873912289738655090e-02
-1.955372840166091919e-02
3.348223865032196045e-02
-2.649662457406520844e-02
-2.765839733183383942e-02
6.575815379619598389e-02
5.347563326358795166e-02
-1.041057985275983810e-02
1.450776681303977966e-02
-1.036912389099597931e-02
6.730560958385467529e-02
4.376117140054702759e-02
1.298052445054054260e-02
1.289841369725763798e-03
4.425037652254104614e-02
-2.115189284086227417e-02
-6.267736852169036865e-02
3.810124099254608154e-02
1.448036637157201767e-02
-3.376676887273788452e-02
5.467796698212623596e-02
4.461549222469329834e-02
1.704002730548381805e-02
2.168373204767704010e-02
-7.728463504463434219e-03
-5.289166420698165894e-02
2.902852371335029602e-02
3.344258293509483337e-02
-4.809743259102106094e-03
3.895314782857894897e-02
-4.906631261110305786e-02
-1.756749674677848816e-02
-5.145512521266937256e-02
-4.137456417083740234e-02
4.396309703588485718e-02
-5.828969180583953857e-02
-6.100053340196609497e-02
-5.648337677121162415e-02
7.495829369872808456e-03
3.708791336975991726e-04
-4.668857157230377197e-02
-2.146884426474571228e-02
-1.290199253708124161e-02
-2.906905300915241241e-02
-5.791763588786125183e-02
-1.950816996395587921e-02
-2.612867765128612518e-02
3.926538676023483276e-02
3.199622267857193947e-03
1.244571805000305176e-02
5.387678369879722595e-02
-2.900152839720249176e-02
-5.418550968170166016e-02
5.325657874345779419e-02
6.914865225553512573e-02
2.325874567031860352e-02
1.190045289695262909e-02
9.759841486811637878e-03
-2.834396623075008392e-02
-4.272836446762084961e-02
-3.703451156616210938e-02
-1.025163452140986919e-03
-7.050257176160812378e-02
-2.951423451304435730e-02
-5.961646139621734619e-02
5.778075754642486572e-02
5.445903167128562927e-02
3.572076931595802307e-02
3.285946696996688843e-02
-9.822010062634944916e-03
-1.011088304221630096e-02
-1.304945908486843109e-02
4.813745617866516113e-02
1.576726511120796204e-02
-2.578543126583099365e-02
7.677053660154342651e-02
1.880708336830139160e-02
7.175129838287830353e-03
4.513201117515563965e-02
4.731507971882820129e-02
-7.041160017251968384e-02
3.223427757620811462e-02
-5.593791976571083069e-02
-1.831915811635553837e-03
-6.780212372541427612e-02
-3.869440406560897827e-02
5.447577219456434250e-03
-5.371094495058059692e-02
-3.165762126445770264e-02
-2.740394324064254761e-02
-8.597031980752944946e-02
2.546608075499534607e-02
-3.287725150585174561e-02
-7.576613128185272217e-02
-6.556931138038635254e-02
-5.419750139117240906e-02
3.099400736391544342e-02
5.627956241369247437e-02
-8.245239965617656708e-03
-3.944084420800209045e-02
-6.944389641284942627e-02
4.723164811730384827e-02
-7.520093023777008057e-02
-2.260935120284557343e-02
-2.681414783000946045e-02
2.340426109731197357e-02
5.704482272267341614e-02
-5.803954228758811951e-02
-7.157183438539505005e-02
-2.070988714694976807e-02
7.140361238270998001e-03
-2.538841776549816132e-02
1.337627042084932327e-02
2.845930121839046478e-02
6.801871955394744873e-02
1.623123884201049805e-02
3.714352101087570190e-02
3.319954872131347656e-02
6.554830074310302734e-02
-3.127051889896392822e-02
3.775218501687049866e-02
-2.311716228723526001e-02
-4.695405066013336182e-02
-4.311384633183479309e-02
1.657568104565143585e-02
5.468612536787986755e-02
1.037582475692033768e-02
3.942992538213729858e-02
-5.279913917183876038e-02
6.359851360321044922e-02
3.758379817008972168e-02
4.430902749300003052e-02
-1.362740900367498398e-02
-2.157896757125854492e-03
4.375118389725685120e-02
6.607261300086975098e-02
3.175150230526924133e-02
1.110460143536329269e-02
3.454472124576568604e-02
4.362390190362930298e-02
-2.559356950223445892e-02
-4.669677093625068665e-02
1.927596330642700195e-02
-2.185707166790962219e-02
-4.641655832529067993e-02
-3.827987238764762878e-02
-7.096984237432479858e-02
-6.806363910436630249e-02
1.213535945862531662e-02
-1.309677585959434509e-02
-6.779167056083679199e-02
8.487118408083915710e-03
-7.464282214641571045e-03
5.743834003806114197e-02
6.047485023736953735e-02
-1.864332519471645355e-02
3.440998867154121399e-02
6.241687387228012085e-02
-3.301031142473220825e-02
-5.935540422797203064e-02
-6.268443167209625244e-02
3.705314546823501587e-02
1.115486398339271545e-02
3.372502326965332031e-02
5.251256749033927917e-02
-2.276828698813915253e-02
-5.568336322903633118e-02
-1.335885655134916306e-02
-6.722812354564666748e-02
4.005414247512817383e-02
-5.054236203432083130e-02
-6.715258210897445679e-02
-6.411588191986083984e-02
2.724911458790302277e-02
-9.433054365217685699e-03
7.515254896134138107e-03
-4.830704629421234131e-02
4.282602295279502869e-02
5.332510918378829956e-02
2.982024801895022392e-03
5.587625876069068909e-02
2.310138661414384842e-03
3.957418352365493774e-02
3.720498085021972656e-02
6.641666591167449951e-02
-6.196387112140655518e-02
1.993384771049022675e-02
3.736548125743865967e-02
-2.964917942881584167e-02
7.057098299264907837e-02
-3.331416752189397812e-03
1.088671386241912842e-02
-1.394807919859886169e-02
-5.482179578393697739e-03
5.655237659811973572e-02
-6.149864196777343750e-02
4.882267490029335022e-02
-1.892548054456710815e-02
-2.793523669242858887e-02
-6.806514412164688110e-02
5.854369327425956726e-02
-4.158795252442359924e-02
1.557816140120849013e-04
5.161494761705398560e-02
7.054926455020904541e-02
5.935095250606536865e-02
1.074968185275793076e-02
-3.099885396659374237e-02
-5.804755538702011108e-02
-6.676626857370138168e-03
-2.571349218487739563e-02
-4.001723229885101318e-02
-2.651376277208328247e-02
-6.237984448671340942e-02
3.957566246390342712e-02
-2.622635476291179657e-02
-6.327850371599197388e-02
1.222929544746875763e-02
-9.482009336352348328e-03
1.064304541796445847e-02
-2.532091364264488220e-02
1.655629463493824005e-02
-1.807064563035964966e-02
4.926261678338050842e-02
-4.875377565622329712e-02
1.967120729386806488e-02
1.099448930472135544e-02
2.204182557761669159e-02
-4.842837154865264893e-02
-2.636513859033584595e-02
-4.197868984192609787e-03
4.015985876321792603e-02
-1.946721458807587624e-03
-3.062691166996955872e-02
-4.255446791648864746e-02
2.811981551349163055e-02
-1.071184501051902771e-02
7.389505207538604736e-02
-2.385689131915569305e-02
-5.846415832638740540e-02
1.833594217896461487e-02
1.943573541939258575e-02
-5.927010998129844666e-02
-1.572993583977222443e-02
-7.887358963489532471e-02
5.301019176840782166e-02
-3.734683617949485779e-02
2.747100405395030975e-02
-1.013418752700090408e-02
-7.468786835670471191e-02
7.225072942674160004e-03
4.914494603872299194e-02
-4.972703754901885986e-03
-1.321407617069780827e-03
5.890879034996032715e-02
-2.829131111502647400e-02
3.789912536740303040e-02
5.133990198373794556e-02
-1.563502661883831024e-02
-2.572619821876287460e-03
2.922363206744194031e-02
8.623138070106506348e-03
6.230644881725311279e-02
2.418761700391769409e-02
3.970037400722503662e-02
-7.838080823421478271e-02
5.840255320072174072e-02
-2.236781828105449677e-02
5.156496912240982056e-02
-3.022057376801967621e-02
-4.756506904959678650e-02
-3.679051995277404785e-02
9.668626822531223297e-03
3.382942453026771545e-02
-4.672580212354660034e-02
-3.459651023149490356e-02
1.330562680959701538e-02
-2.420832216739654541e-02
-9.471243247389793396e-03
2.777324058115482330e-02
-6.197388470172882080e-02
3.198239579796791077e-02
-6.348820775747299194e-02
2.112358622252941132e-02
2.855312265455722809e-02
1.168654020875692368e-02
4.547196254134178162e-02
6.810014694929122925e-02
3.926413878798484802e-02
-3.683720156550407410e-02
-5.650419741868972778e-03
2.741782367229461670e-02
4.446815233677625656e-03
-4.984233900904655457e-02
-2.935048192739486694e-02
7.980947941541671753e-02
-1.711687818169593811e-02
-2.513718418776988983e-02
-1.786588924005627632e-03
6.202090531587600708e-02
3.931796923279762268e-02
7.250972557812929153e-04
4.358507320284843445e-02
5.922351405024528503e-02
3.292138129472732544e-02
6.892855465412139893e-02
-2.388180419802665710e-02
2.364337630569934845e-02
5.337085574865341187e-02
5.212252587080001831e-02
7.202373351901769638e-03
-6.331093609333038330e-02
1.348527148365974426e-02
-4.874830693006515503e-02
-4.079660400748252869e-03
-6.342571973800659180e-02
-3.948669508099555969e-02
3.971585631370544434e-02
1.749928295612335205e-02
-3.074218519032001495e-02
-5.145353078842163086e-02
1.564181037247180939e-02
-2.981242537498474121e-02
-6.033658608794212341e-02
4.772619158029556274e-02
2.171926759183406830e-02
4.884084314107894897e-02
-1.040842384099960327e-02
6.263892166316509247e-03
-3.170710802078247070e-02
-4.463733173906803131e-03
-1.583373546600341797e-02
1.560137514024972916e-02
4.877816827502101660e-04
2.132471464574337006e-02
3.550952300429344177e-02
-1.248089596629142761e-02
-1.101652439683675766e-02
-4.951775819063186646e-02
1.002241857349872589e-02
-9.859343990683555603e-04
-3.676522895693778992e-02
2.212581597268581390e-02
-8.820189535617828369e-02
-6.917848438024520874e-02
3.872258588671684265e-03
4.475326836109161377e-02
-7.023429870605468750e-02
-6.050353124737739563e-02
2.928185276687145233e-03
7.627803087234497070e-02
1.709671504795551300e-02
-2.087942697107791901e-02
-6.659287214279174805e-02
3.403697162866592407e-02
6.158047169446945190e-02
-5.225380137562751770e-02
3.705257177352905273e-02
8.883114787749946117e-04
5.078909918665885925e-03
-3.664072602987289429e-02
-5.650535598397254944e-02
8.518743328750133514e-03
4.561400413513183594e-02
-3.126656636595726013e-02
-5.635052919387817383e-02
3.203207626938819885e-02
-4.724134225398302078e-03
-3.838441148400306702e-02
-7.258787751197814941e-02
1.406166236847639084e-02
2.429235726594924927e-02
2.300631999969482422e-02
-4.270794242620468140e-02
-6.392574310302734375e-02
3.853882476687431335e-02
4.191755875945091248e-02
-5.850442126393318176e-02
4.324642196297645569e-02
2.210903726518154144e-02
-3.143845871090888977e-02
5.256101489067077637e-02
7.068719714879989624e-03
-6.864171940833330154e-03
6.318169832229614258e-02
-4.053310304880142212e-02
-6.106692925095558167e-02
1.232763193547725677e-02
6.949071586132049561e-02
2.844832651317119598e-02
5.322248861193656921e-02
2.887440496124327183e-04
1.413731183856725693e-02
-2.104467526078224182e-02
-2.022388391196727753e-02
5.195514112710952759e-02
2.636346593499183655e-02
2.344324626028537750e-02
2.717569470405578613e-02
4.084929823875427246e-02
-3.574502095580101013e-02
-2.778409607708454132e-02
2.254134789109230042e-02
-1.251513231545686722e-02
5.806149169802665710e-02
5.317771062254905701e-02
5.322310701012611389e-02
2.024369686841964722e-02
-2.232443168759346008e-02
2.037248387932777405e-02
-5.154216662049293518e-02
-5.068416893482208252e-02
1.705107465386390686e-02
-4.855687916278839111e-02
5.424998700618743896e-02
3.156702592968940735e-02
5.772241204977035522e-02
5.815192312002182007e-02
6.495324894785881042e-03
-2.490252628922462463e-02
-4.224192351102828979e-02
5.092839896678924561e-02
3.379697911441326141e-03
3.359524160623550415e-02
6.985522806644439697e-02
-4.412464052438735962e-02
-4.601996392011642456e-02
1.680725999176502228e-02
-2.758683450520038605e-02
8.866853266954421997e-02
-1.224909536540508270e-02
4.369597509503364563e-02
5.710578709840774536e-02
-1.535279490053653717e-02
7.744644582271575928e-02
7.061568647623062134e-02
-5.608702544122934341e-03
1.078905630856752396e-02
6.790037453174591064e-02
9.526762180030345917e-03
4.486666992306709290e-02
-9.338117204606533051e-03
3.155242279171943665e-02
-4.523216187953948975e-02
8.182482421398162842e-02
-4.874066263437271118e-02
5.253992974758148193e-02
6.272690743207931519e-02
3.026392124593257904e-02
7.041785866022109985e-02
3.247915534302592278e-03
1.653501205146312714e-02
-1.475263666361570358e-02
3.324454650282859802e-02
-3.495759516954421997e-02
9.859425947070121765e-03
-4.258564487099647522e-02
-3.183521702885627747e-02
-2.115971408784389496e-02
9.626454673707485199e-03
3.373781451955437660e-03
7.083336822688579559e-03
4.113405942916870117e-02
6.558993458747863770e-02
3.216659883037209511e-03
6.550997495651245117e-02
5.422463640570640564e-02
-4.517880827188491821e-02
2.604778483510017395e-02
-1.767145842313766479e-02
-2.953924797475337982e-02
4.714234173297882080e-02
-1.330442447215318680e-02
4.499292373657226562e-02
-1.004355121403932571e-02
-1.760827377438545227e-02
4.843227937817573547e-02
-3.986677154898643494e-03
-2.811491955071687698e-03
-5.975779145956039429e-02
4.716175049543380737e-02
4.954787716269493103e-02
-3.419817611575126648e-02
6.708902306854724884e-03
-5.139264836907386780e-02
6.907059252262115479e-02
5.758659169077873230e-02
-5.839329585433006287e-02
-5.104940384626388550e-02
-3.404946625232696533e-02
-4.952181875705718994e-02
-3.542993962764739990e-02
4.367210716009140015e-02
5.708381906151771545e-02
6.625069677829742432e-02
-3.247365821152925491e-03
-1.080469321459531784e-02
-2.651968039572238922e-03
-3.143042325973510742e-02
-4.814202897250652313e-03
-1.750406250357627869e-02
-6.127394735813140869e-02
-2.020607516169548035e-02
-1.215127296745777130e-02
-3.341677039861679077e-02
-2.986034844070672989e-03
4.922305420041084290e-02
3.296015784144401550e-03
2.899797633290290833e-02
-1.637937873601913452e-02
1.977803371846675873e-02
2.378698065876960754e-02
1.320514548569917679e-02
-5.892932042479515076e-02
3.146941587328910828e-02
4.598104208707809448e-02
6.409287452697753906e-02
3.241770714521408081e-02
4.227421060204505920e-02
-1.205925177782773972e-02
4.439683258533477783e-02
-4.139239341020584106e-02
1.532583963125944138e-02
4.617685079574584961e-02
-1.525481604039669037e-02
-1.327331759966909885e-03
-2.749699912965297699e-02
-5.748017504811286926e-02
-6.972402799874544144e-03
1.569914817810058594e-02
-6.286332756280899048e-02
4.831252992153167725e-02
-3.353000618517398834e-03
-1.848897710442543030e-02
3.380203247070312500e-02
1.680976711213588715e-02
-4.302471503615379333e-02
2.492649108171463013e-02
1.462737657129764557e-02
-4.979138821363449097e-02
3.427863121032714844e-02
6.005366519093513489e-02
-1.731126941740512848e-02
-2.459344267845153809e-02
1.094568893313407898e-02
3.454177081584930420e-02
4.477023705840110779e-02
-2.614703029394149780e-02
5.941757932305335999e-02
8.130080997943878174e-03
3.420621156692504883e-03
-8.280748501420021057e-03
-2.947489917278289795e-02
-5.711943656206130981e-02
6.380473077297210693e-02
3.768920898437500000e-03
-1.837076997617259622e-04
-5.650034919381141663e-02
3.202019433956593275e-04
2.065981738269329071e-02
-1.042811200022697449e-03
-3.352476283907890320e-02
-1.261604018509387970e-02
1.832749880850315094e-02
-5.309803411364555359e-02
1.177848130464553833e-02
6.618254631757736206e-02
6.046528741717338562e-02
-4.746691510081291199e-02
-2.968507818877696991e-02
-2.183071896433830261e-02
3.304851474240422249e-03
3.225194662809371948e-02
-5.461349152028560638e-03
-6.887251883745193481e-02
-1.074837520718574524e-02
1.148666255176067352e-02
-1.674334146082401276e-02
-4.837219789624214172e-02
-7.597237080335617065e-02
-3.764211898669600487e-03
-4.492736980319023132e-02
5.011919885873794556e-02
-7.793488353490829468e-02
-4.771256446838378906e-02
6.508118659257888794e-02
-3.011138178408145905e-02
-6.852532923221588135e-02
4.845649003982543945e-02
7.333699613809585571e-02
-6.648279726505279541e-02
7.057917304337024689e-03
1.545424107462167740e-02
-3.365360572934150696e-02
6.785922218114137650e-03
6.100944057106971741e-02
2.762954868376255035e-02
-3.386801481246948242e-02
-1.668333075940608978e-02
-1.334908977150917053e-02
2.909923344850540161e-02
-2.126269228756427765e-02
3.059779852628707886e-02
2.174817770719528198e-02
7.093406748026609421e-03
3.951098769903182983e-03
-2.877572178840637207e-02
-4.797982797026634216e-02
1.904987357556819916e-02
-4.312708973884582520e-02
1.419406570494174957e-02
2.704468555748462677e-02
4.419759660959243774e-02
-4.964737594127655029e-02
4.800773039460182190e-02
5.524269491434097290e-02
-2.761974558234214783e-02
2.013660036027431488e-02
6.378111243247985840e-02
-4.902869462966918945e-02
6.455183029174804688e-02
-3.298338875174522400e-02
5.420904606580734253e-02
5.398142710328102112e-02
-1.173062063753604889e-02
2.617947198450565338e-02
-4.932083934545516968e-02
5.360401049256324768e-02
4.643953964114189148e-02
-1.346830558031797409e-02
6.074364110827445984e-02
-2.222063764929771423e-02
6.390205770730972290e-02
-6.994685158133506775e-03
-2.593841962516307831e-02
5.773604288697242737e-02
-7.307869940996170044e-02
-4.704481735825538635e-02
7.844491302967071533e-02
3.024914674460887909e-02
-5.057363584637641907e-02
-1.283369772136211395e-02
5.068827420473098755e-02
5.469379201531410217e-02
-5.663402006030082703e-02
2.935800142586231232e-02
5.993862170726060867e-03
4.938686639070510864e-02
5.292064696550369263e-02
4.699945077300071716e-02
-7.596507668495178223e-02
2.599925547838211060e-02
1.681094430387020111e-02
-2.644884516485035419e-04
2.633622474968433380e-02
-7.849919795989990234e-02
6.890975683927536011e-02
6.140735000371932983e-02
-7.652661204338073730e-02
8.712122216820716858e-03
1.363241206854581833e-02
1.220188941806554794e-02
8.540761470794677734e-02
-2.138408087193965912e-02
-5.725214257836341858e-02
-7.745628803968429565e-02
-5.226572975516319275e-02
6.674994528293609619e-02
-6.891787797212600708e-02
-1.169253140687942505e-02
1.836235634982585907e-02
7.075875252485275269e-02
2.320567704737186432e-02
1.681755483150482178e-02
-4.473225399851799011e-02
5.327095091342926025e-02
4.955148696899414062e-02
2.405395498499274254e-03
4.967841878533363342e-02
-3.426638431847095490e-03
5.146258324384689331e-02
-1.908502168953418732e-02
7.104119658470153809e-02
6.691914051771163940e-03
-4.126353189349174500e-02
-2.637831866741180420e-02
4.746843501925468445e-02
-4.170422255992889404e-02
-2.280818670988082886e-02
-2.238628268241882324e-02
-4.790730401873588562e-02
-5.253056529909372330e-03
-3.576226159930229187e-02
4.115699231624603271e-02
5.325363576412200928e-02
-3.632583888247609138e-03
-9.883572347462177277e-03
5.597511306405067444e-02
-4.342536255717277527e-02
-4.729822278022766113e-02
4.739951714873313904e-02
4.273412283509969711e-03
6.099704187363386154e-03
3.608754277229309082e-02
1.483589783310890198e-02
-3.865034505724906921e-02
-4.669745266437530518e-02
-4.524221271276473999e-02
4.701600968837738037e-02
5.792522802948951721e-02
3.541954606771469116e-02
-6.448914855718612671e-02
-9.051425382494926453e-03
-5.861702933907508850e-02
-1.069649588316679001e-03
5.263004451990127563e-02
4.251461476087570190e-02
-2.681377902626991272e-02
-3.704151313286274672e-04
1.792391948401927948e-02
-1.236008293926715851e-02
3.633916750550270081e-02
-1.713293977081775665e-02
4.439155384898185730e-02
-5.028304643929004669e-03
-4.665438830852508545e-02
-1.427776832133531570e-02
-2.207132987678050995e-02
5.785142257809638977e-02
6.912264972925186157e-03
-3.384933574125170708e-03
9.874048642814159393e-03
-3.508853539824485779e-02
5.418438013293780386e-05
3.621725738048553467e-02
1.491028163582086563e-02
2.508774586021900177e-02
-1.126970164477825165e-02
2.484128251671791077e-02
1.151478616520762444e-03
-1.447117142379283905e-02
9.119278937578201294e-02
3.267419710755348206e-02
1.631002686917781830e-02
-4.471436608582735062e-03
4.357060790061950684e-02
-2.926179394125938416e-02
1.781176030635833740e-02
3.278858959674835205e-02
4.126224294304847717e-02
2.840179949998855591e-02
-2.235687710344791412e-02
-6.211104989051818848e-02
3.882122039794921875e-02
-2.206373494118452072e-03
1.315556466579437256e-02
-4.357490688562393188e-02
-3.396494686603546143e-02
-9.866379201412200928e-03
-6.387825310230255127e-02
3.534183278679847717e-02
-7.679650187492370605e-02
1.541961543262004852e-02
1.541643775999546051e-02
3.879754245281219482e-02
-4.877537861466407776e-02
-3.445765748620033264e-02
4.528751224279403687e-02
-8.399433456361293793e-03
-6.327904015779495239e-02
-2.939401566982269287e-02
-2.995949611067771912e-02
5.995473638176918030e-02
2.071337588131427765e-02
3.960052505135536194e-02
5.499954894185066223e-02
2.544266730546951294e-02
-4.365177080035209656e-02
-5.204287916421890259e-02
1.953551918268203735e-02
-2.166766114532947540e-02
-1.731798425316810608e-02
-1.520537398755550385e-02
6.437210738658905029e-02
-3.396311402320861816e-02
-2.920450642704963684e-02
2.766160294413566589e-02
-5.937064532190561295e-03
7.632697373628616333e-02
5.024186521768569946e-02
7.640433311462402344e-02
5.814265087246894836e-02
-7.267507258802652359e-03
1.804145984351634979e-02
-3.597913775593042374e-03
-5.244710948318243027e-03
4.903682693839073181e-02
-9.414826519787311554e-03
6.804928928613662720e-02
2.762959152460098267e-02
1.578372530639171600e-02
-5.048619955778121948e-02
-7.599106524139642715e-03
-9.443184360861778259e-03
4.877719283103942871e-02
-5.611283332109451294e-02
2.607503905892372131e-02
3.817186132073402405e-02
-3.586834669113159180e-02
2.954336069524288177e-02
-1.849910989403724670e-02
-8.558697998523712158e-03
7.093249261379241943e-02
5.179292708635330200e-02
3.735758736729621887e-02
-1.775801368057727814e-02
-4.888245835900306702e-02
7.318838685750961304e-02
5.585554614663124084e-02
-5.088811740279197693e-02
-6.698536127805709839e-02
1.915540359914302826e-02
2.504668943583965302e-02
2.026157639920711517e-02
-1.266878005117177963e-02
7.168919779360294342e-03
6.422933936119079590e-02
-2.969694696366786957e-02
1.276180800050497055e-02
7.733744569122791290e-03
-6.006599217653274536e-02
6.609332561492919922e-02
3.442733362317085266e-02
-4.069589078426361084e-02
3.625655919313430786e-02
-6.456203013658523560e-02
-3.426178172230720520e-02
-4.882948845624923706e-02
-6.571067869663238525e-02
-3.564711660146713257e-02
2.375379763543605804e-02
4.967194795608520508e-02
3.419873118400573730e-02
5.259109660983085632e-02
1.923148520290851593e-02
5.652393773198127747e-02
4.995004832744598389e-02
1.367145404219627380e-02
4.422074928879737854e-02
-2.173136547207832336e-02
-2.575010433793067932e-02
6.023369356989860535e-02
-2.998032607138156891e-02
-2.688230387866497040e-02
-2.632330358028411865e-02
3.301380900666117668e-03
-5.523183941841125488e-02
-3.647257015109062195e-02
7.538233883678913116e-03
1.851241849362850189e-02
-3.633658215403556824e-02
-5.666417255997657776e-02
-5.173651129007339478e-02
-2.444645389914512634e-02
-5.235092341899871826e-02
4.971792921423912048e-02
-4.695244133472442627e-02
-8.193008601665496826e-02
-4.623217508196830750e-02
6.464149802923202515e-02
5.526560917496681213e-02
5.811732262372970581e-03
-3.411464393138885498e-02
1.697661727666854858e-02
-5.141891539096832275e-02
-4.275033250451087952e-02
3.235620632767677307e-02
-3.894104063510894775e-02
-6.296428292989730835e-02
1.148238219320774078e-02
7.292871363461017609e-03
-3.735560923814773560e-02
-2.746849507093429565e-02
1.698557659983634949e-02
2.325673028826713562e-02
-5.471515282988548279e-02
4.806804284453392029e-02
-7.032269984483718872e-02
6.096598505973815918e-02
-1.694761775434017181e-02
-2.796740271151065826e-02
-4.489812627434730530e-02
-3.052461706101894379e-02
-7.252421230077743530e-02
-2.125139720737934113e-02
2.032149210572242737e-02
3.918493166565895081e-02
-4.338647797703742981e-02
1.579564064741134644e-02
2.456853166222572327e-02
-1.773838512599468231e-02
6.735924631357192993e-02
4.135131835937500000e-02
-5.769798532128334045e-03
-9.863127954304218292e-03
-4.684657976031303406e-02
-5.448842048645019531e-02
2.648412063717842102e-02
1.427324675023555756e-02
4.143923148512840271e-02
-2.822490409016609192e-03
-6.383877992630004883e-02
-1.696448423899710178e-03
-6.651011109352111816e-02
3.700302541255950928e-02
1.373100839555263519e-02
-6.273344159126281738e-02
4.888285696506500244e-02
-2.879034541547298431e-02
-1.627296954393386841e-02
-5.515047907829284668e-02
5.216373503208160400e-02
-4.907551780343055725e-02
-5.789435282349586487e-02
-1.104128174483776093e-02
-9.038174757733941078e-04
-6.452531367540359497e-02
-3.713293746113777161e-02
3.306545689702033997e-02
-4.937206953763961792e-02
6.468930840492248535e-02
3.964431583881378174e-02
1.448482926934957504e-02
4.453164525330066681e-03
-6.497125327587127686e-02
8.786636590957641602e-02
4.008612409234046936e-02
9.849493391811847687e-03
1.418139971792697906e-02
-4.958782345056533813e-02
6.483063846826553345e-02
-5.802303925156593323e-02
2.171581238508224487e-02
5.612372979521751404e-02
1.373320119455456734e-03
8.569665998220443726e-02
4.016093909740447998e-02
-3.206875920295715332e-02
4.081010445952415466e-02
-5.098920688033103943e-02
3.349982947111129761e-02
-4.556336998939514160e-02
6.882977322675287724e-04
2.281231340020895004e-03
5.858800187706947327e-02
-1.829053461551666260e-02
5.275516957044601440e-02
-4.876642674207687378e-02
-6.097115203738212585e-02
4.064211249351501465e-02
2.012071013450622559e-02
-1.620689220726490021e-02
-9.017805568873882294e-03
-2.852574363350868225e-02
1.616808399558067322e-02
1.287445519119501114e-02
4.800682514905929565e-02
-4.812816157937049866e-02
3.853563219308853149e-02
-5.160659924149513245e-02
5.671717971563339233e-02
-5.190456658601760864e-02
-4.840411990880966187e-02
-3.668037056922912598e-02
-3.713383153080940247e-02
6.277760863304138184e-02
-4.436196014285087585e-02
7.820336148142814636e-03
-1.367230527102947235e-02
2.660910040140151978e-02
6.162082776427268982e-02
5.069328099489212036e-02
4.847799241542816162e-02
1.726612262427806854e-02
3.775312751531600952e-02
-2.399790100753307343e-02
-3.058020770549774170e-02
-5.404238030314445496e-02
-2.892342582345008850e-02
-2.558987820520997047e-03
-2.775473147630691528e-02
2.222045324742794037e-02
3.079994581639766693e-02
-6.440277397632598877e-02
-6.367345154285430908e-02
5.597404390573501587e-02
4.871428012847900391e-02
5.108504742383956909e-02
1.803000085055828094e-02
5.401782318949699402e-02
-5.870206654071807861e-02
-4.278571903705596924e-02
4.961653798818588257e-02
-4.346798174083232880e-03
3.489522635936737061e-02
-3.352339565753936768e-02
3.141825646162033081e-02
-1.137934857979416847e-03
-3.110830299556255341e-02
-2.123139053583145142e-02
-2.923206053674221039e-02
2.993742190301418304e-02
1.286193612031638622e-03
-3.803272917866706848e-02
-4.616828635334968567e-02
3.837374970316886902e-02
4.753480106592178345e-02
-3.428011760115623474e-02
-5.181205645203590393e-02
-3.749787062406539917e-02
4.213524237275123596e-02
2.316039241850376129e-02
3.950911760330200195e-02
-5.244627222418785095e-02
-2.933997474610805511e-02
-4.487536847591400146e-02
5.256386473774909973e-02
-5.887318775057792664e-02
5.130124092102050781e-02
-3.933272883296012878e-02
-2.541719563305377960e-02
4.271467402577400208e-02
2.601892873644828796e-02
6.623258441686630249e-02
-5.945244058966636658e-02
2.856031060218811035e-02
4.286156594753265381e-02
1.255514379590749741e-02
7.367058098316192627e-02
3.804513439536094666e-02
2.201085351407527924e-02
-5.873478204011917114e-02
-1.762178167700767517e-02
-3.305851668119430542e-02
3.132010623812675476e-02
2.782978676259517670e-02
4.424820095300674438e-02
5.455679073929786682e-02
-5.613141227513551712e-03
3.347828611731529236e-02
5.230439710430800915e-04
-4.386819526553153992e-02
2.650480903685092926e-02
-9.965023025870323181e-03
7.418641448020935059e-02
1.085030846297740936e-02
-6.431416422128677368e-02
-1.338919810950756073e-02
-2.462510392069816589e-02
6.943742185831069946e-02
2.494988217949867249e-02
5.890518799424171448e-02
-1.927066221833229065e-02
4.972333833575248718e-02
9.794241748750209808e-03
-1.681443862617015839e-02
-3.512225300073623657e-02
4.067753255367279053e-02
-6.612137425690889359e-03
6.766466051340103149e-02
-2.534359879791736603e-02
2.407975494861602783e-02
2.274943143129348755e-02
5.304485931992530823e-02
-4.945239052176475525e-02
6.932368129491806030e-02
1.583003252744674683e-02
2.368954569101333618e-02
1.631509885191917419e-02
6.049052253365516663e-02
5.060890689492225647e-02
-6.410223990678787231e-02
2.491512894630432129e-02
-3.307607769966125488e-02
-4.938080091960728168e-04
1.506031397730112076e-02
1.179459877312183380e-02
3.830270841717720032e-02
4.028145968914031982e-02
-3.496867418289184570e-02
-1.883915066719055176e-02
1.203641854226589203e-02
6.580748409032821655e-02
-2.857334166765213013e-02
-5.717668682336807251e-02
-3.281211853027343750e-02
-3.172940388321876526e-02
-6.850305479019880295e-03
-5.009316653013229370e-02
-1.581296883523464203e-02
2.792508713901042938e-02
5.465262010693550110e-02
-5.658344179391860962e-02
-3.184506297111511230e-02
-4.215480014681816101e-02
3.898138925433158875e-02
-3.924836404621601105e-03
-3.110288828611373901e-02
7.065639831125736237e-03
-2.363651618361473083e-02
-4.263471812009811401e-02
6.233750656247138977e-02
6.251105666160583496e-02
-5.777240917086601257e-02
-6.132173165678977966e-02
4.177146032452583313e-02
3.785739466547966003e-02
-3.920524939894676208e-02
9.368722327053546906e-03
6.888303160667419434e-02
-9.606445208191871643e-03
4.135823994874954224e-02
5.080935359001159668e-02
-4.882353544235229492e-02
-2.951622009277343750e-02
-2.381555736064910889e-02
-2.401182428002357483e-02
5.540841259062290192e-03
-6.373419612646102905e-02
-1.052235020324587822e-03
-5.513484030961990356e-02
-5.477897450327873230e-02
-6.184240803122520447e-02
-3.740749880671501160e-02
-3.689115494489669800e-02
3.280187398195266724e-02
-5.952027812600135803e-02
6.150635425001382828e-03
-3.682398051023483276e-02
-6.720656156539916992e-02
5.363926291465759277e-02
-6.186727434396743774e-02
-5.287851765751838684e-02
-6.580328941345214844e-02
-2.649819850921630859e-02
5.922091007232666016e-02
-3.502282500267028809e-02
4.391268640756607056e-02
-2.672657370567321777e-02
-4.349017143249511719e-02
-4.143004491925239563e-02
-5.636605434119701385e-03
-6.295150518417358398e-02
3.035018406808376312e-02
2.626884542405605316e-02
3.782610595226287842e-02
3.651930764317512512e-02
-2.521099150180816650e-02
2.896520122885704041e-02
-9.402582421898841858e-03
2.224332466721534729e-02
-3.606714308261871338e-02
6.589482538402080536e-03
2.403310872614383698e-02
3.749694302678108215e-02
-3.836438804864883423e-02
-5.103103443980216980e-02
3.062236867845058441e-02
-6.988243758678436279e-02
-1.873464509844779968e-02
-5.248098820447921753e-02
3.240711614489555359e-02
5.055039003491401672e-02
-4.747537896037101746e-02
-1.955072954297065735e-02
-1.631191372871398926e-02
-1.700884290039539337e-02
-3.144251555204391479e-02
-2.605312876403331757e-02
-5.390157550573348999e-02
2.014718391001224518e-02
2.467222325503826141e-02
3.902729833498597145e-03
5.772725492715835571e-02
3.505464177578687668e-03
5.890603736042976379e-02
-1.076591387391090393e-02
2.929044514894485474e-02
3.373548621311783791e-03
7.054351270198822021e-02
-6.067917868494987488e-02
-1.900568231940269470e-02
-2.971345325931906700e-03
1.804694160819053650e-02
-6.194538250565528870e-02
-3.142401576042175293e-02
-1.632484418223612010e-05
3.424213081598281860e-02
-6.672047078609466553e-02
6.316266022622585297e-03
-1.095426175743341446e-02
-2.975721657276153564e-02
-2.219291962683200836e-02
4.811949282884597778e-02
8.578534238040447235e-03
4.579180479049682617e-02
-5.889604985713958740e-02
5.307680368423461914e-02
-4.034779500216245651e-03
-5.104758962988853455e-02
-1.691746339201927185e-02
5.740769580006599426e-02
-3.375967964529991150e-02
-5.094355437904596329e-03
3.409913927316665649e-02
-4.291873425245285034e-02
-3.978036809712648392e-03
5.634247511625289917e-02
-2.202413789927959442e-02
2.210147120058536530e-02
-1.210252568125724792e-02
7.058709394186735153e-03
1.267663948237895966e-02
-6.587180495262145996e-02
-4.879789426922798157e-02
3.144977614283561707e-03
-7.509575784206390381e-02
-7.600689679384231567e-02
1.685580238699913025e-02
-5.635866522789001465e-02
5.387651920318603516e-02
-5.446630343794822693e-02
7.437617052346467972e-03
2.456539310514926910e-02
7.421530038118362427e-02
1.154144015163183212e-02
4.887301847338676453e-02
-6.315690279006958008e-02
6.476988643407821655e-02
3.016305342316627502e-02
-3.833775967359542847e-02
-2.500243298709392548e-02
3.463505581021308899e-02
-1.378308236598968506e-02
2.372557669878005981e-02
7.325008977204561234e-03
-2.968512102961540222e-02
3.868861123919487000e-02
-2.301982045173645020e-02
7.512988988310098648e-03
-4.078824818134307861e-02
-1.108468160964548588e-03
-5.247385054826736450e-02
-1.534786634147167206e-02
6.905762851238250732e-02
4.668348282575607300e-02
7.436697930097579956e-02
7.425486296415328979e-02
2.987497858703136444e-02
6.178510189056396484e-02
1.175880059599876404e-02
-4.105741158127784729e-02
2.101086080074310303e-02
-6.486898660659790039e-02
5.966341495513916016e-02
4.317406564950942993e-03
-5.630804970860481262e-02
-6.942065060138702393e-02
-6.369152665138244629e-02
-5.151540786027908325e-02
-5.499361455440521240e-02
9.501905180513858795e-03
3.200725466012954712e-02
2.243157103657722473e-02
3.408475592732429504e-02
4.229363426566123962e-02
6.367025524377822876e-02
3.576516360044479370e-02
-2.714264905080199242e-03
-5.224685370922088623e-02
2.514009363949298859e-03
-7.216019928455352783e-02
2.119144983589649200e-02
-3.298524022102355957e-02
-3.449363261461257935e-02
-1.454580388963222504e-02
3.750995546579360962e-02
6.706111878156661987e-02
-5.143098533153533936e-02
-4.488146677613258362e-02
6.300953216850757599e-03
5.906787887215614319e-02
3.741784766316413879e-02
-3.719781339168548584e-02
6.000641360878944397e-02
-5.859471112489700317e-02
-2.232728153467178345e-02
-3.869418054819107056e-02
-7.399256527423858643e-02
-6.343108415603637695e-02
1.610750681720674038e-03
-3.321036323904991150e-02
4.785097017884254456e-02
3.095557726919651031e-02
2.225604653358459473e-02
-2.487655915319919586e-02
6.957435980439186096e-03
5.475158616900444031e-02
-6.393305491656064987e-03
-4.293353855609893799e-02
4.082454543095082045e-04
-3.232273086905479431e-02
7.397897541522979736e-03
3.022086992859840393e-02
-7.180676795542240143e-03
-3.722984576597809792e-03
2.392146561760455370e-04
-4.966500774025917053e-02
-7.002788037061691284e-02
5.309698730707168579e-02
2.808607928454875946e-02
2.034917846322059631e-02
-6.181548908352851868e-02
3.294188529253005981e-02
2.237197570502758026e-02
-6.232283543795347214e-03
3.073403798043727875e-02
5.654510483145713806e-02
5.970646813511848450e-02
-4.648723825812339783e-02
3.611126542091369629e-02
-1.074683014303445816e-02
-1.927254721522331238e-02
1.242814492434263229e-02
-1.487378403544425964e-02
7.215719670057296753e-02
4.706354066729545593e-02
5.820699036121368408e-03
-3.947979211807250977e-02
-1.628028973937034607e-02
-5.887081101536750793e-02
2.567953243851661682e-02
-5.066494271159172058e-02
-2.645508944988250732e-02
3.494104370474815369e-02
-3.850262612104415894e-02
1.201433688402175903e-02
-6.397543102502822876e-02
5.362680181860923767e-02
2.449162676930427551e-02
-2.424310147762298584e-02
6.232776492834091187e-02
3.956586006097495556e-04
4.417473077774047852e-02
-5.595069751143455505e-02
-5.077223107218742371e-02
-1.502679474651813507e-02
-7.487484067678451538e-02
1.791109330952167511e-02
6.353002786636352539e-02
6.424417346715927124e-02
-4.220276325941085815e-02
-4.911375418305397034e-02
5.557258427143096924e-02
-5.424673110246658325e-02
6.491006165742874146e-02
5.965913087129592896e-02
4.779282584786415100e-02
1.798610575497150421e-02
1.243602205067873001e-02
2.067416720092296600e-02
-2.472407557070255280e-02
-1.695354282855987549e-02
2.784431562758982182e-04
-1.860890723764896393e-02
-6.649308837950229645e-03
1.886696321889758110e-03
1.315492391586303711e-02
-4.722147434949874878e-02
1.485813595354557037e-02
-2.558988891541957855e-02
-2.172933518886566162e-02
3.073905594646930695e-02
4.556022956967353821e-02
4.570031911134719849e-02
-5.257820338010787964e-02
-1.722187548875808716e-02
1.161400508135557175e-02
4.263052716851234436e-02
-3.607524186372756958e-02
-4.065615683794021606e-02
3.644498437643051147e-02
6.626237928867340088e-02
1.900381036102771759e-02
6.573351472616195679e-02
-3.563837707042694092e-02
-1.105943880975246429e-02
6.007934920489788055e-03
-5.297178775072097778e-02
3.229692950844764709e-02
1.094333268702030182e-02
6.572493165731430054e-02
-5.512639880180358887e-02
7.371874153614044189e-02
-2.035871893167495728e-02
-2.425074391067028046e-02
-3.627309948205947876e-02
1.635333336889743805e-02
1.238774787634611130e-02
4.801404196768999100e-03
6.460638344287872314e-02
4.886249080300331116e-02
-1.784295309334993362e-03
-3.968409076333045959e-02
4.023481532931327820e-02
-5.345907807350158691e-02
-3.975547850131988525e-02
2.092719636857509613e-02
-6.159366294741630554e-02
5.677393823862075806e-02
6.451994180679321289e-02
-4.065184295177459717e-02
-4.982925578951835632e-02
-4.563793167471885681e-02
-5.594873055815696716e-02
3.253881633281707764e-02
-2.397468499839305878e-02
-4.064372181892395020e-02
1.678745448589324951e-02
-1.310993544757366180e-02
4.131059348583221436e-02
5.619676411151885986e-02
2.617361722514033318e-03
3.383808210492134094e-02
5.279055237770080566e-02
-7.375092059373855591e-02
-2.295134030282497406e-02
-2.049984037876129150e-02
-4.319447278976440430e-02
-3.005671687424182892e-02
-3.243136405944824219e-02
-3.446447476744651794e-02
-1.801606267690658569e-02
-5.195579677820205688e-02
1.855296269059181213e-02
-5.478528887033462524e-02
-5.112843960523605347e-02
5.695845000445842743e-03
6.312948185950517654e-03
1.750501990318298340e-02
6.303678732365369797e-03
-4.343042150139808655e-02
-6.118383258581161499e-02
-1.382991764694452286e-02
-3.941699862480163574e-02
2.784496359527111053e-02
-3.682143986225128174e-02
2.849439531564712524e-02
-1.001762505620718002e-02
-5.016832053661346436e-02
6.266278028488159180e-02
1.729297079145908356e-02
-4.847168922424316406e-02
-4.737976938486099243e-02
4.696824774146080017e-02
-4.884302243590354919e-02
4.298546910285949707e-02
-5.773899331688880920e-02
-1.441057119518518448e-02
-9.175667539238929749e-03
-6.526610255241394043e-02
-5.166345089673995972e-02
6.263078749179840088e-02
2.075171098113059998e-02
4.191014915704727173e-02
-4.311803355813026428e-02
-4.912987723946571350e-02
1.309303008019924164e-02
3.239882364869117737e-02
-6.312309950590133667e-02
1.683605485595762730e-03
-2.544575743377208710e-02
-3.895249590277671814e-02
5.415280163288116455e-02
1.022924552671611309e-03
2.242486178874969482e-02
2.907152660191059113e-02
1.668464392423629761e-02
-3.159254044294357300e-02
1.563565991818904877e-02
3.403077274560928345e-02
-1.335173845291137695e-02
-3.568285144865512848e-03
-3.016958246007561684e-03
-1.853992044925689697e-02
-3.032881766557693481e-02
-6.977887451648712158e-02
8.886879310011863708e-03
-3.659303113818168640e-02
2.758319862186908722e-02
4.380013421177864075e-02
5.711342394351959229e-02
-7.186117768287658691e-02
-5.648710206151008606e-02
-3.688343800604343414e-03
-2.037175931036472321e-02
-5.783196911215782166e-02
-2.624761126935482025e-02
-3.253106772899627686e-02
4.886220395565032959e-02
5.859029293060302734e-02
2.452798932790756226e-02
6.009917333722114563e-02
2.678175270557403564e-02
-4.915855824947357178e-02
3.910841420292854309e-02
4.965635761618614197e-02
-5.054201558232307434e-02
-3.582563996315002441e-02
3.846130520105361938e-02
-1.158782839775085449e-02
1.678116060793399811e-02
2.859783172607421875e-02
-1.455169077962636948e-02
4.104745760560035706e-02
3.160245344042778015e-02
-1.121352519840002060e-02
-4.442256316542625427e-02
-4.020874947309494019e-02
-4.683377966284751892e-02
-2.205958403646945953e-02
-1.175752747803926468e-02
-3.601318970322608948e-02
-2.142599783837795258e-02
6.050323322415351868e-02
1.781857572495937347e-02
-3.976225480437278748e-02
3.295195475220680237e-02
-1.107437070459127426e-02
5.667021125555038452e-02
1.715025305747985840e-02
-2.062826883047819138e-03
2.704384177923202515e-02
2.467076852917671204e-02
2.520184591412544250e-02
-5.859999451786279678e-03
-3.367548808455467224e-02
-2.669726312160491943e-02
3.647590056061744690e-02
-5.239653959870338440e-02
3.957396745681762695e-02
7.771545555442571640e-03
-4.115942493081092834e-02
1.397201884537935257e-02
-2.142070606350898743e-02
5.958899855613708496e-02
-3.002288006246089935e-02
-4.995610564947128296e-02
-5.160956084728240967e-02
5.619092285633087158e-02
-4.904372617602348328e-02
-5.769567564129829407e-03
-1.427141111344099045e-02
-9.740380570292472839e-03
3.316833823919296265e-02
-6.759966909885406494e-02
6.402571499347686768e-02
-2.223086729645729065e-02
4.412271454930305481e-02
4.673246666789054871e-02
3.479050844907760620e-02
3.307010978460311890e-02
-3.994291275739669800e-02
-4.658570513129234314e-02
3.247732669115066528e-02
-5.994343757629394531e-02
4.582362994551658630e-02
2.725660987198352814e-02
5.940900370478630066e-02
-4.973433166742324829e-02
2.584817260503768921e-02
-2.745689265429973602e-02
-2.831484377384185791e-02
-2.270583435893058777e-02
5.473894998431205750e-02
3.981384634971618652e-02
-1.270411908626556396e-02
3.925868868827819824e-02
4.148830100893974304e-02
7.445217669010162354e-02
5.481301248073577881e-02
-1.403017155826091766e-02
2.413033740594983101e-03
-4.492919833865016699e-04
6.465271860361099243e-02
-1.387651916593313217e-02
7.114856690168380737e-02
-1.558364648371934891e-02
5.974371731281280518e-02
-1.867511309683322906e-02
-4.603901132941246033e-02
-9.172790683805942535e-03
-2.017738856375217438e-02
5.451590567827224731e-02
3.986912220716476440e-02
6.252855062484741211e-02
1.515793055295944214e-02
1.522626727819442749e-02
-2.996321953833103180e-02
-4.421832039952278137e-02
-3.677754849195480347e-02
5.568524077534675598e-02
4.570269491523504257e-03
1.882694102823734283e-02
-5.607818067073822021e-02
-6.198198348283767700e-02
-1.721266098320484161e-02
-2.934155613183975220e-02
3.836490586400032043e-02
4.571614786982536316e-03
-3.546223044395446777e-02
-1.338051073253154755e-02
-7.487356662750244141e-02
-4.177119955420494080e-02
1.051702909171581268e-02
4.178061708807945251e-02
-4.781487956643104553e-02
4.016545787453651428e-02
7.310472428798675537e-02
-3.603692725300788879e-02
-6.908361613750457764e-02
-1.719311252236366272e-02
3.489767760038375854e-02
-1.548144221305847168e-02
-4.304084554314613342e-02
4.792992025613784790e-02
-8.485314995050430298e-02
-7.441240828484296799e-03
-6.261890381574630737e-02
-1.593028008937835693e-02
-5.848681181669235229e-02
-5.848273634910583496e-02
-2.466608211398124695e-02
6.173066049814224243e-02
5.080912634730339050e-02
5.737397447228431702e-02
-5.327493324875831604e-02
1.571056060492992401e-02
-1.756485365331172943e-02
-3.807864710688591003e-02
5.707015283405780792e-03
-5.615420266985893250e-02
-1.192009192891418934e-03
2.584346383810043335e-02
-5.255585163831710815e-02
-5.865186825394630432e-02
-5.559394136071205139e-02
-7.535975426435470581e-03
-2.063986845314502716e-02
-1.349425036460161209e-02
3.335261344909667969e-02
5.817953869700431824e-02
-4.438215121626853943e-02
2.233152464032173157e-02
4.355409741401672363e-02
-7.798056304454803467e-02
-4.318961873650550842e-02
7.632761448621749878e-02
5.972668901085853577e-02
-2.464677952229976654e-02
-5.057162791490554810e-02
-3.609384596347808838e-02
-2.174125239253044128e-02
1.443929621018469334e-03
4.038327187299728394e-02
4.962949454784393311e-02
-5.306705459952354431e-02
-2.301200665533542633e-02
-2.143561281263828278e-02
5.918880458921194077e-03
4.981042072176933289e-02
-5.450278520584106445e-02
-2.266579121351242065e-02
-9.199629537761211395e-03
-2.831310778856277466e-02
2.695019170641899109e-02
-3.055750951170921326e-02
4.737361147999763489e-02
3.237260039895772934e-03
8.987732231616973877e-03
-1.324736885726451874e-02
5.405120551586151123e-02
4.992431402206420898e-02
-3.996356949210166931e-02
1.173915714025497437e-02
-1.743574813008308411e-02
-5.530023202300071716e-02
-3.632438927888870239e-02
5.807235836982727051e-02
4.898559302091598511e-02
-2.905681962147355080e-03
-1.910665631294250488e-02
-1.681231707334518433e-02
6.856474280357360840e-02
1.878360658884048462e-02
-5.975562706589698792e-02
-1.785102300345897675e-02
-2.713100239634513855e-02
7.567366119474172592e-03
-5.153609812259674072e-02
2.486387640237808228e-02
-1.508642919361591339e-02
6.763806100934743881e-03
-3.986680507659912109e-02
6.092771142721176147e-02
6.422375142574310303e-02
-1.302507147192955017e-02
-5.629007890820503235e-02
3.420880436897277832e-02
-4.581411927938461304e-02
-7.900390774011611938e-03
-5.584654584527015686e-02
3.343423828482627869e-02
3.332446143031120300e-02
4.532148316502571106e-02
6.060275435447692871e-02
5.098721012473106384e-02
-3.422675654292106628e-02
6.504731625318527222e-02
-6.209882721304893494e-02
3.493609651923179626e-02
-1.126939151436090469e-02
4.744608327746391296e-02
8.037141710519790649e-02
2.494418807327747345e-02
-5.203211307525634766e-02
-4.750858619809150696e-02
-6.241861730813980103e-02
-1.876736991107463837e-02
-2.689779363572597504e-02
9.944335324689745903e-04
-5.015397816896438599e-02
1.959327608346939087e-02
7.594119291752576828e-03
6.174234673380851746e-02
-6.327378097921609879e-03
-8.124947547912597656e-03
-4.949254170060157776e-02
-2.913987264037132263e-02
3.911281749606132507e-02
-6.703507900238037109e-02
-2.573042735457420349e-02
-5.973697081208229065e-02
1.885554008185863495e-02
-5.001397430896759033e-02
-4.347824025899171829e-03
1.313871424645185471e-02
-4.008100926876068115e-02
4.164083302021026611e-02
-5.905710160732269287e-02
5.182972550392150879e-02
3.892013058066368103e-02
-6.684494018554687500e-02
-5.998082458972930908e-02
3.894770145416259766e-02
6.215499714016914368e-02
3.522155806422233582e-02
-2.882440388202667236e-02
-2.625016495585441589e-02
2.615742199122905731e-02
-1.896878890693187714e-02
6.411431822925806046e-04
3.322246298193931580e-02
-2.630401030182838440e-02
-4.236835241317749023e-02
-3.682826180011034012e-03
-3.243200853466987610e-02
-7.103428989648818970e-02
5.958952382206916809e-02
1.066583208739757538e-02
-4.247916862368583679e-02
-7.296355068683624268e-02
-1.213900931179523468e-02
3.587886691093444824e-02
2.709582634270191193e-02
-1.956158317625522614e-02
-6.359846889972686768e-02
-2.111583016812801361e-02
2.739943563938140869e-02
2.076386287808418274e-02
3.979418426752090454e-02
-5.367732420563697815e-02
-4.872824624180793762e-02
-5.428689718246459961e-02
1.824266649782657623e-02
-3.632417647168040276e-03
-9.107494354248046875e-02
-5.307016149163246155e-02
4.106159880757331848e-02
-5.739143118262290955e-02
-1.711451075971126556e-02
2.698772400617599487e-02
-9.810844436287879944e-03
-7.238487154245376587e-02
5.614304542541503906e-02
4.618341848254203796e-02
9.468728676438331604e-03
-3.062547557055950165e-02
1.475637406110763550e-02
-3.821342810988426208e-02
-6.290081888437271118e-02
-4.211796447634696960e-03
4.542824625968933105e-02
3.800302371382713318e-02
-5.850084498524665833e-02
7.394679356366395950e-03
-3.645148128271102905e-02
1.647702977061271667e-02
-1.781119965016841888e-02
5.524583393707871437e-04
-3.809325397014617920e-03
-6.583628803491592407e-02
-4.344717785716056824e-02
-3.759009018540382385e-02
2.271093800663948059e-02
-1.006578467786312103e-02
-3.392214700579643250e-02
4.040114581584930420e-02
-6.056179478764533997e-02
-2.058976702392101288e-02
-1.413290854543447495e-03
2.312085218727588654e-02
-7.986638695001602173e-02
-3.217998892068862915e-02
-2.436933107674121857e-03
-4.543777182698249817e-02
1.842553354799747467e-02
-5.750422924757003784e-02
5.948452278971672058e-02
4.449332505464553833e-02
-2.734175650402903557e-03
6.595352292060852051e-02
-1.258412003517150879e-02
5.937575176358222961e-02
5.678844172507524490e-03
5.542195588350296021e-02
6.795163266360759735e-03
5.738289561122655869e-03
5.299644544720649719e-02
5.750146880745887756e-02
-2.941490337252616882e-02
3.991284407675266266e-03
-6.828913092613220215e-02
-4.521886259317398071e-02
-1.143934205174446106e-02
1.104991417378187180e-02
-5.360805243253707886e-02
-5.255707725882530212e-02
-3.175543248653411865e-02
-3.069858066737651825e-02
-4.019608721137046814e-02
5.833994224667549133e-02
-4.283772408962249756e-02
3.514392301440238953e-02
2.614232338964939117e-02
-3.863856941461563110e-02
-2.806788496673107147e-02
-5.545051768422126770e-02
1.960968226194381714e-02
-4.309163987636566162e-02
5.210183188319206238e-02
3.119535744190216064e-02
-7.273217290639877319e-02
7.615003734827041626e-02
2.580820769071578979e-02
-1.583409123122692108e-02
-5.985250696539878845e-02
5.423695966601371765e-02
2.260626852512359619e-02
3.868013247847557068e-02
-5.094188451766967773e-02
6.229987833648920059e-03
-5.350887775421142578e-02
4.267430678009986877e-02
-5.119223892688751221e-02
6.857820600271224976e-02
-5.493777990341186523e-02
-6.014383211731910706e-02
8.233482949435710907e-03
-6.606635451316833496e-02
-5.402833223342895508e-02
6.239886395633220673e-03
4.936888441443443298e-02
-3.507069125771522522e-02
-2.680833637714385986e-02
1.348694134503602982e-02
-7.474953681230545044e-02
-3.480080515146255493e-02
-1.779491640627384186e-02
-5.665250867605209351e-02
-4.501274600625038147e-02
3.785462304949760437e-02
-1.714278478175401688e-03
-6.294734776020050049e-02
1.614191941916942596e-02
-1.136740390211343765e-02
5.352136492729187012e-02
-2.328699827194213867e-02
5.114166066050529480e-02
5.021880567073822021e-02
1.999319344758987427e-02
-4.530362412333488464e-02
2.361994236707687378e-02
-8.954443037509918213e-03
-1.790178008377552032e-02
6.714811921119689941e-02
9.356272406876087189e-03
6.330987066030502319e-02
-3.195146098732948303e-02
-1.471809111535549164e-02
-2.532484754920005798e-02
5.914399027824401855e-02
5.869906768202781677e-02
5.554191023111343384e-02
7.055978477001190186e-02
-3.578911721706390381e-02
5.534764751791954041e-02
-3.644121810793876648e-03
4.668083414435386658e-02
1.065467600710690022e-03
-5.197983235120773315e-02
1.348531153053045273e-02
-3.542558103799819946e-02
-3.568206727504730225e-02
-7.557154446840286255e-02
-5.105214659124612808e-03
-6.812482606619596481e-04
-4.403113201260566711e-02
-6.811151653528213501e-02
-6.624203920364379883e-02
-4.816797748208045959e-02
-6.216637045145034790e-02
-2.151958644390106201e-02
5.905559659004211426e-02
-2.230818010866641998e-02
2.621101588010787964e-02
-2.259478159248828888e-02
-2.624529972672462463e-02
6.705498695373535156e-02
3.524794429540634155e-02
1.205853372812271118e-02
-5.311973392963409424e-02
1.786896958947181702e-02
3.849132731556892395e-02
8.048133552074432373e-02
4.035328980535268784e-03
-4.890733957290649414e-02
-6.747174263000488281e-02
4.408304393291473389e-02
3.820640966296195984e-02
1.612215675413608551e-02
-5.499750003218650818e-02
-3.130359947681427002e-02
6.015828810632228851e-03
-6.285671889781951904e-02
5.874043796211481094e-03
5.600504949688911438e-02
1.415135897696018219e-02
-3.565800935029983521e-02
-2.124109119176864624e-02
-3.592128679156303406e-02
2.139801532030105591e-02
3.116837330162525177e-02
7.146348245441913605e-03
5.935603007674217224e-02
4.740395024418830872e-02
4.647146537899971008e-02
-4.837021604180335999e-02
-5.740030109882354736e-02
-2.239526715129613876e-03
3.444824833422899246e-03
-5.816645920276641846e-02
3.811682388186454773e-02
6.813956797122955322e-02
4.490140080451965332e-02
-3.238476067781448364e-02
-4.106295853853225708e-02
1.420698780566453934e-02
-2.897872775793075562e-02
-6.002038251608610153e-03
-4.463599249720573425e-02
6.510845385491847992e-03
-4.300727322697639465e-02
-4.909152910113334656e-02
-4.832071065902709961e-02
-3.387250006198883057e-02
-3.283906728029251099e-02
-6.481653079390525818e-03
1.356547232717275620e-02
-3.081630542874336243e-02
4.700209479779005051e-03
2.594379708170890808e-02
5.996953696012496948e-03
-4.250679910182952881e-02
2.573656663298606873e-02
1.834346167743206024e-02
-2.540696784853935242e-02
6.612055003643035889e-02
1.581888645887374878e-02
4.763821512460708618e-02
1.147790695540606976e-03
2.397712878882884979e-02
-4.456410929560661316e-02
-5.786234885454177856e-02
3.955039754509925842e-02
1.764110289514064789e-02
-9.351871558465063572e-04
5.715562403202056885e-02
-7.519628852605819702e-02
9.635876864194869995e-03
2.117856591939926147e-02
2.964914217591285706e-02
5.131351947784423828e-02
-4.012842476367950439e-02
-6.003235280513763428e-02
-4.541887715458869934e-02
1.990532875061035156e-02
-4.802686721086502075e-02
-5.291948840022087097e-02
-4.753781855106353760e-02
2.542413584887981415e-02
4.469170793890953064e-02
5.624108761548995972e-02
-3.702735528349876404e-02
4.885540157556533813e-02
-3.832139819860458374e-02
-2.146978862583637238e-02
2.107311040163040161e-02
3.534154593944549561e-02
-8.657515048980712891e-03
-4.099149722605943680e-03
6.813555373810231686e-04
-3.817750886082649231e-02
-2.647563070058822632e-02
-2.417983300983905792e-02
2.014794619753956795e-03
-4.914537072181701660e-02
6.858237087726593018e-03
-5.011196434497833252e-02
-1.645725406706333160e-02
6.253904849290847778e-02
-4.733837768435478210e-02
-9.627069230191409588e-04
4.894377291202545166e-02
-1.614362932741641998e-02
7.377760112285614014e-02
4.118144139647483826e-02
1.269676070660352707e-02
3.574823215603828430e-02
9.036876261234283447e-03
-9.988473728299140930e-03
7.992903143167495728e-02
1.722769066691398621e-02
3.737970069050788879e-02
2.143200021237134933e-03
-4.716780036687850952e-02
6.476073712110519409e-02
2.465563267469406128e-02
3.991661593317985535e-02
1.802943181246519089e-03
4.807108640670776367e-02
7.123676687479019165e-02
-1.128949597477912903e-02
-4.858330264687538147e-02
-4.286691546440124512e-02
-6.794080138206481934e-02
-2.553749457001686096e-02
-1.679714769124984741e-02
7.401090860366821289e-02
5.785818770527839661e-02
3.763343021273612976e-02
-2.040950953960418701e-02
3.598314151167869568e-02
-4.591584950685501099e-02
3.446700796484947205e-02
-9.733605198562145233e-03
6.531199812889099121e-02
1.106243859976530075e-02
-5.587641522288322449e-02
-1.635559275746345520e-02
-1.294870860874652863e-02
7.285720109939575195e-02
4.237209260463714600e-02
-1.005155965685844421e-02
1.750848256051540375e-02
-2.695968747138977051e-02
1.017570123076438904e-02
-4.284188151359558105e-02
2.090443111956119537e-02
7.294210046529769897e-02
-1.826389320194721222e-02
3.121341019868850708e-02
-2.968343533575534821e-02
3.036963753402233124e-02
3.915925696492195129e-02
-9.956452995538711548e-03
-1.486071292310953140e-02
-5.613409355282783508e-02
5.197670683264732361e-02
-6.494681537151336670e-02
-2.303220145404338837e-02
3.750442713499069214e-02
3.431167453527450562e-02
2.199399657547473907e-02
1.352175883948802948e-02
1.187714375555515289e-02
4.803110845386981964e-03
-1.144256256520748138e-02
-2.234010584652423859e-02
-2.761375904083251953e-02
-4.967311397194862366e-02
-3.751291334629058838e-02
7.330478727817535400e-02
-1.534538529813289642e-02
-3.925579041242599487e-02
6.098845228552818298e-02
-2.677200920879840851e-02
-4.851287603378295898e-02
-6.303501129150390625e-02
-2.215311676263809204e-02
5.947243422269821167e-03
-2.594514004886150360e-02
5.122946947813034058e-02
2.849869802594184875e-02
-3.447746858000755310e-02
2.355334814637899399e-03
3.426839411258697510e-02
-2.287798188626766205e-02
1.565408706665039062e-02
-1.136488746851682663e-02
-1.566164009273052216e-02
-1.658256724476814270e-02
-6.054710969328880310e-02
1.140569802373647690e-02
-5.708851292729377747e-02
3.869565948843955994e-02
1.309976447373628616e-03
-3.329320624470710754e-02
-3.697453066706657410e-02
2.289416082203388214e-02
4.741420224308967590e-02
-3.515084087848663330e-02
3.123621270060539246e-02
6.394252181053161621e-02
4.077224433422088623e-02
6.936068832874298096e-02
-4.379918426275253296e-02
-3.230499476194381714e-02
-1.521648000925779343e-02
-1.530385296791791916e-02
-2.130514755845069885e-02
4.180546477437019348e-02
2.921979315578937531e-02
-7.638658583164215088e-02
-4.197655245661735535e-03
-5.619365721940994263e-02
8.271031081676483154e-02
-1.727326214313507080e-02
-2.210942097008228302e-02
2.242806740105152130e-02
6.213830038905143738e-02
9.241659194231033325e-03
-1.715814881026744843e-02
-9.546444751322269440e-03
1.485039386898279190e-02
9.667082689702510834e-03
4.770502820611000061e-02
-4.960423707962036133e-02
-2.304212749004364014e-02
-3.859100863337516785e-02
-3.838599473237991333e-02
-1.641522278077900410e-03
-2.296367101371288300e-02
-1.493114698678255081e-02
-2.488211728632450104e-02
1.461419928818941116e-02
-2.424122206866741180e-02
-2.319770492613315582e-02
8.883181028068065643e-03
6.438305974006652832e-02
2.727722562849521637e-02
-8.922578766942024231e-03
-3.579638525843620300e-02
2.095408504828810692e-03
1.105007156729698181e-02
3.388041863217949867e-03
1.429914496839046478e-02
-4.723373427987098694e-02
-1.492550130933523178e-02
4.036395624279975891e-02
5.269339308142662048e-02
2.747070603072643280e-02
3.800838254392147064e-03
-5.699839908629655838e-03
6.405451893806457520e-02
-4.238566011190414429e-02
-3.667362406849861145e-02
-4.135224595665931702e-02
-4.565587639808654785e-02
-2.242698147892951965e-02
-1.207434479147195816e-02
-4.551910609006881714e-02
5.684487149119377136e-02
1.755168661475181580e-03
4.258877411484718323e-02
4.747441038489341736e-02
5.841654539108276367e-02
1.180975325405597687e-02
-1.829703152179718018e-02
-1.507797464728355408e-02
-4.666598141193389893e-02
-8.566946722567081451e-03
-4.707084223628044128e-02
-2.640632539987564087e-02
1.527688279747962952e-02
4.801421985030174255e-02
3.568823635578155518e-02
-6.501546502113342285e-02
3.958531096577644348e-02
-8.625691756606101990e-03
-6.333879381418228149e-02
-6.012840569019317627e-02
3.272048011422157288e-02
2.851795777678489685e-02
1.358187478035688400e-02
-1.129886601120233536e-02
-3.666014224290847778e-02
-2.417426928877830505e-02
-4.129101708531379700e-02
1.040390972048044205e-02
2.784416638314723969e-02
5.106375366449356079e-02
1.938523910939693451e-02
3.673624247312545776e-02
3.188375011086463928e-02
3.862832859158515930e-02
4.754423350095748901e-02
5.881543457508087158e-02
3.223476558923721313e-02
8.085655979812145233e-03
-5.318887531757354736e-02
-5.971695110201835632e-02
-1.867003180086612701e-02
6.431670486927032471e-02
4.246671870350837708e-02
-2.942486607935279608e-04
7.179873436689376831e-02
3.041383996605873108e-02
4.999323189258575439e-02
-1.043662801384925842e-02
5.005291849374771118e-02
2.263285219669342041e-02
-1.052565686404705048e-02
-6.339427083730697632e-02
-6.398651748895645142e-02
7.057488709688186646e-02
-6.373878568410873413e-02
-3.108520619571208954e-02
-2.294092439115047455e-02
-5.991969630122184753e-02
6.688921898603439331e-02
-1.485444419085979462e-02
3.517782315611839294e-02
1.146122347563505173e-02
5.075036361813545227e-02
-6.524324417114257812e-02
2.361223101615905762e-02
2.721778862178325653e-02
4.418230615556240082e-03
1.371243968605995178e-02
-2.207491546869277954e-02
3.004150697961449623e-03
3.699931874871253967e-02
4.002126678824424744e-02
-9.371441788971424103e-03
-3.644954413175582886e-03
8.752205176278948784e-04
-5.239543691277503967e-02
-4.374742880463600159e-02
5.533166974782943726e-02
7.995308190584182739e-02
-1.959275826811790466e-02
6.169741973280906677e-02
3.868502378463745117e-02
2.666676789522171021e-02
4.502317309379577637e-02
1.255844254046678543e-03
-7.204506080597639084e-03
1.728023029863834381e-02
-2.471813932061195374e-02
3.586938232183456421e-02
6.127023324370384216e-02
-4.098081216216087341e-02
5.618821084499359131e-02
1.717442087829113007e-02
4.376344382762908936e-02
4.275556653738021851e-02
-6.303470581769943237e-02
-1.271289866417646408e-02
1.296391128562390804e-03
1.901905424892902374e-02
4.466647282242774963e-02
5.138523504137992859e-02
-4.629240557551383972e-02
-7.231943774968385696e-03
2.213758975267410278e-02
-4.103520140051841736e-02
-2.662552520632743835e-02
-3.529848530888557434e-02
-4.598915576934814453e-02
1.735210418701171875e-02
1.333478000015020370e-02
4.132590815424919128e-02
-1.488545094616711140e-03
-3.580531338229775429e-03
-4.625080898404121399e-02
5.637654569000005722e-03
4.224031791090965271e-02
3.576369956135749817e-02
-3.011922165751457214e-02
-4.830380901694297791e-02
-6.290230900049209595e-02
-5.187143385410308838e-02
-3.278941288590431213e-02
-2.408887259662151337e-02
1.900480501353740692e-02
1.948899030685424805e-02
7.431925274431705475e-03
4.035766050219535828e-02
4.271199554204940796e-02
-1.993272081017494202e-02
3.772143274545669556e-02
-6.331908702850341797e-02
-5.350455641746520996e-02
5.881549417972564697e-02
-2.885408326983451843e-02
5.501907318830490112e-02
-7.880716584622859955e-03
-7.328104227781295776e-02
-6.874224543571472168e-02
-7.120378315448760986e-02
-3.647026792168617249e-02
-3.928001224994659424e-02
-4.094724357128143311e-02
-2.812243998050689697e-02
-2.808915637433528900e-02
2.748393267393112183e-02
-7.064756006002426147e-02
2.553590759634971619e-02
-3.329906240105628967e-02
6.845737993717193604e-02
-4.730318672955036163e-03
4.981032758951187134e-02
-4.392184317111968994e-03
5.746754631400108337e-02
7.720524072647094727e-02
1.210082788020372391e-02
4.227105528116226196e-02
5.542117357254028320e-02
-6.995557993650436401e-02
-5.671018734574317932e-02
5.345334485173225403e-02
-8.389105089008808136e-03
-6.819119304418563843e-02
5.135694518685340881e-02
8.249766193330287933e-03
3.003329411149024963e-02
6.179454177618026733e-02
4.797609522938728333e-03
6.264470517635345459e-03
3.650573641061782837e-02
5.232352018356323242e-02
-2.100191451609134674e-02
6.630787253379821777e-02
2.629873342812061310e-02
4.502325132489204407e-02
-1.163514051586389542e-02
7.398736476898193359e-02
1.974656991660594940e-02
6.806670129299163818e-02
2.402919344604015350e-02
3.182329609990119934e-02
1.159048639237880707e-02
-3.860078286379575729e-03
-5.534610897302627563e-02
6.537522375583648682e-02
-5.519483983516693115e-02
6.965751759707927704e-03
-1.471883617341518402e-02
-2.100916206836700439e-02
-3.875608369708061218e-02
-5.277967825531959534e-02
-5.093063041567802429e-02
4.351826012134552002e-02
-3.440894931554794312e-02
6.626833230257034302e-02
4.753814637660980225e-02
4.410096257925033569e-02
-3.971137478947639465e-02
2.424612175673246384e-03
-5.914638563990592957e-02
-2.849589334800839424e-03
4.641988873481750488e-02
1.079902518540620804e-02
3.160520270466804504e-02
3.058314695954322815e-02
2.495014667510986328e-02
-4.796824231743812561e-02
-8.764952421188354492e-03
-3.878195583820343018e-02
1.052826177328824997e-02
3.376842476427555084e-03
-4.846803471446037292e-02
3.481918200850486755e-02
5.379318073391914368e-02
6.174019724130630493e-02
2.058588713407516479e-02
-3.829286247491836548e-02
4.467802867293357849e-02
3.203271888196468353e-03
1.996819488704204559e-02
-2.555771544575691223e-02
5.334744974970817566e-02
-2.807684615254402161e-02
-5.468300729990005493e-02
-2.190512791275978088e-02
4.763945005834102631e-03
2.075476199388504028e-02
2.000435441732406616e-02
2.103091217577457428e-02
-5.829475820064544678e-02
6.457711104303598404e-03
-2.983970381319522858e-02
-3.176780045032501221e-02
2.192853018641471863e-02
6.110626086592674255e-02
-4.301192983984947205e-02
-1.991553418338298798e-02
-9.916748851537704468e-03
1.940816827118396759e-02
4.038845747709274292e-02
1.405276823788881302e-03
1.593646034598350525e-02
1.686163805425167084e-02
-5.634144693613052368e-02
7.667979691177606583e-03
-3.838939219713211060e-02
3.324369713664054871e-02
4.464864730834960938e-02
-1.589384675025939941e-02
2.111702458932995796e-03
6.212631985545158386e-02
5.523134022951126099e-03
5.959967523813247681e-02
-2.126763202250003815e-02
3.370659798383712769e-02
2.112353220582008362e-02
8.637105114758014679e-03
4.418922960758209229e-02
-3.036758303642272949e-02
2.441011136397719383e-03
1.034530811011791229e-02
2.627508901059627533e-02
-4.068231210112571716e-03
-6.342274695634841919e-02
-3.551352769136428833e-02
7.406457513570785522e-02
-3.924179077148437500e-02
4.883442074060440063e-02
5.182085186243057251e-02
-5.841848999261856079e-02
1.739472895860671997e-02
-2.091699279844760895e-02
-4.723689332604408264e-02
-6.064267084002494812e-02
3.802462667226791382e-02
-3.535189852118492126e-02
5.683863162994384766e-02
-3.321205824613571167e-02
2.634911611676216125e-02
-4.681225493550300598e-02
-3.053898364305496216e-02
-3.172422200441360474e-02
6.291017681360244751e-02
-4.436758533120155334e-02
1.578892767429351807e-02
4.515730589628219604e-02
4.285995289683341980e-02
2.709532156586647034e-02
4.156464710831642151e-03
-1.513665728271007538e-02
-4.458499699831008911e-02
4.437736049294471741e-02
-4.583370685577392578e-02
-2.310513332486152649e-02
6.577472388744354248e-02
-3.328474611043930054e-02
-4.227422177791595459e-02
1.919162645936012268e-02
7.277125865221023560e-02
-2.193876076489686966e-03
6.661211699247360229e-02
-3.720116615295410156e-02
7.389084994792938232e-02
5.921044200658798218e-02
-3.955727815628051758e-02
2.228320203721523285e-02
-2.838003821671009064e-02
-2.503381576389074326e-03
-1.605498790740966797e-02
6.453456729650497437e-02
1.020046882331371307e-03
2.643774636089801788e-02
6.677739322185516357e-02
6.403246521949768066e-02
6.257349252700805664e-02
7.352708373218774796e-03
-6.363625824451446533e-02
1.833509840071201324e-02
-6.041414663195610046e-02
4.103896394371986389e-02
-3.396154195070266724e-02
1.709811761975288391e-02
4.273550584912300110e-02
5.138584598898887634e-02
2.338523231446743011e-02
6.570419669151306152e-02
-2.501919679343700409e-02
3.161537274718284607e-02
1.059151440858840942e-02
6.865625083446502686e-02
-2.204100042581558228e-02
5.570980533957481384e-02
1.640450768172740936e-02
1.450760383158922195e-02
4.016857966780662537e-02
1.461840327829122543e-02
4.292037803679704666e-03
-3.869058098644018173e-03
2.547146752476692200e-03
-2.150663360953330994e-02
2.963114902377128601e-02
6.724517326802015305e-03
-6.403347104787826538e-02
4.912305157631635666e-03
-7.279882580041885376e-02
3.381636366248130798e-02
3.522380953654646873e-03
-2.342711761593818665e-02
4.247276484966278076e-02
-7.185644656419754028e-02
-2.927115932106971741e-02
-2.172926068305969238e-02
4.384975880384445190e-02
6.033561192452907562e-03
-6.856920570135116577e-02
-5.281650647521018982e-02
-1.360511593520641327e-02
-1.175740908365696669e-04
7.017630338668823242e-02
2.504507265985012054e-02
-5.331561714410781860e-02
1.874285005033016205e-02
3.644377365708351135e-02
2.450547367334365845e-02
-2.616879343986511230e-02
-3.759035840630531311e-02
1.781333051621913910e-02
5.641271546483039856e-02
-4.417859017848968506e-02
-3.074433468282222748e-02
1.532749738544225693e-02
5.061100795865058899e-02
6.155066564679145813e-02
-1.094677951186895370e-02
-2.334772795438766479e-02
-4.250761121511459351e-02
-1.867457292973995209e-02
4.291404783725738525e-02
5.325848609209060669e-02
-6.901005655527114868e-02
1.098088920116424561e-02
-2.855888567864894867e-02
6.389091163873672485e-02
7.154487818479537964e-02
4.407011345028877258e-02
1.759581826627254486e-02
-1.157647091895341873e-02
-2.438468486070632935e-02
4.349600523710250854e-02
-8.102876134216785431e-03
-5.678971484303474426e-02
5.901698954403400421e-03
8.552324026823043823e-03
3.339220210909843445e-02
1.228149048984050751e-02
5.174255371093750000e-02
-5.614154785871505737e-02
-4.584919288754463196e-02
-1.120510604232549667e-02
6.694874167442321777e-02
7.161802798509597778e-02
5.891625583171844482e-02
1.540765911340713501e-02
-1.270606555044651031e-02
2.090609818696975708e-02
4.572017490863800049e-02
-5.056213214993476868e-02
1.170991454273462296e-02
-1.563819684088230133e-02
2.060943283140659332e-02
-9.259710088372230530e-03
8.093268424272537231e-02
4.695833846926689148e-02
1.376207452267408371e-03
-6.436893343925476074e-02
-6.261634826660156250e-02
4.844803363084793091e-02
-8.354446850717067719e-03
3.388159349560737610e-02
3.844405757263302803e-03
-4.335100576281547546e-02
-2.336640842258930206e-02
-9.074584580957889557e-03
5.067417025566101074e-02
-1.412422955036163330e-02
-4.252497106790542603e-02
-7.170005887746810913e-02
4.425911605358123779e-02
-6.585021317005157471e-02
5.753462761640548706e-02
4.227869585156440735e-02
5.764140561223030090e-02
-3.054547682404518127e-02
-4.778668656945228577e-02
-2.743787504732608795e-02
3.882203251123428345e-02
5.087159201502799988e-02
-5.025877151638269424e-03
2.574811503291130066e-02
-6.264795362949371338e-02
3.291631489992141724e-02
-1.002039480954408646e-02
-3.169424459338188171e-02
-7.390915602445602417e-02
-6.656153500080108643e-02
5.847401544451713562e-02
-2.535228617489337921e-02
-2.254866622388362885e-02
-3.168519819155335426e-03
5.419405549764633179e-02
4.494259506464004517e-02
1.423324644565582275e-02
3.636986715719103813e-03
-1.573491096496582031e-02
2.181844785809516907e-02
1.271850895136594772e-03
3.347452729940414429e-02
-5.375759303569793701e-02
4.569912329316139221e-02
-1.876311376690864563e-02
4.340770840644836426e-02
4.722124710679054260e-02
4.658317193388938904e-03
3.788410499691963196e-02
-1.567150466144084930e-02
-6.013364344835281372e-02
4.260629042983055115e-02
4.569770023226737976e-02
6.363428384065628052e-02
8.219334296882152557e-03
-5.782605707645416260e-02
-5.913936346769332886e-02
-2.593685314059257507e-02
1.478977873921394348e-02
6.063552200794219971e-02
-5.051564425230026245e-02
-2.494947798550128937e-02
2.460479363799095154e-02
-5.919816344976425171e-02
-3.290614986326545477e-04
-5.903501436114311218e-02
5.287147592753171921e-03
-4.056638106703758240e-02
-6.422439217567443848e-02
3.978070616722106934e-02
2.416518516838550568e-02
6.974147260189056396e-02
-3.838188201189041138e-02
-5.038182437419891357e-02
-2.231980673968791962e-02
5.101627483963966370e-02
-1.972016878426074982e-02
8.420422673225402832e-03
2.875768812373280525e-03
5.552819743752479553e-02
5.299707874655723572e-02
-6.365761160850524902e-02
7.852456183172762394e-04
-4.482717812061309814e-02
6.335780024528503418e-02
3.153996914625167847e-02
-1.266987062990665436e-02
4.237255081534385681e-02
2.467272244393825531e-02
-6.609511375427246094e-02
-5.889520049095153809e-03
-3.315892443060874939e-02
1.741423644125461578e-02
4.016746953129768372e-02
-4.320482909679412842e-02
3.904115781188011169e-02
5.855191871523857117e-02
-6.596831232309341431e-02
2.779350616037845612e-02
5.222833901643753052e-02
-2.469771541655063629e-03
-5.935987085103988647e-02
-5.222273990511894226e-02
-5.640097334980964661e-02
6.226982176303863525e-02
-4.894658923149108887e-02
-4.322898015379905701e-02
5.176944658160209656e-02
7.469989359378814697e-02
5.944154039025306702e-02
6.580016575753688812e-03
-2.622216381132602692e-02
6.843724288046360016e-03
-3.055873326957225800e-02
1.565743610262870789e-02
2.067524194717407227e-02
7.227057963609695435e-02
2.305174432694911957e-02
-5.643406882882118225e-02
-3.983348980545997620e-02
-4.563464969396591187e-02
7.472740858793258667e-02
7.738058269023895264e-02
-2.605075389146804810e-02
-4.928989708423614502e-02
-8.581339381635189056e-03
-1.379230408929288387e-03
2.650112845003604889e-02
-8.099029771983623505e-03
9.601644240319728851e-03
1.951257325708866119e-02
3.795107477344572544e-05
3.996137157082557678e-02
3.811421245336532593e-02
2.239202894270420074e-02
6.710752844810485840e-02
5.941519513726234436e-02
4.781957715749740601e-02
-2.300136722624301910e-02
3.670707717537879944e-02
-5.470927804708480835e-02
2.656801836565136909e-03
-3.510978445410728455e-02
2.622148394584655762e-02
2.535610087215900421e-02
-6.181111186742782593e-02
2.292364835739135742e-02
5.944049358367919922e-02
4.904780909419059753e-02
-4.281267896294593811e-02
6.982561945915222168e-02
-7.516181468963623047e-02
-1.701854169368743896e-02
-5.423917248845100403e-02
7.610005140304565430e-02
2.314658463001251221e-02
1.991067826747894287e-02
5.161571875214576721e-02
7.311384379863739014e-02
1.618910580873489380e-02
-1.633463427424430847e-02
-1.156339980661869049e-02
-3.875807300209999084e-02
-1.232682354748249054e-02
1.710819453001022339e-02
3.753092512488365173e-02
2.885245718061923981e-02
1.779768354026600718e-05
-1.721274666488170624e-02
-6.784109026193618774e-02
2.688613906502723694e-02
5.749035626649856567e-03
6.609962135553359985e-02
-1.511289179325103760e-02
-1.156119257211685181e-02
-5.236085504293441772e-02
4.310414940118789673e-02
6.418040394783020020e-02
5.880778655409812927e-02
-7.361019402742385864e-02
1.741308532655239105e-02
7.442387193441390991e-02
7.048715651035308838e-02
-2.070419676601886749e-02
4.793767258524894714e-02
-4.704934731125831604e-02
-5.486464500427246094e-02
9.365857578814029694e-03
-1.164582441560924053e-03
-6.299100816249847412e-02
4.449111968278884888e-02
6.041595712304115295e-02
3.511557355523109436e-02
-1.752267777919769287e-02
6.562513113021850586e-02
1.196746528148651123e-02
3.172298148274421692e-02
7.124119251966476440e-02
5.599428340792655945e-02
6.627233326435089111e-02
6.256232410669326782e-02
3.203861042857170105e-02
-7.072939723730087280e-02
2.647377923130989075e-02
1.620948687195777893e-02
-1.304832380264997482e-02
4.669602960348129272e-02
1.986901648342609406e-02
2.851765416562557220e-02
-6.157682463526725769e-02
-6.017696857452392578e-02
-4.568910598754882812e-02
-1.781489513814449310e-02
3.459423407912254333e-02
-9.097926318645477295e-03
4.125272110104560852e-02
-3.808533027768135071e-02
2.047285437583923340e-02
3.771366551518440247e-02
-6.654263287782669067e-02
2.485030889511108398e-02
5.880998820066452026e-02
-3.893629088997840881e-02
2.017294988036155701e-02
-3.304826468229293823e-02
-3.314625099301338196e-02
4.183849692344665527e-02
-5.777436494827270508e-02
3.331950400024652481e-03
-6.399483978748321533e-02
-3.994405269622802734e-02
1.707154698669910431e-02
2.787254564464092255e-02
6.780739640817046165e-04
-2.249297685921192169e-02
5.675051733851432800e-02
2.323486376553773880e-03
2.787341829389333725e-03
-2.327842637896537781e-02
3.210542351007461548e-02
-2.782483585178852081e-02
-2.988748019561171532e-03
-8.818075060844421387e-03
-3.757807426154613495e-03
-3.399435803294181824e-02
5.132960528135299683e-02
-3.909654915332794189e-02
2.600717917084693909e-02
-5.729147791862487793e-02
-3.761151432991027832e-02
5.716355517506599426e-02
-1.210566982626914978e-02
5.463641881942749023e-02
-2.712449524551630020e-03
7.335201371461153030e-03
-4.298373684287071228e-02
3.936723619699478149e-02
-5.346513912081718445e-02
7.653083652257919312e-02
-5.303940270096063614e-03
2.510040067136287689e-02
-4.403831064701080322e-02
4.321545735001564026e-02
3.723809868097305298e-02
5.951060447841882706e-03
3.183390572667121887e-02
-5.488736182451248169e-02
-6.036695092916488647e-02
3.005865216255187988e-02
1.551177166402339935e-02
-4.370160028338432312e-02
4.976916313171386719e-02
-4.824908450245857239e-02
1.048761699348688126e-02
-3.100278088822960854e-03
7.614332437515258789e-02
-3.188023809343576431e-03
-3.169259801506996155e-02
-5.007508769631385803e-02
1.581465767230838537e-04
-3.973741829395294189e-02
-1.485278084874153137e-02
-9.364509955048561096e-03
-4.466902464628219604e-03
6.699625402688980103e-02
7.287789136171340942e-03
-3.031374327838420868e-02
-1.323839928954839706e-02
3.607076033949851990e-02
-6.075182557106018066e-02
4.536869004368782043e-02
3.575846180319786072e-02
7.466983981430530548e-03
-4.408564418554306030e-02
-3.881249949336051941e-02
-3.255165065638720989e-04
-1.367870345711708069e-02
1.011407817713916302e-03
6.793928891420364380e-02
-1.126539800316095352e-02
-3.784787654876708984e-02
5.620256066322326660e-02
2.933451347053050995e-02
3.256379067897796631e-02
-2.082293480634689331e-02
3.041791357100009918e-02
-6.559164822101593018e-02
6.653500348329544067e-02
5.004011094570159912e-02
5.871362239122390747e-02
-2.584016136825084686e-02
-3.855576366186141968e-02
-3.741089999675750732e-02
5.503342673182487488e-02
4.555511474609375000e-02
5.490167066454887390e-02
8.128514885902404785e-02
-6.262896955013275146e-02
1.517363172024488449e-02
1.067111361771821976e-02
3.407536447048187256e-02
8.695527911186218262e-03
1.240646559745073318e-02
-6.069833412766456604e-02
-5.349187925457954407e-02
6.577632576227188110e-02
3.943053632974624634e-02
6.319208443164825439e-02
-2.194970846176147461e-02
5.704429373145103455e-02
6.340440362691879272e-02
-5.378048866987228394e-02
-1.114654447883367538e-02
-2.136910893023014069e-02
5.988075211644172668e-02
-3.243868798017501831e-02
1.113979518413543701e-02
-1.045761164277791977e-04
-6.320527195930480957e-02
6.850787997245788574e-02
-3.433001413941383362e-02
5.706365779042243958e-02
3.842617943882942200e-02
5.766011029481887817e-02
2.307321131229400635e-02
6.814134120941162109e-02
3.801115974783897400e-02
1.662129536271095276e-02
