-2.709841588512063026e-03
-1.315801218152046204e-02
-3.675902029499411583e-03
-1.039729546755552292e-02
-5.035860813222825527e-04
-8.459284901618957520e-03
-9.559521568007767200e-04
-1.688888855278491974e-02
-5.895388312637805939e-03
-1.370042329654097557e-03
-1.089726341888308525e-03
1.002033799886703491e-02
1.739846891723573208e-03
-7.692422252148389816e-03
-2.572160447016358376e-03
4.553676582872867584e-03
-1.104527851566672325e-03
6.724291015416383743e-03
-9.212616831064224243e-03
-2.935091615654528141e-04
-2.740917028859257698e-03
-3.819969133473932743e-04
-5.394498584792017937e-04
-5.185081157833337784e-03
1.784023945219814777e-03
-9.739294764585793018e-04
3.200110280886292458e-03
-2.140319207683205605e-03
-5.046048900112509727e-04
-9.789568139240145683e-04
-5.868661683052778244e-03
-1.963754417374730110e-03
-1.334910048171877861e-03
-2.904772525653243065e-03
-7.902557845227420330e-04
1.395003404468297958e-03
-3.084755269810557365e-03
3.891851752996444702e-03
1.467266120016574860e-03
-9.253912867279723287e-05
2.081946702674031258e-03
1.766195171512663364e-03
-2.713771071285009384e-03
-2.070170128718018532e-03
1.223110826686024666e-03
-1.191621879115700722e-03
-2.648334950208663940e-03
-8.729347027838230133e-03
-6.328510935418307781e-04
2.649831352755427361e-03
-4.985852167010307312e-03
3.432495053857564926e-03
3.245182335376739502e-03
8.964809821918606758e-04
1.516937091946601868e-02
3.284758888185024261e-03
3.624466946348547935e-03
-4.613393917679786682e-03
4.938095225952565670e-04
-1.799383782781660557e-03
-4.030859097838401794e-03
-1.872795633971691132e-03
-9.473280981183052063e-03
-3.394026774913072586e-03
-5.315056070685386658e-03
-4.323547706007957458e-03
-1.592873409390449524e-02
-2.217365661635994911e-03
-2.877086866647005081e-03
1.045265467837452888e-03
1.122295157983899117e-03
1.973089063540101051e-03
2.515838248655200005e-03
2.983931917697191238e-03
3.674340434372425079e-03
9.746958385221660137e-04
-6.433381233364343643e-03
-3.131419187411665916e-03
-4.475000780075788498e-03
1.906685181893408298e-03
-5.508479196578264236e-03
-1.699607237242162228e-03
2.340478589758276939e-03
-2.593366196379065514e-03
-4.342000000178813934e-03
4.869755939580500126e-04
-5.091975908726453781e-03
-5.282726604491472244e-03
7.812724797986447811e-04
-2.772055158857256174e-04
-5.486204754561185837e-03
-1.140204723924398422e-02
4.976401105523109436e-04
3.444960457272827625e-04
1.088532735593616962e-03
-1.652437495067715645e-03
-1.912995794555172324e-04
-4.758005961775779724e-03
-2.423171186819672585e-03
-3.334689885377883911e-03
-6.736356299370527267e-03
9.582379716448485851e-04
-1.532916259020566940e-02
-1.098691136576235294e-03
-8.345632813870906830e-03
-1.213547890074551105e-03
1.323225005762651563e-04
-2.866788767278194427e-03
-5.259729921817779541e-03
8.940055267885327339e-04
-1.056363992393016815e-02
-9.236509911715984344e-03
3.369493875652551651e-03
1.440755673684179783e-03
4.449075087904930115e-03
-9.558422490954399109e-03
-6.165215745568275452e-03
-2.762929070740938187e-03
2.092702779918909073e-03
8.637883700430393219e-03
-4.268516320735216141e-03
-5.078281741589307785e-03
-7.985794916749000549e-03
-6.417422991944476962e-05
-2.501824637874960899e-03
-8.433799375779926777e-04
-1.466889120638370514e-02
5.946995224803686142e-03
8.624038309790194035e-04
-1.069531310349702835e-03
-1.129393000155687332e-03
4.326729103922843933e-03
-6.237852852791547775e-03
-7.773342076689004898e-04
-6.977792363613843918e-03
1.704573165625333786e-03
-1.048004720360040665e-03
2.487125340849161148e-03
-8.880375884473323822e-03
-6.341044325381517410e-03
-3.142928006127476692e-03
9.351826156489551067e-04
1.751132775098085403e-03
1.852771150879561901e-03
-4.154303576797246933e-03
-1.939631300047039986e-03
-4.916170728392899036e-04
-2.898395527154207230e-03
6.215992616489529610e-04
1.961031230166554451e-03
-3.271860070526599884e-03
-1.048946069204248488e-04
1.092202495783567429e-03
-1.845641294494271278e-03
-8.607166819274425507e-05
4.094429023098200560e-04
-6.322855129837989807e-03
-5.082370247691869736e-03
-4.752706736326217651e-04
-3.846090054139494896e-03
-1.017302740365266800e-03
4.609356983564794064e-04
1.053098822012543678e-03
-1.249628694495186210e-04
-1.324771583313122392e-04
-1.568165724165737629e-03
-2.764777746051549911e-03
-1.313169370405375957e-03
-5.860600154846906662e-03
-8.164171129465103149e-03
-2.995831659063696861e-03
1.078131663234671578e-05
5.604509729892015457e-03
-6.762798875570297241e-03
-2.988135907799005508e-03
3.950773680116981268e-04
-3.562276717275381088e-03
1.419786945916712284e-03
2.656021853908896446e-03
-4.030677373521029949e-04
-1.081886235624551773e-02
-4.797896835952997208e-03
5.582345766015350819e-04
-1.013207063078880310e-02
-7.991213351488113403e-03
-3.769615432247519493e-04
-8.715107105672359467e-03
2.877399092540144920e-03
-2.088922308757901192e-03
-1.529907924123108387e-03
1.080732909031212330e-03
-4.101162776350975037e-04
-1.034829951822757721e-02
4.261836409568786621e-03
6.231814040802419186e-04
-2.482781419530510902e-03
-1.134733296930789948e-02
-1.251668389886617661e-02
3.394973231479525566e-03
3.216032637283205986e-03
-2.098634140565991402e-03
7.551821880042552948e-03
-4.495314322412014008e-03
-8.593763923272490501e-04
-6.219903472810983658e-03
-1.198568497784435749e-03
3.089295467361807823e-03
1.843932550400495529e-04
-5.325905513018369675e-03
-3.884006524458527565e-03
-6.356611265800893307e-04
-2.542463189456611872e-04
5.521666258573532104e-03
-1.981090940535068512e-02
4.363123793154954910e-03
4.771880339831113815e-04
1.571511034853756428e-03
-1.538296462967991829e-03
-6.010712124407291412e-03
3.020835341885685921e-03
8.171630324795842171e-04
-4.081896506249904633e-03
1.265120413154363632e-02
4.984743427485227585e-03
-2.080225851386785507e-03
-8.908293209969997406e-03
-1.285625901073217392e-02
-4.084772954229265451e-04
-3.822419792413711548e-03
-1.358304580207914114e-04
-2.111318288370966911e-03
-3.739126957952976227e-03
7.177051622420549393e-03
7.455671438947319984e-04
-2.576106227934360504e-03
2.188812009990215302e-03
-9.584916755557060242e-03
-6.084595224820077419e-04
-8.142474107444286346e-04
7.503726985305547714e-03
7.794388802722096443e-04
-1.401992747560143471e-03
-6.078509613871574402e-03
-5.274424329400062561e-03
-3.944952186429873109e-05
4.691140726208686829e-03
3.475705394521355629e-03
-7.452233112417161465e-04
7.623714045621454716e-04
3.127775620669126511e-03
3.489225869998335838e-03
-1.691835373640060425e-02
2.821970963850617409e-03
-2.305971225723624229e-03
-1.076904940418899059e-03
7.380271330475807190e-03
-1.375745749101042747e-03
4.975422285497188568e-03
-6.834860425442457199e-03
-1.350975409150123596e-02
1.290379208512604237e-03
3.864209866151213646e-03
-4.702315665781497955e-03
-8.451635949313640594e-03
4.583253525197505951e-03
-4.402729682624340057e-03
1.118205487728118896e-03
4.467856779228895903e-04
2.652656985446810722e-03
9.553516429150477052e-05
-3.626378253102302551e-03
-1.188931404612958431e-03
1.075269072316586971e-03
1.735618454404175282e-03
-2.518875757232308388e-03
1.958739943802356720e-03
-2.763933967798948288e-03
-7.816631346940994263e-03
-1.279545482248067856e-03
-1.163055538199841976e-03
-1.534207444638013840e-02
-7.602609228342771530e-03
6.759754614904522896e-05
1.022501732222735882e-03
-1.722188782878220081e-03
7.914735469967126846e-04
-5.551205947995185852e-03
-1.270288322120904922e-02
-4.411815665662288666e-03
7.968488498590886593e-04
-1.228948403149843216e-02
2.187076024711132050e-03
-7.818900048732757568e-04
-5.031351465731859207e-03
-1.440718071535229683e-03
-3.450221149250864983e-03
-8.363005705177783966e-03
-3.571517998352646828e-03
-1.602659188210964203e-02
-5.070192273706197739e-04
9.296969510614871979e-04
-1.034432556480169296e-03
-9.123448282480239868e-03
-9.422101429663598537e-04
-1.054082531481981277e-02
4.229411482810974121e-03
5.262453341856598854e-04
1.801879028789699078e-03
-9.799458784982562065e-04
-3.736484330147504807e-03
3.634112363215535879e-04
-2.557287458330392838e-03
-6.014941609464585781e-04
-1.395244430750608444e-02
3.910097802872769535e-05
8.342565037310123444e-03
-7.956326007843017578e-03
-8.669795352034270763e-04
-8.341420441865921021e-03
1.655734260566532612e-03
-7.557609584182500839e-03
5.686192307621240616e-04
-5.516239441931247711e-03
-1.540871709585189819e-02
-7.980729569680988789e-04
-2.527634496800601482e-04
-3.385801799595355988e-03
4.957207711413502693e-04
-3.227965207770466805e-03
-5.216199439018964767e-03
-1.245322753675282001e-03
1.581528922542929649e-03
-5.165672046132385731e-04
-1.066000293940305710e-02
-5.445078946650028229e-03
-1.217835524585098028e-04
-5.650922656059265137e-03
1.853854977525770664e-03
-1.738710678182542324e-03
-2.594846533611416817e-03
5.555680952966213226e-03
4.946835804730653763e-03
-8.814655593596398830e-04
-9.866590611636638641e-03
-4.508798010647296906e-03
-3.208771813660860062e-03
-1.205670996569097042e-03
6.091049290262162685e-04
-1.320443581789731979e-03
-9.447626653127372265e-04
-2.219288609921932220e-03
-2.705766353756189346e-03
-9.362261742353439331e-03
-3.223135136067867279e-03
-2.854207297787070274e-03
-5.199615843594074249e-04
-9.952707914635539055e-04
1.838512369431555271e-03
-6.105542182922363281e-03
-1.076069078408181667e-03
3.350314218550920486e-03
1.891320571303367615e-04
-6.654489319771528244e-03
1.856490736827254295e-03
-1.652202755212783813e-02
-1.761024119332432747e-03
5.372107960283756256e-03
1.213799987453967333e-04
7.890383712947368622e-04
-9.541186504065990448e-03
-7.168166339397430420e-03
-4.639769438654184341e-03
-3.366834018379449844e-03
-7.079544011503458023e-03
3.915626148227602243e-04
-9.411376668140292168e-04
-7.347555365413427353e-04
-4.985284991562366486e-03
-1.765281660482287407e-03
-4.728321917355060577e-03
3.978659398853778839e-03
8.102683932520449162e-04
-1.628932729363441467e-02
3.812457434833049774e-03
2.831610385328531265e-03
1.874904963187873363e-03
-2.426738850772380829e-03
-4.180197138339281082e-03
-3.867776831611990929e-04
-2.019373932853341103e-03
-1.196050550788640976e-02
-4.894818644970655441e-03
-4.700014833360910416e-03
-1.373935863375663757e-02
1.429009862476959825e-04
-6.183825898915529251e-03
-1.842709374614059925e-03
-3.872041124850511551e-04
3.275115275755524635e-03
-1.050216611474752426e-02
4.168209852650761604e-05
-1.201677951030433178e-03
-2.757057547569274902e-03
1.366718090139329433e-03
2.986895924550481141e-05
1.235689735040068626e-03
4.973590373992919922e-03
9.704384137876331806e-04
2.489548409357666969e-03
-6.430870387703180313e-03
2.875982900150120258e-04
-1.789667992852628231e-03
4.624249704647809267e-04
-2.577118109911680222e-03
-1.651553669944405556e-03
1.496322220191359520e-03
-1.315670786425471306e-03
-1.055815257132053375e-02
-2.749476814642548561e-03
5.174733814783394337e-04
-2.610071096569299698e-04
-4.922595690004527569e-04
-4.323214758187532425e-03
7.551970193162560463e-04
-2.758062444627285004e-03
5.930706975050270557e-04
8.325433591380715370e-04
7.992056780494749546e-04
7.072377018630504608e-03
-1.932778512127697468e-03
-2.401332836598157883e-03
1.209659269079566002e-03
-5.367828533053398132e-03
-8.169034845195710659e-04
-9.649291750974953175e-04
-3.958777524530887604e-03
2.217474160715937614e-03
-5.327398888766765594e-03
1.416161307133734226e-03
-2.912418451160192490e-03
-3.794235410168766975e-03
1.039485796354711056e-03
-1.941473921760916710e-03
-5.951498751528561115e-04
-4.871380515396595001e-03
2.430439461022615433e-03
-4.339179955422878265e-03
6.021696142852306366e-03
7.855966687202453613e-03
1.938820350915193558e-03
-4.866001196205615997e-03
5.501991254277527332e-04
-2.402043173788115382e-05
2.697414020076394081e-03
7.205002475529909134e-03
-8.035574108362197876e-03
-2.489890903234481812e-03
-6.910388357937335968e-03
-2.392635680735111237e-03
1.098333275876939297e-03
-4.046714399009943008e-03
-2.714302972890436649e-04
-4.958841484040021896e-03
-3.986424766480922699e-03
-9.675204637460410595e-04
-3.355407621711492538e-03
-3.780006198212504387e-03
4.828934092074632645e-03
-1.429811120033264160e-03
3.749428724404424429e-04
-3.148931136820465326e-04
7.713057566434144974e-03
-6.835923995822668076e-04
1.415922655723989010e-03
-9.896825067698955536e-04
-3.601145697757601738e-03
-9.696568362414836884e-03
1.165578886866569519e-02
8.625975460745394230e-04
-2.523271832615137100e-03
-1.654206193052232265e-03
5.171079188585281372e-03
-7.327501662075519562e-03
-3.588675754144787788e-03
-1.497710007242858410e-03
-6.528229918330907822e-03
-2.190013416111469269e-03
1.381451380439102650e-03
-6.398647092282772064e-03
-1.636454137042164803e-03
-4.246579774189740419e-04
4.169301129877567291e-03
9.387708851136267185e-04
-6.653087213635444641e-03
9.016381227411329746e-04
-2.771128783933818340e-04
-4.735388210974633694e-04
-5.774973891675472260e-03
7.459393236786127090e-03
-2.334290882572531700e-03
