-2.573193050920963287e-02
5.256574228405952454e-02
-1.114262118935585022e-01
6.422846764326095581e-02
4.349251464009284973e-02
-1.051248759031295776e-01
-9.469758719205856323e-02
7.281548529863357544e-02
-1.297052763402462006e-02
-8.059871941804885864e-02
-1.265821456909179688e-01
1.042734235525131226e-01
4.604129865765571594e-02
6.571403890848159790e-02
-8.078522235155105591e-02
1.126583516597747803e-01
-8.163062483072280884e-02
4.157398268580436707e-02
-1.087940037250518799e-01
9.138698875904083252e-02
-3.309891000390052795e-02
3.550338791683316231e-03
3.638949990272521973e-02
-6.635619699954986572e-02
4.832025617361068726e-02
-5.959167703986167908e-02
-2.772547118365764618e-02
9.603078663349151611e-02
-4.244672134518623352e-02
6.371943652629852295e-02
1.308274716138839722e-01
-1.320061683654785156e-01
-6.097151711583137512e-02
-1.393238361924886703e-02
2.213959582149982452e-02
-6.823351234197616577e-02
-1.029701679944992065e-01
4.227941855788230896e-02
3.867687657475471497e-02
-2.674181200563907623e-02
-7.788941264152526855e-02
-2.876398339867591858e-02
-1.109411101788282394e-02
-9.069638326764106750e-03
9.744443930685520172e-03
1.085694320499897003e-02
-1.279703900218009949e-02
1.000691801309585571e-01
7.165743410587310791e-02
6.001658737659454346e-03
1.092008277773857117e-01
-8.483202010393142700e-02
1.241635009646415710e-01
-1.060084402561187744e-01
-7.453145086765289307e-02
3.455584496259689331e-02
-4.535351693630218506e-02
-2.928179129958152771e-02
1.608547568321228027e-02
3.486609831452369690e-02
-9.827533364295959473e-02
4.581893235445022583e-02
-5.753027275204658508e-02
-2.594424178823828697e-03
-1.040466129779815674e-01
5.055413395166397095e-02
-1.131805405020713806e-01
4.064250737428665161e-02
-7.361736893653869629e-02
-1.051855273544788361e-02
5.755115672945976257e-02
-8.941923826932907104e-02
-7.206575572490692139e-02
1.421252381987869740e-03
7.650092989206314087e-02
-1.979731023311614990e-02
7.719700690358877182e-03
-6.381324678659439087e-02
-5.315197631716728210e-03
-6.136598810553550720e-02
2.987845614552497864e-02
-7.119199726730585098e-03
5.016208812594413757e-02
1.408328581601381302e-02
2.529236674308776855e-02
7.214290648698806763e-02
-6.570715457201004028e-02
-2.706968225538730621e-02
9.600229561328887939e-02
1.890553906559944153e-02
6.825292110443115234e-02
-1.292894333600997925e-01
-1.052280664443969727e-01
4.765012115240097046e-02
-1.072436571121215820e-01
2.944065257906913757e-02
5.234254058450460434e-04
-1.529681868851184845e-02
1.066739931702613831e-01
-4.073405265808105469e-02
-4.676340147852897644e-02
1.117560938000679016e-01
6.542795151472091675e-02
-8.455994725227355957e-02
9.652271121740341187e-02
-9.774652868509292603e-02
5.542561411857604980e-03
-5.625705420970916748e-02
1.717262268066406250e-01
-1.682169735431671143e-01
3.464144840836524963e-02
-1.158697903156280518e-01
3.434752672910690308e-02
-7.346492260694503784e-02
4.325457848608493805e-03
3.412647917866706848e-02
4.767934605479240417e-02
-8.595491200685501099e-02
2.847148105502128601e-02
5.849548801779747009e-02
-7.487839460372924805e-02
1.027799993753433228e-01
1.273150295019149780e-01
-6.063734367489814758e-02
-9.515282511711120605e-02
5.915094539523124695e-02
-8.545649796724319458e-02
2.613673359155654907e-02
-9.253018349409103394e-02
7.212304510176181793e-03
7.394209504127502441e-02
-3.490803018212318420e-02
-1.196792200207710266e-01
7.650972157716751099e-02
-2.478229254484176636e-02
4.783666878938674927e-02
6.523686647415161133e-02
-1.028587967157363892e-01
8.440097421407699585e-02
4.085103794932365417e-02
1.713711768388748169e-01
-1.424923390150070190e-01
2.163465693593025208e-02
-8.303703367710113525e-02
6.325362715870141983e-03
-7.062111794948577881e-02
7.981432229280471802e-02
-3.699135035276412964e-02
2.827760018408298492e-02
-4.848251864314079285e-02
7.111506164073944092e-02
-6.482961028814315796e-02
-1.034218668937683105e-01
1.273616999387741089e-01
-7.799720019102096558e-02
-6.259819958359003067e-03
-3.732953593134880066e-02
5.566688627004623413e-02
1.404186943545937538e-03
-8.395752310752868652e-02
-3.861157223582267761e-02
6.016040220856666565e-02
1.376735977828502655e-02
6.613928079605102539e-02
1.038557384163141251e-02
-4.825628176331520081e-02
-9.061065316200256348e-02
-5.251178517937660217e-04
-2.268213033676147461e-02
6.959184259176254272e-02
-3.104699216783046722e-02
-8.457631617784500122e-02
-3.323274105787277222e-02
7.033679634332656860e-02
-1.010373979806900024e-01
1.173366419970989227e-02
6.600064039230346680e-02
4.897836223244667053e-02
2.043880522251129150e-02
8.818078786134719849e-02
-6.770888715982437134e-02
5.400665849447250366e-02
-1.078239828348159790e-01
1.381496638059616089e-01
8.360189199447631836e-02
-5.067355558276176453e-02
-1.141694281250238419e-02
-9.450925141572952271e-02
1.069341301918029785e-01
-7.808738201856613159e-02
-2.147465571761131287e-02
7.809019088745117188e-02
4.511919990181922913e-02
2.514015138149261475e-02
-1.094670519232749939e-01
4.993185773491859436e-02
-2.163784764707088470e-02
4.620620235800743103e-02
1.365905106067657471e-01
-1.317530721426010132e-01
-4.033927991986274719e-02
1.136451065540313721e-01
3.840490803122520447e-02
-4.936643317341804504e-02
-1.065109223127365112e-01
1.116332933306694031e-01
-5.784331634640693665e-02
2.965917624533176422e-02
-6.535751372575759888e-02
4.118544608354568481e-02
1.030000224709510803e-01
-6.242061033844947815e-02
4.533193260431289673e-02
-3.797831013798713684e-02
1.040481477975845337e-01
-3.466907888650894165e-02
-7.422740757465362549e-02
2.617019414901733398e-02
-5.759971961379051208e-02
5.779051780700683594e-02
-1.087121143937110901e-01
6.500510871410369873e-02
-1.063938513398170471e-01
4.984911531209945679e-02
1.165057867765426636e-01
-1.546443440020084381e-02
3.819684032350778580e-03
-5.560138449072837830e-02
-6.692286580801010132e-03
-8.916869014501571655e-02
-1.038943082094192505e-01
8.391156047582626343e-02
-1.058082059025764465e-01
1.180947944521903992e-01
4.156231414526700974e-03
5.418414250016212463e-02
4.004057869315147400e-02
-1.044399514794349670e-01
3.833388909697532654e-02
-1.129951328039169312e-01
-4.436994716525077820e-02
3.894991800189018250e-02
-1.057743355631828308e-01
-9.196528233587741852e-03
-1.083026975393295288e-01
2.008321695029735565e-02
5.022353027015924454e-03
-4.545876383781433105e-02
-7.109308242797851562e-02
1.022357419133186340e-01
-5.530796200037002563e-02
-2.362396940588951111e-02
-8.199346810579299927e-02
1.499358415603637695e-01
8.048897236585617065e-02
-1.143509447574615479e-01
8.921251446008682251e-02
-7.056899834424257278e-03
1.339753121137619019e-01
-1.420930922031402588e-01
-5.126348137855529785e-02
-1.972563937306404114e-02
4.856871673837304115e-04
-5.528991296887397766e-02
-6.779770553112030029e-02
5.857555568218231201e-02
-5.399400740861892700e-02
1.158924866467714310e-02
8.209143579006195068e-02
-1.326446831226348877e-01
1.135549768805503845e-01
-9.752626717090606689e-02
-1.923537626862525940e-02
-2.235387824475765228e-02
-1.112396568059921265e-01
1.309070587158203125e-01
-1.115747764706611633e-01
8.742151409387588501e-02
-9.017641097307205200e-02
4.947762563824653625e-02
1.177870929241180420e-01
-1.065946221351623535e-01
4.419444873929023743e-02
-6.686779088340699673e-04
-3.243803977966308594e-02
-8.627580106258392334e-02
4.625134915113449097e-02
-8.621554821729660034e-02
-2.705364860594272614e-02
4.986980929970741272e-02
8.813498169183731079e-02
-7.264474779367446899e-02
-9.066737256944179535e-03
-2.162820659577846527e-02
8.825735002756118774e-02
-1.130122542381286621e-01
2.864660508930683136e-02
-5.060657858848571777e-02
-2.409966662526130676e-03
-4.554214701056480408e-02
-6.867869198322296143e-02
-3.721618279814720154e-02
6.059332937002182007e-02
4.794456064701080322e-02
2.348393201828002930e-02
8.209655061364173889e-03
-6.950021535158157349e-02
2.958646230399608612e-02
6.773408502340316772e-02
-5.770937353372573853e-02
6.253176182508468628e-02
2.939897775650024414e-02
-2.817600034177303314e-02
1.051516905426979065e-01
-3.508177772164344788e-02
3.542522341012954712e-02
4.398791864514350891e-02
-1.474401634186506271e-02
-7.508571445941925049e-02
5.050441250205039978e-02
-9.661564603447914124e-03
3.588573262095451355e-02
-2.790321223437786102e-02
-5.275028571486473083e-02
8.693868294358253479e-03
-6.448081880807876587e-02
-1.652255468070507050e-02
1.784202829003334045e-02
3.793053561821579933e-03
-2.795246988534927368e-02
5.089405924081802368e-03
7.961153984069824219e-02
-7.609196752309799194e-02
-9.409798309206962585e-03
-1.414768695831298828e-01
1.053670793771743774e-01
-5.652707070112228394e-02
4.481504112482070923e-02
-3.930349647998809814e-02
8.597202599048614502e-02
-2.263906411826610565e-02
3.861130774021148682e-02
6.729720532894134521e-02
4.736927524209022522e-02
9.990099817514419556e-02
-1.203383579850196838e-01
-9.652718156576156616e-02
-1.535851880908012390e-02
-1.647890545427799225e-03
8.889271318912506104e-02
1.004685834050178528e-01
-1.022646799683570862e-01
-1.149750128388404846e-01
1.157981231808662415e-01
8.960285037755966187e-02
1.442970428615808487e-02
1.164461299777030945e-01
-8.286288380622863770e-02
2.331274375319480896e-02
2.147483266890048981e-02
-5.400864034891128540e-02
1.096431165933609009e-01
-8.207485824823379517e-02
1.283967345952987671e-01
-1.129541993141174316e-01
1.227763816714286804e-01
-1.161353141069412231e-01
6.226843222975730896e-02
-4.769369959831237793e-02
1.048454344272613525e-01
6.121251732110977173e-02
-9.104461222887039185e-02
-5.907895416021347046e-02
4.120339825749397278e-02
3.454163961578160524e-04
-8.210311830043792725e-02
4.660649225115776062e-03
5.658222362399101257e-02
5.037999153137207031e-02
-1.050544679164886475e-01
6.578530371189117432e-02
-4.485161975026130676e-02
1.496993303298950195e-01
-1.056530475616455078e-01
-1.024575382471084595e-01
7.259699702262878418e-02
1.447594910860061646e-01
-1.536425799131393433e-01
5.405199900269508362e-02
-7.427857071161270142e-02
-6.628299504518508911e-02
1.996814506128430367e-03
-4.836890846490859985e-02
6.923368573188781738e-02
-1.463485062122344971e-01
9.961605817079544067e-02
1.007324010133743286e-01
-6.881691515445709229e-02
7.732239365577697754e-02
-9.745931625366210938e-02
2.750406414270401001e-02
5.311425030231475830e-02
9.649632871150970459e-02
-5.497232824563980103e-02
-8.998804539442062378e-02
2.139748074114322662e-02
7.406963966786861420e-03
6.697867065668106079e-02
-7.888012379407882690e-02
1.276595592498779297e-01
7.950069755315780640e-02
-9.486369788646697998e-02
1.226175762712955475e-02
-6.377554684877395630e-02
1.051818355917930603e-01
-3.622856736183166504e-02
-6.621108949184417725e-02
3.608743473887443542e-02
-4.731494560837745667e-02
5.336363613605499268e-02
-1.460393331944942474e-02
1.034777238965034485e-02
-4.446427151560783386e-02
-5.156898126006126404e-02
8.557958155870437622e-02
-9.035483747720718384e-02
-1.414479911327362061e-01
1.480190753936767578e-01
6.418379396200180054e-02
-6.653035059571266174e-03
1.621574014425277710e-01
-1.515715718269348145e-01
3.591788560152053833e-02
-8.475585281848907471e-02
-8.336735516786575317e-02
3.370725363492965698e-02
-6.006814539432525635e-02
5.142771825194358826e-02
1.240257695317268372e-01
-1.159476116299629211e-01
-3.872494027018547058e-02
-7.563431560993194580e-02
1.411833763122558594e-01
-1.541706025600433350e-01
1.006550863385200500e-01
-1.219461932778358459e-01
1.324378103017807007e-01
-8.716668933629989624e-02
-3.281311690807342529e-02
8.197402209043502808e-02
-6.024171784520149231e-02
6.297706067562103271e-02
-1.241597607731819153e-01
5.962679907679557800e-02
4.532839357852935791e-02
-5.426398664712905884e-02
-6.673974543809890747e-02
5.126482620835304260e-02
6.950617581605911255e-02
5.338979884982109070e-02
-1.462763547897338867e-02
4.667739197611808777e-02
-7.738309353590011597e-02
4.679654911160469055e-02
7.968997210264205933e-02
-1.286751925945281982e-01
6.122663989663124084e-02
1.287717279046773911e-02
-6.230317428708076477e-02
7.590421289205551147e-02
2.277504466474056244e-02
-8.501972258090972900e-02
-1.251562684774398804e-01
7.978856563568115234e-02
2.237702533602714539e-02
5.094745010137557983e-02
1.411080174148082733e-02
-7.933576405048370361e-02
8.861504495143890381e-02
-1.073052957653999329e-01
1.197391282767057419e-02
-7.439698278903961182e-02
-6.328838318586349487e-02
-4.946021363139152527e-02
-7.308689504861831665e-02
1.029557660222053528e-01
-1.194075047969818115e-01
1.181529462337493896e-01
6.842331588268280029e-02
-4.604090377688407898e-02
1.118372529745101929e-01
-9.413795918226242065e-02
6.506051123142242432e-02
-4.440399352461099625e-03
5.121880397200584412e-02
-1.065743938088417053e-01
-5.335739348083734512e-03
-8.439200371503829956e-02
5.040745064616203308e-02
-1.170047521591186523e-01
8.327224105596542358e-02
-3.963499143719673157e-02
-1.847349107265472412e-01
1.849118769168853760e-01
3.245413536205887794e-03
-8.925250917673110962e-02
-1.082161664962768555e-01
1.500636711716651917e-02
-7.589084655046463013e-02
-3.096589818596839905e-02
6.954524666070938110e-02
-7.379581034183502197e-02
-9.058632701635360718e-02
-2.758913487195968628e-02
9.851858764886856079e-02
-8.574964851140975952e-02
-4.472817480564117432e-02
9.657379239797592163e-02
-1.155675202608108521e-01
6.737179309129714966e-02
8.724386245012283325e-02
1.206310093402862549e-02
6.790883839130401611e-02
-1.049651876091957092e-01
4.780647903680801392e-02
-1.264344453811645508e-01
-1.056191399693489075e-01
7.551334053277969360e-02
1.010598763823509216e-01
-4.234693199396133423e-02
-9.345594793558120728e-02
2.260995842516422272e-02
-4.156816750764846802e-02
-7.499437779188156128e-02
3.271930292248725891e-02
1.714959740638732910e-03
6.598769873380661011e-02
-1.031484380364418030e-01
5.647487193346023560e-02
1.869404339231550694e-03
-8.012412488460540771e-02
6.413701456040143967e-03
1.359831541776657104e-02
5.616398155689239502e-02
-2.078957157209515572e-03
-6.459532678127288818e-02
-2.961661852896213531e-02
-4.089459031820297241e-02
-6.467794068157672882e-03
7.426355034112930298e-02
7.898064702749252319e-02
3.177890554070472717e-02
-5.321963503956794739e-02
7.732696086168289185e-02
-3.968195524066686630e-03
8.591254055500030518e-02
-5.072405934333801270e-02
1.070642750710248947e-02
2.509816922247409821e-02
4.637759551405906677e-02
-1.270778924226760864e-01
1.040001064538955688e-01
-6.552096456289291382e-02
4.069058224558830261e-02
9.233276546001434326e-02
3.041227720677852631e-02
4.028175026178359985e-02
-5.639999359846115112e-02
4.025778919458389282e-02
5.858909711241722107e-02
7.113398052752017975e-03
-4.418918862938880920e-02
-1.792994700372219086e-02
4.259205982089042664e-02
-6.947298347949981689e-02
8.808901906013488770e-02
2.772059477865695953e-02
6.529995799064636230e-02
7.356059551239013672e-02
-6.931380182504653931e-02
-1.145902499556541443e-01
1.418693512678146362e-01
-8.516395464539527893e-04
-5.666788667440414429e-02
-5.053153261542320251e-02
3.734790906310081482e-02
-6.330727785825729370e-02
9.986983239650726318e-02
8.986593456938862801e-05
-9.485842287540435791e-02
-1.184455826878547668e-01
1.047798618674278259e-01
-1.506316214799880981e-01
1.414924412965774536e-01
1.598464995622634888e-01
-1.470779478549957275e-01
-1.192523837089538574e-01
1.191227659583091736e-01
6.308453157544136047e-03
1.788254827260971069e-02
9.567899256944656372e-02
2.296732924878597260e-02
-3.313995525240898132e-02
-1.054554525762796402e-02
-2.198892459273338318e-02
9.370052069425582886e-02
1.765713840723037720e-02
1.458851434290409088e-02
-9.917877614498138428e-02
9.085278958082199097e-02
1.062447652220726013e-01
-5.569163337349891663e-02
9.990308433771133423e-02
-9.711653739213943481e-02
2.755848132073879242e-02
-9.751195460557937622e-02
-6.567486096173524857e-03
-9.211615659296512604e-03
2.987383678555488586e-02
-7.611443102359771729e-02
5.557918176054954529e-02
-9.486691653728485107e-02
-2.301273308694362640e-02
7.368959486484527588e-02
5.283475294709205627e-02
7.962585240602493286e-02
-1.292337328195571899e-01
1.403744816780090332e-01
-9.042548388242721558e-02
8.427366614341735840e-03
9.864245355129241943e-02
-9.923928976058959961e-02
-6.279817223548889160e-02
4.377895966172218323e-02
-7.855667918920516968e-02
-3.803319111466407776e-02
-9.825928509235382080e-02
-1.577154849655926228e-03
7.479203492403030396e-02
-8.010110817849636078e-03
-6.317362189292907715e-02
5.360880866646766663e-02
2.530721202492713928e-02
9.960332512855529785e-02
-1.043791621923446655e-01
1.043883860111236572e-01
-1.233769506216049194e-01
1.305749863386154175e-01
5.562227591872215271e-02
1.134373340755701065e-02
3.533559292554855347e-02
7.379857450723648071e-02
2.808757498860359192e-02
-4.268983379006385803e-02
3.951293975114822388e-02
-2.502896264195442200e-02
1.476017534732818604e-01
-1.325834989547729492e-01
-1.322355568408966064e-01
7.523419708013534546e-02
-1.721439696848392487e-02
2.699488401412963867e-02
7.328790426254272461e-02
-5.810913443565368652e-02
-7.151986658573150635e-02
-4.357781261205673218e-02
-4.464083537459373474e-02
6.368729472160339355e-02
-3.360096365213394165e-02
5.473926290869712830e-02
-2.407131902873516083e-02
-1.613249257206916809e-02
-9.834414720535278320e-02
1.534631010144948959e-02
-1.572922989726066589e-02
-2.862786687910556793e-02
3.590292483568191528e-02
7.500045001506805420e-02
4.795269295573234558e-02
6.259220838546752930e-02
8.638779073953628540e-02
-3.919750452041625977e-02
2.928001247346401215e-02
-2.715607732534408569e-02
-6.835561245679855347e-03
3.030434250831604004e-02
1.330975443124771118e-01
-1.481903046369552612e-01
-1.061591729521751404e-01
6.814700365066528320e-02
-8.132590353488922119e-02
8.191313594579696655e-02
5.174646526575088501e-02
-1.024904549121856689e-01
-2.983453497290611267e-02
-4.402392730116844177e-02
5.995360016822814941e-02
-8.703272789716720581e-02
-6.254529953002929688e-02
-5.337815359234809875e-02
-1.233722791075706482e-01
1.085702478885650635e-01
-4.411681368947029114e-02
4.157757014036178589e-02
-1.255925744771957397e-01
1.470960378646850586e-01
-3.376967832446098328e-02
-1.180364936590194702e-02
-5.552203580737113953e-02
5.303295701742172241e-02
6.216262653470039368e-02
-2.407056465744972229e-02
3.967496100813150406e-03
-2.604075707495212555e-03
1.793747581541538239e-02
-8.220348507165908813e-02
-1.072635576128959656e-01
9.709084033966064453e-02
8.262126892805099487e-02
-9.654495120048522949e-02
7.089827209711074829e-02
-1.178907826542854309e-01
3.989642113447189331e-02
-2.310970239341259003e-02
-1.276798397302627563e-01
1.159548982977867126e-01
1.633525826036930084e-02
-8.987204730510711670e-02
-7.327479869127273560e-02
8.492778241634368896e-02
-5.828879401087760925e-02
6.495985202491283417e-03
6.768857687711715698e-02
-7.929100841283798218e-02
9.934601187705993652e-02
-1.053114011883735657e-01
5.012587830424308777e-02
4.103657975792884827e-02
-7.707891613245010376e-02
2.176941186189651489e-02
-1.109543517231941223e-01
6.133887916803359985e-02
9.740456938743591309e-02
-5.761600658297538757e-02
-1.006006523966789246e-01
4.036225751042366028e-02
-9.296692907810211182e-02
8.898370712995529175e-02
3.417450189590454102e-02
-1.046157442033290863e-02
3.108809515833854675e-02
4.611044749617576599e-02
-1.197706311941146851e-01
1.506943553686141968e-01
-5.648917704820632935e-02
1.031209304928779602e-01
1.113424003124237061e-01
-9.431564062833786011e-02
1.219534352421760559e-01
-8.268752694129943848e-02
4.536830633878707886e-02
-6.112206727266311646e-02
1.268877685070037842e-01
-6.923948228359222412e-02
-1.321440935134887695e-01
9.453802555799484253e-02
8.193038403987884521e-02
-4.811742901802062988e-02
8.579181134700775146e-02
-1.374038904905319214e-01
7.001596689224243164e-02
-3.439221531152725220e-02
8.896430023014545441e-03
4.945535585284233093e-02
2.898914366960525513e-02
6.796684861183166504e-02
1.104757636785507202e-01
-1.178362146019935608e-01
-3.278707340359687805e-02
5.095644854009151459e-03
-1.025488972663879395e-01
1.322872787714004517e-01
-6.226890161633491516e-02
2.416865155100822449e-02
1.061689704656600952e-01
-1.314471662044525146e-01
-6.063824892044067383e-02
1.323906183242797852e-01
-6.175277754664421082e-03
1.136366724967956543e-01
-9.073507040739059448e-02
1.384215503931045532e-01
-4.488778114318847656e-02
8.735363371670246124e-03
-2.035956364125013351e-03
-4.798620939254760742e-02
1.132669225335121155e-01
-3.651686012744903564e-02
-1.217904984951019287e-01
7.288417220115661621e-02
4.205196350812911987e-02
-1.019391864538192749e-01
-1.743338257074356079e-01
1.693409681320190430e-01
6.132891867309808731e-03
9.180269390344619751e-02
5.428574606776237488e-02
9.199810214340686798e-03
-8.884151279926300049e-02
-2.509161084890365601e-02
7.374574244022369385e-02
3.303224965929985046e-02
1.543814782053232193e-02
-9.399364143610000610e-02
2.561450004577636719e-02
-9.680255502462387085e-02
-4.052868578583002090e-03
-6.449904292821884155e-02
-1.254711151123046875e-01
1.221549436450004578e-01
-5.886499956250190735e-02
8.369547873735427856e-02
-8.366431295871734619e-02
7.788579910993576050e-02
9.962172806262969971e-02
-9.594932198524475098e-03
1.306986995041370392e-02
4.817216098308563232e-02
-9.497474133968353271e-02
8.536449819803237915e-02
1.004016250371932983e-01
-2.065822482109069824e-02
1.995264925062656403e-02
-4.391576722264289856e-02
-8.831352740526199341e-02
8.203841000795364380e-02
1.144883334636688232e-01
-1.031406223773956299e-01
7.380402088165283203e-02
1.251186896115541458e-02
-3.378224000334739685e-02
5.631256103515625000e-02
-2.947615575976669788e-04
2.780610322952270508e-02
-2.571551501750946045e-02
8.985897898674011230e-02
4.710603877902030945e-02
2.748508565127849579e-02
-1.286332309246063232e-01
1.201535537838935852e-01
8.768887072801589966e-02
-3.618506481871008873e-03
6.276006251573562622e-02
-1.102347206324338913e-02
1.457225158810615540e-02
-4.713943228125572205e-02
1.054842323064804077e-01
-8.842160552740097046e-02
-6.703171133995056152e-02
1.240063179284334183e-02
5.890501290559768677e-02
-6.871791556477546692e-04
5.770921334624290466e-02
-8.346211165189743042e-02
3.328113630414009094e-02
7.502938807010650635e-02
1.163520961999893188e-01
-4.569846391677856445e-02
-4.302611574530601501e-02
-5.014169961214065552e-02
1.030886825174093246e-02
1.054442822933197021e-01
3.302600234746932983e-02
-8.542919903993606567e-02
-8.923278003931045532e-02
1.100349947810173035e-01
4.443409666419029236e-02
-9.602172672748565674e-02
-1.645088791847229004e-01
1.565594524145126343e-01
-5.530671402812004089e-02
7.487552613019943237e-02
6.967210024595260620e-02
1.803093403577804565e-02
-4.107479378581047058e-02
-4.490340070333331823e-04
-5.357244983315467834e-02
-7.116362452507019043e-02
1.158864274621009827e-01
-1.282439827919006348e-01
2.266616001725196838e-02
-8.241885900497436523e-02
-9.588060528039932251e-02
6.469259411096572876e-02
6.981420516967773438e-02
-1.101755499839782715e-01
9.892387688159942627e-02
-1.292232125997543335e-01
7.350395619869232178e-02
-5.219442024827003479e-02
-6.159058585762977600e-02
4.795309156179428101e-02
1.221018582582473755e-01
-5.801216140389442444e-02
7.025898247957229614e-02
-7.330287992954254150e-02
3.586381673812866211e-02
-9.726174175739288330e-02
7.240410149097442627e-02
-8.059616200625896454e-03
-7.517534308135509491e-03
1.013512387871742249e-01
1.027545630931854248e-01
-5.356069281697273254e-02
-1.068611517548561096e-01
7.358976453542709351e-02
-2.776797860860824585e-02
3.638826683163642883e-02
2.096346206963062286e-02
-1.116375252604484558e-02
-1.578910462558269501e-02
8.050051331520080566e-02
-7.953643798828125000e-02
1.755414903163909912e-02
-1.022367179393768311e-01
1.189988330006599426e-01
-1.736651174724102020e-02
9.289696812629699707e-02
6.923897564411163330e-02
3.073976375162601471e-02
-1.098414883017539978e-01
6.423955410718917847e-02
-4.950276389718055725e-02
9.666144102811813354e-02
9.132577478885650635e-02
-1.312150657176971436e-01
-8.339191228151321411e-02
-1.057624537497758865e-02
1.300611197948455811e-01
-5.138275027275085449e-02
7.741281297057867050e-04
-1.091868337243795395e-02
5.313369631767272949e-02
-6.868509948253631592e-02
9.549099206924438477e-02
3.372724726796150208e-02
9.609263390302658081e-02
-6.878671795129776001e-02
-3.049812279641628265e-02
2.319535426795482635e-02
-6.086892634630203247e-02
4.893049225211143494e-02
-9.549704194068908691e-02
8.888352662324905396e-02
1.086904779076576233e-01
-1.020460501313209534e-01
7.908283919095993042e-02
4.832518845796585083e-02
6.985462456941604614e-02
-1.225829198956489563e-01
-1.502786763012409210e-02
1.611602492630481720e-02
2.817801013588905334e-02
-2.076885290443897247e-02
-8.089821785688400269e-02
4.423414915800094604e-02
-7.556398212909698486e-02
9.957657009363174438e-02
-1.139199081808328629e-02
8.778645098209381104e-02
-9.188472479581832886e-02
7.213669829070568085e-03
-1.139693111181259155e-01
5.478491634130477905e-02
2.164567820727825165e-02
-8.806927502155303955e-02
-1.556496601551771164e-02
8.344782888889312744e-02
4.461025446653366089e-02
7.808515429496765137e-02
6.568149477243423462e-02
-1.294803321361541748e-01
8.076076954603195190e-02
-1.553301364183425903e-01
1.174669861793518066e-01
-3.949041292071342468e-02
-5.506765842437744141e-02
1.146730482578277588e-01
1.011228412389755249e-01
-3.616646304726600647e-02
1.456621335819363594e-03
1.808140985667705536e-02
1.999685727059841156e-02
-6.606689654290676117e-03
1.141388341784477234e-01
-6.077884137630462646e-02
1.248680576682090759e-01
-8.472393453121185303e-02
9.363920241594314575e-02
9.164946968667209148e-04
